time;bias-band1;bias-band2
518419.654;0;0
518420.654;-136.910240986;0
518421.654;-136.944139142;0
518422.654;-136.634251363;0
518423.654;-136.698400553;0
518424.654;-136.686433722;0
518425.654;-136.766213755;0
518426.654;-136.491092689;0
518427.654;-136.879721628;0
518428.654;-137.369813578;0
518429.654;-136.129769996;0
518430.654;-136.246431977;0
518431.654;-136.92427662;0
518432.654;-136.903217905;0
518433.654;-136.904222924;0
518434.654;-137.410758222;0
518435.654;-136.15578874;0
518436.654;-135.899845412;0
518437.654;-136.88056577;0
518438.654;-137.219900074;0
518439.654;-137.262995531;0
518440.654;-137.627990608;0
518441.654;-138.316841031;0
518442.654;-138.739125009;0
518443.654;-138.167122002;0
518444.654;-138.362710471;0
518445.654;-137.863920646;0
518446.654;-137.809158625;0
518447.654;-137.873459351;0
518448.654;-137.458530536;0
518449.654;-138.612610144;0
518450.654;-140.313492995;0
518451.654;-139.876679594;0
518452.654;-139.946298647;0
518453.654;-139.353482242;0
518454.654;-139.310393416;0
518455.654;-140.311881777;0
518456.654;-139.866112587;0
518457.654;-139.797210232;0
518458.654;-139.581137867;0
518459.654;-139.281728957;0
518460.654;-139.06097915;0
518461.654;-139.216285083;0
518462.654;-139.00463671;0
518463.654;-139.388275127;0
518464.654;-139.483814669;0
518465.654;-141.426703302;0
518466.654;-140.865949743;0
518467.654;-140.657716686;0
518468.654;-142.191626037;0
518469.654;-140.96764438;0
518470.654;-140.257340487;0
518471.654;-139.922277945;0
518472.654;-139.508130485;0
518473.654;-139.678858045;0
518474.654;-139.630691173;0
518475.654;-139.105059421;0
518476.654;-139.448500558;0
518477.654;-139.525901824;0
518478.654;-139.517513149;0
518479.654;-140.052087444;0
518480.654;-140.759887414;0
518481.654;-140.624423841;0
518482.654;-140.003730864;0
518483.654;-139.941793945;0
518484.654;-140.445096103;0
518485.654;-141.069525345;0
518486.654;-140.426028948;0
518487.654;-140.886423256;0
518488.654;-141.353993156;0
518489.654;-142.710750754;0
518490.654;-142.132762021;0
518491.654;-142.152743369;0
518492.654;-142.239494091;0
518493.654;-141.575651609;0
518494.654;-140.993439655;0
518495.654;-140.573711372;0
518496.654;-140.219011457;0
518497.654;-139.359070568;0
518498.654;-139.285054665;0
518499.654;-140.065464394;0
518500.654;-139.394043553;0
518501.654;-139.59755199;0
518502.654;-139.132817414;0
518503.654;-138.85777346;0
518504.654;-139.031082682;0
518505.654;-139.823432604;0
518506.654;-139.99228817;0
518507.654;-139.051198733;0
518508.654;-140.364778894;0
518509.654;-140.82265947;0
518510.654;-139.754690629;0
518511.654;-140.819503939;0
518512.654;-141.317920404;0
518513.654;-141.843961218;0
518514.654;-141.262691309;0
518515.654;-141.208441842;0
518516.654;-140.29190096;0
518517.654;-141.198286878;0
518518.654;-141.807934952;0
518519.654;-141.851157107;0
518520.654;-142.189552386;0
518521.654;-142.16760882;0
518522.654;-142.053710002;0
518523.654;-141.935418135;0
518524.654;-141.670248367;0
518525.654;-141.486428452;0
518526.654;-141.707408002;0
518527.654;-142.075438689;0
518528.654;-141.811554957;0
518529.654;-142.510063533;0
518530.654;-141.436604775;0
518531.654;-141.188788144;0
518532.654;-141.009473797;0
518533.654;-141.658428733;0
518534.654;-141.397192218;0
518535.654;-141.345226728;0
518536.654;-141.082232876;0
518537.654;-141.146059219;0
518538.654;-141.460255151;0
518539.654;-142.113187431;0
518540.654;-141.140016219;0
518541.654;-140.980789421;0
518542.654;-140.77521382;0
518543.654;-140.874648962;0
518544.654;-140.907702546;0
518545.654;-140.813147868;0
518546.654;-140.51916565;0
518547.654;-140.763845031;0
518548.654;-141.506593978;0
518549.654;-141.494674345;0
518550.654;-141.513767533;0
518551.654;-141.234375539;0
518552.654;-141.473816244;0
518553.654;-141.058578559;0
518554.654;-141.798936987;0
518555.654;-142.018202405;0
518556.654;-142.006871301;0
518557.654;-142.015825323;0
518558.654;65.7338301474;0
518559.654;66.3687477699;0
518560.654;65.685134617;0
518561.654;66.2396588242;0
518562.654;65.7283237651;0
518563.654;65.5420347392;0
518564.654;64.9527262797;0
518565.654;64.1712373095;0
518566.654;63.9569482465;0
518567.654;63.3098840149;0
518568.654;63.637640756;0
518569.654;63.8822141513;0
518570.654;63.8638304127;0
518571.654;63.892345016;0
518572.654;63.6769135787;0
518573.654;63.6741445953;0
518574.654;63.5849221474;0
518575.654;62.7529343321;0
518576.654;63.5743789131;0
518577.654;63.2432537725;0
518578.654;62.9943719984;0
518579.654;63.6571768912;0
518580.654;63.8458996597;0
518581.654;63.7083625004;0
518582.654;62.5953217422;0
518583.654;61.7649099292;0
518584.654;61.7623169892;0
518585.654;61.639502634;0
518586.654;62.6900904058;0
518587.654;62.1787812341;0
518588.654;62.4671020996;0
518589.654;62.8330810699;0
518590.654;63.9816120431;0
518591.654;63.3438027913;0
518592.654;62.2914404724;0
518593.654;62.4772162924;0
518594.654;62.0038554555;0
518595.654;62.1733364216;0
518596.654;61.8451512344;0
518597.654;60.639273386;0
518598.654;60.4133983811;0
518599.654;60.594562816;0
518600.654;40.0819958136;0
518601.654;40.1825436542;0
518602.654;38.4735032502;0
518603.654;38.495239912;0
518604.654;39.4419627247;0
518605.654;39.6821207813;0
518606.654;39.730476459;0
518607.654;39.2538390336;0
518608.654;39.6611583867;0
518609.654;38.42649048;0
518610.654;40.3552535202;0
518611.654;38.9695477985;0
518612.654;38.9550778092;0
518613.654;38.5010177817;0
518614.654;38.2433038378;0
518615.654;38.6354264292;0
518616.654;38.5789899595;0
518617.654;38.7142209044;0
518618.654;37.9294470891;0
518619.654;38.467406398;0
518620.654;38.6042983779;0
518621.654;37.9565837848;0
518622.654;37.7390573233;0
518623.654;37.1181738825;0
518624.654;37.2752198492;0
518625.654;36.729429279;0
518626.654;37.015152992;0
518627.654;36.8204231624;0
518628.654;36.7776110461;0
518629.654;36.8149816849;0
518630.654;36.1584155815;0
518631.654;36.5433926118;0
518632.654;36.6343221407;0
518633.654;36.1406170972;0
518634.654;36.3249912764;0
518635.654;36.1644348921;0
518636.654;36.0939207734;0
518637.654;36.2772583235;0
518638.654;36.2669681152;0
518639.654;36.4055814839;0
518640.654;36.4741064577;0
518641.654;36.2819235543;0
518642.654;35.5273602047;0
518643.654;36.0739524387;0
518644.654;35.5635849469;0
518645.654;35.4558392163;0
518646.654;35.478942848;0
518647.654;36.2743326878;0
518648.654;36.0932291306;0
518649.654;36.0665911451;0
518650.654;36.4159368998;0
518651.654;36.3250239768;0
518652.654;36.0936847037;0
518653.654;36.2374232369;0
518654.654;36.1099570333;0
518655.654;37.1088607149;0
518656.654;36.7046088448;0
518657.654;36.4697856369;0
518658.654;36.2117118703;0
518659.654;35.432811031;0
518660.654;35.9353762508;0
518661.654;36.5756336444;0
518662.654;36.0593678764;0
518663.654;35.5748033958;0
518664.654;34.9067833243;0
518665.654;35.5407103559;0
518666.654;35.9387992671;0
518667.654;35.3957723917;0
518668.654;35.9417883108;0
518669.654;35.7434506741;0
518670.654;35.8533104044;0
518671.654;35.1675445587;0
518672.654;34.6695748462;0
518673.654;35.1309394975;0
518674.654;35.0424860907;0
518675.654;34.9946981769;0
518676.654;35.2220744355;0
518677.654;34.6549955643;0
518678.654;34.6561630721;0
518679.654;34.9250890454;0
518680.654;34.8251748562;0
518681.654;34.4857964532;0
518682.654;34.5849745874;0
518683.654;34.4584287065;0
518684.654;34.5383283687;0
518685.654;34.3235936094;0
518686.654;33.711433937;0
518687.654;32.9089702717;0
518688.654;33.0343569883;0
518689.654;32.4680155617;0
518690.654;32.8063516096;0
518691.654;31.8422387591;0
518692.654;32.4267320484;0
518693.654;32.7658254861;0
518694.654;33.2347592237;0
518695.654;32.767496008;0
518696.654;32.8192477794;0
518697.654;33.2865940956;0
518698.654;32.9677268104;0
518699.654;33.022926969;0
518700.654;32.6680815687;0
518701.654;31.8594524021;0
518702.654;31.5683540381;0
518703.654;31.9187106153;0
518704.654;31.5548488496;0
518705.654;31.7122644542;0
518706.654;31.7009125052;0
518707.654;32.4589522061;0
518708.654;32.4741462858;0
518709.654;32.4182373839;0
518710.654;31.456811347;0
518711.654;31.4185398172;0
518712.654;30.631636049;0
518713.654;29.2605142536;0
518714.654;29.8255290375;0
518715.654;29.4493179268;0
518716.654;29.4800286037;0
518717.654;30.9713878886;0
518718.654;30.4364406205;0
518719.654;30.2528542321;0
518720.654;29.8452325287;0
518721.654;29.2765838159;0
518722.654;29.2288910241;0
518723.654;29.0978961486;0
518724.654;28.9593606468;0
518725.654;29.348842048;0
518726.654;13.2902070495;0
518727.654;13.5914170967;0
518728.654;13.9970177004;0
518729.654;14.6811230342;0
518730.654;14.7352994542;0
518731.654;13.7932022804;0
518732.654;13.9940014855;0
518733.654;14.2115857356;0
518734.654;13.8618087844;0
518735.654;13.8306618797;0
518736.654;12.8941361162;0
518737.654;12.7034091929;0
518738.654;12.2657624559;0
518739.654;12.8207736077;0
518740.654;12.1722816293;0
518741.654;12.1184284814;0
518742.654;12.2480414043;0
518743.654;12.765711096;0
518744.654;11.954172879;0
518745.654;12.0158795857;0
518746.654;12.0504022591;0
518747.654;12.2316573034;0
518748.654;12.4568458983;0
518749.654;11.9881251139;0
518750.654;12.0045561807;0
518751.654;11.1964378288;0
518752.654;12.0257114851;0
518753.654;12.2596324789;0
518754.654;12.2572112396;0
518755.654;11.3780987634;0
518756.654;11.6919707039;0
518757.654;11.0586202697;0
518758.654;10.6404951186;0
518759.654;11.0406210479;0
518760.654;10.1534007622;0
518761.654;10.4865677593;0
518762.654;9.84526185099;0
518763.654;9.07392524698;0
518764.654;10.2015673468;0
518765.654;10.7826362017;0
518766.654;11.4934457456;0
518767.654;11.1928970462;0
518768.654;10.2990739451;0
518769.654;10.3016678761;0
518770.654;10.3049537488;0
518771.654;9.67619305501;0
518772.654;9.41685762109;0
518773.654;9.85803769103;0
518774.654;9.24712100916;0
518775.654;8.57189889027;0
518776.654;8.99895658282;0
518777.654;9.55301896318;0
518778.654;9.9708239358;0
518779.654;9.57351914607;0
518780.654;9.19487094825;0
518781.654;9.20461912794;0
518782.654;9.17999192488;0
518783.654;9.27030631372;0
518784.654;8.95517675756;0
518785.654;9.22296380304;0
518786.654;8.78173828603;0
518787.654;8.36713550695;0
518788.654;8.30941254455;0
518789.654;7.508524725;0
518790.654;7.04488858445;0
518791.654;7.2716605399;0
518792.654;8.52436229589;0
518793.654;7.75840856541;0
518794.654;7.36211770951;0
518795.654;7.26685869422;0
518796.654;5.90731121643;0
518797.654;6.50386717479;0
518798.654;6.12325069446;0
518799.654;5.89513964282;0
518800.654;5.29672425253;0
518801.654;5.59728011635;0
518802.654;5.50203655062;0
518803.654;5.51338997207;0
518804.654;5.38145243266;0
518805.654;5.77534181475;0
518806.654;4.84378142767;0
518807.654;4.4527427499;0
518808.654;4.71647444606;0
518809.654;5.47625454852;0
518810.654;5.57101670949;0
518811.654;6.03346235696;0
518812.654;5.14817232424;0
518813.654;5.22521515669;0
518814.654;4.28110942066;0
518815.654;4.8716341366;0
518816.654;5.09443562032;0
518817.654;4.61576901617;0
518818.654;4.5978675763;0
518819.654;4.076459975;0
518820.654;3.87645339768;0
518821.654;4.34633078202;0
518822.654;3.89248603391;0
518823.654;4.62327651196;0
518824.654;4.01636101922;0
518825.654;4.21715273753;0
518826.654;4.25140088997;0
518827.654;3.82020222071;0
518828.654;5.21314811108;0
518829.654;3.92667474182;0
518830.654;3.45788714583;0
518831.654;4.30640176418;0
518832.654;4.1335068194;0
518833.654;3.95441008753;0
518834.654;4.27302498377;0
518835.654;3.33882741147;0
518836.654;3.32177312657;0
518837.654;2.92270977055;0
518838.654;3.2855356214;0
518839.654;2.91609866002;0
518840.654;2.73244711678;0
518841.654;3.2351364161;0
518842.654;2.71131075854;0
518843.654;3.03106909178;0
518844.654;2.23998082853;0
518845.654;1.01871802437;0
518846.654;-10.8583721806;0
518847.654;-10.8732954085;0
518848.654;-10.5339140733;0
518849.654;-10.3796023358;0
518850.654;-10.8256151519;0
518851.654;-11.1026162592;0
518852.654;-10.8151775823;0
518853.654;-10.6085665756;0
518854.654;-10.5624970677;0
518855.654;-10.5470306095;0
518856.654;-10.9445065784;0
518857.654;-10.7961592216;0
518858.654;-10.5123166703;0
518859.654;-10.6945471825;0
518860.654;-10.6847149348;0
518861.654;-11.0090564588;0
518862.654;-11.4177709779;0
518863.654;-11.485749189;0
518864.654;-11.1297235245;0
518865.654;-11.1177553828;0
518866.654;-11.4395685535;0
518867.654;-11.4404455883;0
518868.654;-10.7302831245;0
518869.654;-10.2542095229;0
518870.654;-11.2367364921;0
518871.654;-11.5800236868;0
518872.654;-11.3113665497;0
518873.654;-10.821710438;0
518874.654;-11.1459869352;0
518875.654;-11.1625164235;0
518876.654;-11.8354641925;0
518877.654;-12.8254966135;0
518878.654;-12.7976438827;0
518879.654;-13.0834636972;0
518880.654;-13.6316832348;0
518881.654;-13.9577934238;0
518882.654;-13.1829192996;0
518883.654;-13.6630203721;0
518884.654;-13.5307512476;0
518885.654;-13.7949631276;0
518886.654;-13.6056333597;0
518887.654;-14.1278254515;0
518888.654;-14.0426214487;0
518889.654;-14.0568434316;0
518890.654;-14.1259124645;0
518891.654;-13.5627473466;0
518892.654;-13.7748974346;0
518893.654;-14.3184249386;0
518894.654;-13.4469480075;0
518895.654;-14.222513742;0
518896.654;-14.7589737768;0
518897.654;-13.9563583189;0
518898.654;-14.0358662211;0
518899.654;-14.03810189;0
518900.654;-14.9505912971;0
518901.654;-14.5639856798;0
518902.654;-14.1641253621;0
518903.654;-13.9264486684;0
518904.654;-13.2786304986;0
518905.654;-13.3257993904;0
518906.654;-13.6865424201;0
518907.654;-14.3742725077;0
518908.654;-14.100328846;0
518909.654;-14.2196904078;0
518910.654;-14.2481938049;0
518911.654;-14.0324511472;0
518912.654;-14.4096540393;0
518913.654;-14.7044906451;0
518914.654;-14.0878159464;0
518915.654;-14.851768527;0
518916.654;-14.7500805613;0
518917.654;-13.2849932538;0
518918.654;-14.3865991507;0
518919.654;-15.5362084628;0
518920.654;-15.544652283;0
518921.654;-16.043134005;0
518922.654;-16.5608389575;0
518923.654;-17.4795359108;0
518924.654;-15.521188672;0
518925.654;-17.3291031766;0
518926.654;-17.4949227375;0
518927.654;-17.3240552488;0
518928.654;-16.5203352106;0
518929.654;-16.8692956425;0
518930.654;-17.2152435019;0
518931.654;-17.5590899052;0
518932.654;-18.0228797723;0
518933.654;-18.9082548917;0
518934.654;-18.4425460845;0
518935.654;-18.9973422032;0
518936.654;-20.1408697368;0
518937.654;-19.9676470552;0
518938.654;-18.5335333677;0
518939.654;-18.8957521112;0
518940.654;-18.8573021369;0
518941.654;-18.8181403098;0
518942.654;-19.2349594318;0
518943.654;-20.2946818856;0
518944.654;-19.8693870481;0
518945.654;-20.0451454211;0
518946.654;-19.5861067949;0
518947.654;-20.2334149068;0
518948.654;-20.2629727362;0
518949.654;-18.6316504352;0
518950.654;-19.7770241303;0
518951.654;-19.8476145947;0
518952.654;-19.2966151856;0
518953.654;-20.0320031381;0
518954.654;-19.5489698424;0
518955.654;-20.1122600201;0
518956.654;-19.8371702967;0
518957.654;-20.4764779346;0
518958.654;-18.8562720828;0
518959.654;-20.3009250722;0
518960.654;-20.5217710336;0
518961.654;-20.0085984939;0
518962.654;-19.8388527752;0
518963.654;-20.4106970784;0
518964.654;-20.8192524177;0
518965.654;-20.3413409569;0
518966.654;-20.3699968392;0
518967.654;-21.3551466356;0
518968.654;-21.8629294976;0
518969.654;-21.5983997941;0
518970.654;-21.5749808357;0
518971.654;-21.1461719988;0
518972.654;-21.0908276428;0
518973.654;-21.6481809021;0
518974.654;-21.8784631151;0
518975.654;-22.5830242615;0
518976.654;-22.8194503168;0
518977.654;-22.1334045072;0
518978.654;-22.7080422838;0
518979.654;-23.0224333049;0
518980.654;-22.9385180809;0
518981.654;-22.1084866873;0
518982.654;-22.8753685171;0
518983.654;-22.3426807025;0
518984.654;-22.281771367;0
518985.654;-23.0479499601;0
518986.654;-22.588097699;0
518987.654;-22.7953560411;0
518988.654;-23.4581661177;0
518989.654;-23.7175182775;0
518990.654;-23.6347249538;0
518991.654;-23.6461379175;0
518992.654;-23.574121415;0
518993.654;-24.528202616;0
518994.654;-24.7079057841;0
518995.654;-24.3802129148;0
518996.654;-23.4592451013;0
518997.654;-24.5323547481;0
518998.654;-23.3721079879;0
518999.654;-23.9661096665;0
519000.654;-24.4510295264;0
519001.654;-24.3179386852;0
519002.654;-24.9048175625;0
519003.654;-23.9704064901;0
519004.654;-23.8291841955;0
519005.654;-23.7871993739;0
519006.654;-24.4532829406;0
519007.654;-24.6068550111;0
519008.654;-23.1506452079;0
519009.654;-22.8733063742;0
519010.654;-22.8628431592;0
519011.654;-23.1406992413;0
519012.654;-24.6787930096;0
519013.654;-24.2705491557;0
519014.654;-26.330225059;0
519015.654;-24.238653262;0
519016.654;-24.2395273627;0
519017.654;-23.4502959621;0
519018.654;-25.321186878;0
519019.654;-23.3346341799;0
519020.654;-24.2944854376;0
519021.654;-24.67940654;0
519022.654;-24.7074089411;0
519023.654;-25.2524877172;0
519024.654;-25.6620792063;0
519025.654;-25.5064252596;0
519026.654;-25.6075541248;0
519027.654;-25.7840127244;0
519028.654;-25.7281597325;0
519029.654;-25.8281834255;0
519030.654;-25.5624683672;0
519031.654;-26.1093961646;0
519032.654;-25.8955065556;0
519033.654;-26.7462699703;0
519034.654;-26.6206864441;0
519035.654;-27.1985682911;0
519036.654;-27.2071134809;0
519037.654;-26.7918916482;0
519038.654;-26.5561585176;0
519039.654;-26.5243514324;0
519040.654;-26.7091350603;0
519041.654;-26.6192283093;0
519042.654;-27.5290062427;0
519043.654;-26.8976419242;0
519044.654;-26.9445894375;0
519045.654;-27.7267541079;0
519046.654;-27.3423927683;0
519047.654;-27.6918610574;0
519048.654;-28.0762647169;0
519049.654;-28.3443420627;0
519050.654;-28.4256541122;0
519051.654;-27.9867770656;0
519052.654;-27.4742417021;0
519053.654;-27.1963610375;0
519054.654;-28.2357126615;0
519055.654;-27.9715666499;0
519056.654;-28.3308259326;0
519057.654;-28.2283449981;0
519058.654;-28.4918322109;0
519059.654;-28.4900246173;0
519060.654;-28.1223203033;0
519061.654;-27.8273319983;0
519062.654;-27.9011943409;0
519063.654;-29.1488479217;0
519064.654;-29.126938324;0
519065.654;-29.2474015979;0
519066.654;-29.9639288108;0
519067.654;-30.0838764553;0
519068.654;-30.0779122057;0
519069.654;-30.6793421163;0
519070.654;-30.2082818547;0
519071.654;-30.7331530543;0
519072.654;-30.1341672538;0
519073.654;-30.1681608447;0
519074.654;-29.6184153173;0
519075.654;-31.1219908029;0
519076.654;-31.4952932387;0
519077.654;-31.4414226086;0
519078.654;-31.4056583347;0
519079.654;-30.6843747413;0
519080.654;-32.1956582989;0
519081.654;-32.1599452007;0
519082.654;-32.3059971931;0
519083.654;-33.3002648824;0
519084.654;-32.6969633213;0
519085.654;-32.3045219094;0
519086.654;-32.3523484518;0
519087.654;-32.2338377236;0
519088.654;-32.9106060787;0
519089.654;-32.2072304197;0
519090.654;-32.3315114288;0
519091.654;-31.9620685781;0
519092.654;-33.0231921471;0
519093.654;-34.1575032408;0
519094.654;-33.6309927996;0
519095.654;-20.5554420575;0
519096.654;-20.69660107;0
519097.654;-20.9036841565;0
519098.654;-21.7022679556;0
519099.654;-21.2862588146;0
519100.654;-21.4253380254;0
519101.654;-20.6937342837;0
519102.654;-20.8614686433;0
519103.654;-21.921331592;0
519104.654;-20.9854696072;0
519105.654;-21.4050716275;0
519106.654;-22.4116115338;0
519107.654;-22.8531108844;0
519108.654;-22.7763013464;0
519109.654;-22.1029501755;0
519110.654;-22.5949174395;0
519111.654;-22.8089940865;0
519112.654;-23.3152752158;0
519113.654;-22.2265621415;0
519114.654;-22.0990288912;0
519115.654;-22.6474700849;0
519116.654;-23.3214450221;0
519117.654;-23.4209208795;0
519118.654;-22.1057360906;0
519119.654;-23.3535603525;0
519120.654;-23.12175675;0
519121.654;-22.3683415839;0
519122.654;-21.7485576142;0
519123.654;-22.1162612134;0
519124.654;-21.8172197845;0
519125.654;-23.2541855794;0
519126.654;-11.0770811336;0
519127.654;-11.0768897571;0
519128.654;-10.8750453029;0
519129.654;-10.507289041;0
519130.654;-11.1079825727;0
519131.654;-11.7774115129;0
519132.654;-11.481012978;0
519133.654;-11.1422383284;0
519134.654;-10.9582380248;0
519135.654;-11.0286303236;0
519136.654;-11.5423693398;0
519137.654;-9.93433239832;0
519138.654;-10.2978463942;0
519139.654;-10.8114958288;0
519140.654;-11.4836051953;0
519141.654;-11.7266515475;0
519142.654;-11.3714792815;0
519143.654;-11.9931187305;0
519144.654;-10.8225193999;0
519145.654;-11.288740463;0
519146.654;-11.1729298765;0
519147.654;-9.93730824659;0
519148.654;-11.3106335458;0
519149.654;-11.0895482702;0
519150.654;-11.2072209584;0
519151.654;-11.9763464039;0
519152.654;-12.6007396402;0
519153.654;-12.2426158948;0
519154.654;-12.1552899367;0
519155.654;-12.2962658652;0
519156.654;-11.4752047233;0
519157.654;-12.1585863132;0
519158.654;-11.6492465934;0
519159.654;-10.968611553;0
519160.654;-11.5898301035;0
519161.654;-12.6777575831;0
519162.654;-12.1731024982;0
519163.654;-11.2411939013;0
519164.654;-11.7669627016;0
519165.654;-12.582799339;0
519166.654;-13.237690043;0
519167.654;-12.6392598778;0
519168.654;-14.0167924744;0
519169.654;-13.6968394493;0
519170.654;-13.7540494309;0
519171.654;-14.1862637426;0
519172.654;-14.8366072678;0
519173.654;-14.3325460083;0
519174.654;-14.0526266797;0
519175.654;-14.8320180244;0
519176.654;-14.0468854975;0
519177.654;-14.0764072367;0
519178.654;-15.5163811935;0
519179.654;-15.5992387554;0
519180.654;-15.761855063;0
519181.654;-15.3106960029;0
519182.654;-15.064128538;0
519183.654;-14.8428364682;0
519184.654;-14.9461053358;0
519185.654;-15.3241322578;0
519186.654;-15.783462712;0
519187.654;-15.8896314904;0
519188.654;-16.387100815;0
519189.654;-16.3151634411;0
519190.654;-15.8267926441;0
519191.654;-15.7084935499;0
519192.654;-15.9047215536;0
519193.654;-16.6941424196;0
519194.654;-16.5249514085;0
519195.654;-16.4573106911;0
519196.654;-15.2452541365;0
519197.654;-15.4161821409;0
519198.654;-16.0435482315;0
519199.654;-15.3557940243;0
519200.654;-16.2663780959;0
519201.654;-17.0047647488;0
519202.654;-16.8633631349;0
519203.654;-17.2750119546;0
519204.654;-16.7588765112;0
519205.654;-16.2495009064;0
519206.654;-16.101833249;0
519207.654;-16.0981913894;0
519208.654;-15.8168378559;0
519209.654;-16.0966119872;0
519210.654;-16.3855195666;0
519211.654;-16.2471280567;0
519212.654;-16.929965186;0
519213.654;-16.8935168986;0
519214.654;-16.7556002774;0
519215.654;-17.7387232316;0
519216.654;-16.4159172903;0
519217.654;-16.8532869449;0
519218.654;-17.4662769745;0
519219.654;-17.9338032995;0
519220.654;-18.4771795123;0
519221.654;-18.5246443219;0
519222.654;-17.8303197248;0
519223.654;-17.2361786415;0
519224.654;-17.4749657553;0
519225.654;-17.4937182924;0
519226.654;-17.3695793024;0
519227.654;-17.3509257212;0
519228.654;-17.0759974071;0
519229.654;-17.8315508245;0
519230.654;-17.3986971897;0
519231.654;-18.1784438009;0
519232.654;-18.0458207666;0
519233.654;-18.0486859094;0
519234.654;-17.4274762463;0
519235.654;-18.0138073548;0
519236.654;-18.3512988781;0
519237.654;-18.9053068382;0
519238.654;-19.0735170263;0
519239.654;-18.8286521367;0
519240.654;-18.904996565;0
519241.654;-19.2013362345;0
519242.654;-19.3047544105;0
519243.654;-19.2138646007;0
519244.654;-19.6925624447;0
519245.654;-18.8018361;0
519246.654;-18.1800640779;0
519247.654;-18.8909102208;0
519248.654;-19.1593271269;0
519249.654;-19.2605144002;0
519250.654;-19.5530394187;0
519251.654;-18.8228396731;0
519252.654;-19.0830638729;0
519253.654;-19.994843654;0
519254.654;-19.6324303703;0
519255.654;-20.2769190627;0
519256.654;-20.2567830865;0
519257.654;-20.4410575559;0
519258.654;-20.1173863257;0
519259.654;-20.9461365738;0
519260.654;-21.2518363224;0
519261.654;-21.2583074687;0
519262.654;-22.2924087918;0
519263.654;-21.9217219403;0
519264.654;-21.7215564973;0
519265.654;-21.5657052636;0
519266.654;-22.1547923217;0
519267.654;-21.5806650611;0
519268.654;-21.6639445785;0
519269.654;-21.8891353735;0
519270.654;-21.6889394607;0
519271.654;-21.8238836552;0
519272.654;-21.8780711088;0
519273.654;-22.9168381763;0
519274.654;-21.9841800614;0
519275.654;-22.3168699186;0
519276.654;-21.8149828891;0
519277.654;-22.487581773;0
519278.654;-22.0755031353;0
519279.654;-21.6849446013;0
519280.654;-21.7033622752;0
519281.654;-22.2977295194;0
519282.654;-22.808520555;0
519283.654;-21.8194806527;0
519284.654;-22.6790731093;0
519285.654;-22.9461144492;0
519286.654;-23.1909515796;0
519287.654;-21.9314004982;0
519288.654;-22.0310263262;0
519289.654;-22.4655079243;0
519290.654;-22.6875788365;0
519291.654;-23.7227302793;0
519292.654;-23.1837684902;0
519293.654;-22.3912853069;0
519294.654;-22.6210587847;0
519295.654;-22.8852008825;0
519296.654;-22.8559870884;0
519297.654;-22.5406172653;0
519298.654;-23.0783095769;0
519299.654;-23.0303110895;0
519300.654;-23.1971653462;0
519301.654;-23.1645259201;0
519302.654;-23.0856787338;0
519303.654;-24.1071840806;0
519304.654;-24.2471128383;0
519305.654;-23.9808453704;0
519306.654;-23.5579271517;0
519307.654;-23.2535825984;0
519308.654;-23.2682354979;0
519309.654;-23.4966860981;0
519310.654;-23.4411468588;0
519311.654;-24.0537879041;0
519312.654;-24.1121788639;0
519313.654;-24.3858392777;0
519314.654;-23.7034330125;0
519315.654;-23.5763900845;0
519316.654;-23.6748371846;0
519317.654;-24.4273514986;0
519318.654;-24.5588766001;0
519319.654;-25.0631809359;0
519320.654;-24.3852402005;0
519321.654;-24.860030411;0
519322.654;-25.39458199;0
519323.654;-26.0411262748;0
519324.654;-25.5511930461;0
519325.654;-25.0413666782;0
519326.654;-24.9149766858;0
519327.654;-25.0986074728;0
519328.654;-25.5297008097;0
519329.654;-26.7947483955;0
519330.654;-27.2263148426;0
519331.654;-27.1136637795;0
519332.654;-26.7083262253;0
519333.654;-26.035712143;0
519334.654;-26.4003137927;0
519335.654;-26.5348793466;0
519336.654;-26.4402043881;0
519337.654;-25.6721557962;0
519338.654;-25.3849641523;0
519339.654;-26.3260387647;0
519340.654;-26.6583670147;0
519341.654;-27.1740600664;0
519342.654;-26.9959719473;0
519343.654;-26.2786770671;0
519344.654;-26.7135512774;0
519345.654;-26.7698936176;0
519346.654;-26.3245786812;0
519347.654;-26.6280738944;0
519348.654;-27.8756174352;0
519349.654;-27.6188451749;0
519350.654;-27.593356092;0
519351.654;-27.5505575413;0
519352.654;-27.5423360423;0
519353.654;-28.1156469048;0
519354.654;-29.1892290473;0
519355.654;-27.9636011497;0
519356.654;-27.9901276869;0
519357.654;-29.1123465269;0
519358.654;-28.392669183;0
519359.654;-28.7243641577;0
519360.654;-28.0896227678;0
519361.654;-28.1523623371;0
519362.654;-28.1407835717;0
519363.654;-29.0039147931;0
519364.654;-28.9179943986;0
519365.654;-27.6702481117;0
519366.654;-29.2949930583;0
519367.654;-28.7232408369;0
519368.654;-29.054329543;0
519369.654;-29.8992859766;0
519370.654;-29.689798896;0
519371.654;-29.6758427311;0
519372.654;-29.695270555;0
519373.654;-30.0895200272;0
519374.654;-31.1886281415;0
519375.654;-31.1766162125;0
519376.654;-30.8624778969;0
519377.654;-30.3169406822;0
519378.654;-29.9055789343;0
519379.654;-30.9575087156;0
519380.654;-30.9712059766;0
519381.654;-31.6151082473;0
519382.654;-31.2167495224;0
519383.654;-31.896798872;0
519384.654;-32.0568988598;0
519385.654;-31.5870789103;0
519386.654;-31.5753801298;0
519387.654;-32.0092470054;0
519388.654;-31.4672113783;0
519389.654;-31.6241895698;0
519390.654;-32.5129387024;0
519391.654;-31.8815269261;0
519392.654;-32.0205145173;0
519393.654;-32.6273013279;0
519394.654;-32.1582719628;0
519395.654;-31.5599917742;0
519396.654;-31.8281054204;0
519397.654;-32.2362181031;0
519398.654;-33.5720991592;0
519399.654;-32.8692964227;0
519400.654;-33.1860820281;0
519401.654;-33.4667826924;0
519402.654;-33.306246465;0
519403.654;-32.771021624;0
519404.654;-32.8116621517;0
519405.654;-33.1544088044;0
519406.654;-33.524441706;0
519407.654;-33.1743333557;0
519408.654;-33.3130011602;0
519409.654;-33.2989566152;0
519410.654;-33.1167321952;0
519411.654;-33.3108125318;0
519412.654;-33.5044673345;0
519413.654;-34.4526011797;0
519414.654;-34.3710271199;0
519415.654;-34.6572662849;0
519416.654;-34.364830234;0
519417.654;-33.8759746527;0
519418.654;-34.0830576224;0
519419.654;-35.5463943792;0
519420.654;-35.629650202;0
519421.654;-35.0828682253;0
519422.654;-34.3761592857;0
519423.654;-34.9812029678;0
519424.654;-35.110249087;0
519425.654;-34.6157477974;0
519426.654;-35.6014630398;0
519427.654;-35.5981034945;0
519428.654;-35.3950057016;0
519429.654;-35.0261919517;0
519430.654;-35.3184353761;0
519431.654;-35.6271674735;0
519432.654;-35.0688936809;0
519433.654;-34.2674545759;0
519434.654;-34.6553829827;0
519435.654;-34.6394566987;0
519436.654;-34.8932053909;0
519437.654;-34.9339478487;0
519438.654;-35.1484087527;0
519439.654;-34.4867258318;0
519440.654;-62.9430328633;0
519441.654;-63.6971955849;0
519442.654;-64.9079927975;0
519443.654;-64.4729274417;0
519444.654;-65.4825570205;0
519445.654;-66.1461907183;0
519446.654;-66.4786132664;0
519447.654;-66.4762995456;0
519448.654;-66.8366805142;0
519449.654;-65.9157681074;0
519450.654;-64.5138487501;0
519451.654;-63.5230430632;0
519452.654;-64.5528422581;0
519453.654;-64.9013155165;0
519454.654;-65.2524225895;0
519455.654;-65.777121487;0
519456.654;-65.7623585376;0
519457.654;-65.5895804698;0
519458.654;-65.0037544367;0
519459.654;-65.3663055408;0
519460.654;-65.7668549714;0
519461.654;-65.8718789792;0
519462.654;-65.8826838032;0
519463.654;-65.9269529607;0
519464.654;-66.9617249358;0
519465.654;-65.7063379123;0
519466.654;-66.4623318566;0
519467.654;-66.8329026756;0
519468.654;-65.8298935006;0
519469.654;-65.0480476822;0
519470.654;-64.8526407834;0
519471.654;-65.7674211274;0
519472.654;-66.4864039002;0
519473.654;-66.0175465181;0
519474.654;-66.8112700284;0
519475.654;-67.4467228793;0
519476.654;-66.3077953387;0
519477.654;-67.4494463074;0
519478.654;-67.946254466;0
519479.654;-68.2102925413;0
519480.654;-67.7950086075;0
519481.654;-68.0771407549;0
519482.654;-67.5536126631;0
519483.654;-67.5656549669;0
519484.654;-68.1722805357;0
519485.654;-68.991834664;0
519486.654;-69.283081313;0
519487.654;-69.707395822;0
519488.654;-70.1267979745;0
519489.654;-70.325701899;0
519490.654;-70.5071724813;0
519491.654;-70.8406312805;0
519492.654;-70.3011924772;0
519493.654;-70.3528538573;0
519494.654;-70.6826774306;0
519495.654;-70.9567925832;0
519496.654;-71.5265446346;0
519497.654;-72.1255043111;0
519498.654;-71.7671440384;0
519499.654;-71.8594073197;0
519500.654;-72.5084964839;0
519501.654;-72.2294657493;0
519502.654;-72.2135848351;0
519503.654;-72.7709538256;0
519504.654;-73.1370788409;0
519505.654;-73.8043186252;0
519506.654;-74.0484067296;0
519507.654;-73.8971444177;0
519508.654;-74.0092926122;0
519509.654;-74.3017850449;0
519510.654;-74.2064698537;0
519511.654;-74.0600769275;0
519512.654;-74.6194376353;0
519513.654;-74.0152039601;0
519514.654;-74.3283181508;0
519515.654;-74.2137398744;0
519516.654;-74.6763274298;0
519517.654;-74.9570390066;0
519518.654;-74.3036905075;0
519519.654;-74.3068505707;0
519520.654;-75.1298169354;0
519521.654;-75.1770664207;0
519522.654;-75.390585152;0
519523.654;-75.9100652954;0
519524.654;-76.2634320948;0
519525.654;-76.061465436;0
519526.654;-76.2347749504;0
519527.654;-76.9468514943;0
519528.654;-76.5077216212;0
519529.654;-75.849417853;0
519530.654;-76.1577954536;0
519531.654;-76.9426692052;0
519532.654;-76.778493165;0
519533.654;-76.9307670942;0
519534.654;-76.7367209733;0
519535.654;-76.9097599538;0
519536.654;-76.9151139261;0
519537.654;-77.4796566486;0
519538.654;-77.9809316387;0
519539.654;-78.0512991313;0
519540.654;-78.4275129984;0
519541.654;-77.5424650221;0
519542.654;-78.3305395488;0
519543.654;-78.6472536597;0
519544.654;-78.584424237;0
519545.654;-78.9184502706;0
519546.654;-78.8354568002;0
519547.654;-79.1887335255;0
519548.654;-79.86417727;0
519549.654;-79.7844850253;0
519550.654;-79.7763087412;0
519551.654;-79.1470202975;0
519552.654;-79.5772261718;0
519553.654;-80.4782010542;0
519554.654;-80.7743550032;0
519555.654;-81.0866475298;0
519556.654;-82.4050155726;0
519557.654;-83.1748821298;0
519558.654;-83.5588737862;0
519559.654;-82.9532479547;0
519560.654;-82.6409301296;0
519561.654;-83.165714717;0
519562.654;-83.8734523609;0
519563.654;-85.2025618469;0
519564.654;-84.56897947;0
519565.654;-83.2334065397;0
519566.654;-83.5199485766;0
519567.654;-84.206687439;0
519568.654;-84.3695593704;0
519569.654;-85.0913337093;0
519570.654;-84.4613316832;0
519571.654;-84.7018584694;0
519572.654;-83.9899585947;0
519573.654;-85.2588845664;0
519574.654;-84.7793085283;0
519575.654;-85.1844639336;0
519576.654;-85.3939729765;0
519577.654;-85.2143461042;0
519578.654;-85.3737844465;0
519579.654;-85.5130303307;0
519580.654;-85.8148362309;0
519581.654;-86.2621598137;0
519582.654;-86.2344396788;0
519583.654;-87.0715704095;0
519584.654;-86.5048518879;0
519585.654;-86.8972673615;0
519586.654;-87.439619061;0
519587.654;-86.877024725;0
519588.654;-87.1344610219;0
519589.654;-87.7958955782;0
519590.654;-87.3576127668;0
519591.654;-87.3626231738;0
519592.654;-86.8327057184;0
519593.654;-87.1581902806;0
519594.654;-87.1763097214;0
519595.654;-87.5385842431;0
519596.654;-87.7466702215;0
519597.654;-87.6908590798;0
519598.654;-88.5662335163;0
519599.654;-90.2126182807;0
519600.654;-90.7132538655;0
519601.654;-89.6548047694;0
519602.654;-89.8325195197;0
519603.654;-89.5683827366;0
519604.654;-89.0461622875;0
519605.654;-89.4715348039;0
519606.654;-89.8342479602;0
519607.654;-90.103420713;0
519608.654;-90.5238500148;0
519609.654;-89.6724013103;0
519610.654;-89.7452063585;0
519611.654;-90.0630316993;0
519612.654;-90.3745568741;0
519613.654;-90.4552510278;0
519614.654;-90.3604255908;0
519615.654;-91.0811968416;0
519616.654;-91.6067153025;0
519617.654;-91.2465929741;0
519618.654;-91.2472510879;0
519619.654;-91.9561949707;0
519620.654;-91.6936923664;0
519621.654;-91.3432479806;0
519622.654;-92.6738627045;0
519623.654;-92.4427246887;0
519624.654;-92.880040662;0
519625.654;-92.7583080915;0
519626.654;-92.7394049698;0
519627.654;-92.8498183637;0
519628.654;-92.5623677301;0
519629.654;-92.6389974005;0
519630.654;-92.2574296888;0
519631.654;-92.3542072538;0
519632.654;-91.3530561506;0
519633.654;-92.0294446807;0
519634.654;-91.9632709825;0
519635.654;-91.6933114923;0
519636.654;-92.3343230119;0
519637.654;-92.3074952315;0
519638.654;-92.3782648677;0
519639.654;-92.8179652652;0
519640.654;-92.5159371272;0
519641.654;-93.0461975087;0
519642.654;-93.4778987915;0
519643.654;-93.6700464282;0
519644.654;-93.9282973998;0
519645.654;-94.3749001816;0
519646.654;-94.6682349983;0
519647.654;-94.8593300716;0
519648.654;-94.43710384;0
519649.654;-95.0349787718;0
519650.654;-94.9577558598;0
519651.654;-94.4659993322;0
519652.654;-94.9826559832;0
519653.654;-95.6239808543;0
519654.654;-95.5702816978;0
519655.654;-95.9884091192;0
519656.654;-95.7578339028;0
519657.654;-95.469355875;0
519658.654;-96.1445536529;0
519659.654;-95.73640414;0
519660.654;-95.3814951337;0
519661.654;-96.5818929181;0
519662.654;-96.18631553;0
519663.654;-96.6558722559;0
519664.654;-96.9098124445;0
519665.654;-96.6752422987;0
519666.654;-97.3341574446;0
519667.654;-96.9018664282;0
519668.654;-97.0535809053;0
519669.654;-97.3760839549;0
519670.654;-97.867522179;0
519671.654;-98.0560550115;0
519672.654;-97.9855405367;0
519673.654;-97.1978226742;0
519674.654;-98.785936088;0
519675.654;-98.7549809627;0
519676.654;-99.0675107268;0
519677.654;-98.8802226351;0
519678.654;-99.1181249748;0
519679.654;-98.6111238941;0
519680.654;-98.7718058159;0
519681.654;-99.6435886427;0
519682.654;-99.8798024087;0
519683.654;-99.6251034355;0
519684.654;-99.8870510843;0
519685.654;-100.374657985;0
519686.654;-100.555988395;0
519687.654;-99.5554183342;0
519688.654;-100.762392786;0
519689.654;-101.59154598;0
519690.654;-102.000621466;0
519691.654;-101.658673957;0
519692.654;-101.538851463;0
519693.654;-101.9856446;0
519694.654;-102.191801015;0
519695.654;-101.953608836;0
519696.654;-101.556701729;0
519697.654;-102.182609002;0
519698.654;-103.896004613;0
519699.654;-104.464224068;0
519700.654;-104.582361108;0
519701.654;-104.029577737;0
519702.654;-103.889893609;0
519703.654;-103.953471537;0
519704.654;-104.604769816;0
519705.654;-105.080121407;0
519706.654;-104.88625917;0
519707.654;-105.105180062;0
519708.654;-104.816734144;0
519709.654;-104.093630862;0
519710.654;-103.96417307;0
519711.654;-104.55533653;0
519712.654;-105.201253375;0
519713.654;-104.483021696;0
519714.654;-104.95057767;0
519715.654;-105.183065239;0
519716.654;-105.505455237;0
519717.654;-105.707882837;0
519718.654;-106.234553448;0
519719.654;-105.142839574;0
519720.654;-105.694729706;0
519721.654;-106.783704574;0
519722.654;-163.847697487;0
519723.654;-164.417766757;0
519724.654;-107.124780073;0
519725.654;-107.179015769;0
519726.654;-107.235803619;0
519727.654;-106.850033612;0
519728.654;-107.490358178;0
519729.654;-107.925160374;0
519730.654;-108.192979203;0
519731.654;-108.019110644;0
519732.654;-108.604276597;0
519733.654;-108.457195171;0
519734.654;-108.685557382;0
519735.654;-108.79768131;0
519736.654;-108.209312846;0
519737.654;-109.016484612;0
519738.654;-108.705725247;0
519739.654;-109.32691948;0
519740.654;-109.125541507;0
519741.654;-110.398275306;0
519742.654;-110.473899287;0
519743.654;-110.000744287;0
519744.654;-110.635828604;0
519745.654;-110.308136485;0
519746.654;-110.422705191;0
519747.654;-109.983979783;0
519748.654;-110.71812088;0
519749.654;-110.093940156;0
519750.654;-110.753167259;0
519751.654;-110.689516531;0
519752.654;-110.88775573;0
519753.654;-111.299157288;0
519754.654;-111.823576351;0
519755.654;-111.409323455;0
519756.654;-111.123174846;0
519757.654;-111.512715089;0
519758.654;-111.411045172;0
519759.654;-111.647258292;0
519760.654;-111.734674113;0
519761.654;-111.054917538;0
519762.654;-110.697557677;0
519763.654;-110.969247128;0
519764.654;-112.270438759;0
519765.654;-112.922698036;0
519766.654;-112.86091147;0
519767.654;-112.313888795;0
519768.654;-113.040280938;0
519769.654;-113.302177446;0
519770.654;-113.874544805;0
519771.654;-114.670327375;0
519772.654;-114.929374395;0
519773.654;-115.356638442;0
519774.654;-114.770963461;0
519775.654;-115.223866952;0
519776.654;-164.968858701;0
519777.654;-165.06771208;0
519778.654;-164.877403341;0
519779.654;-164.857280354;0
519780.654;-164.282291182;0
519781.654;-164.424587497;0
519782.654;-165.266566631;0
519783.654;-165.085843551;0
519784.654;-164.523028761;0
519785.654;-166.109828697;0
519786.654;-166.689944265;0
519787.654;-166.520935296;0
519788.654;-166.737228269;0
519789.654;-165.80833701;0
519790.654;-165.981519082;0
519791.654;-166.000876308;0
519792.654;-165.553289455;0
519793.654;-166.217355887;0
519794.654;-166.63260734;0
519795.654;-166.241666342;0
519796.654;-166.23688394;0
519797.654;-165.434443359;0
519798.654;-166.485307078;0
519799.654;-166.83490757;0
519800.654;-166.904314489;0
519801.654;-166.595234621;0
519802.654;-167.115396902;0
519803.654;-166.761608757;0
519804.654;-166.392652507;0
519805.654;-420.536250268;0
519806.654;285.325092028;0
519807.654;284.636669665;0
519808.654;285.125771847;0
519809.654;284.781846774;0
519810.654;284.6065715;0
519811.654;284.521265756;0
519812.654;284.481308239;0
519813.654;284.693826305;0
519814.654;284.129999102;0
519815.654;284.919381007;0
519816.654;284.428833508;0
519817.654;283.633334266;0
519818.654;283.516244364;0
519819.654;282.58854246;0
519820.654;283.282859444;0
519821.654;283.676799461;0
519822.654;282.907093382;0
519823.654;283.58131232;0
519824.654;282.229292328;0
519825.654;282.817769814;0
519826.654;283.260212104;0
519827.654;283.149894866;0
519828.654;282.843239849;0
519829.654;282.71082992;0
519830.654;282.622951818;0
519831.654;282.419012924;0
519832.654;281.616335924;0
519833.654;281.901119106;0
519834.654;281.7257821;0
519835.654;280.572783666;0
519836.654;281.184016651;0
519837.654;281.339020709;0
519838.654;281.422507885;0
519839.654;281.051606737;0
519840.654;281.014760449;0
519841.654;281.037280002;0
519842.654;280.947745096;0
519843.654;281.029527447;0
519844.654;280.305234591;0
519845.654;278.943531365;0
519846.654;278.219359796;0
519847.654;278.343093524;0
519848.654;278.968313374;0
519849.654;277.937639052;0
519850.654;277.792758023;0
519851.654;277.018263376;0
519852.654;277.646233121;0
519853.654;277.65754856;0
519854.654;277.37026199;0
519855.654;276.823030039;0
519856.654;276.514160997;0
519857.654;276.339459343;0
519858.654;275.618586994;0
519859.654;275.782274932;0
519860.654;275.712297849;0
519861.654;275.686471396;0
519862.654;276.02132308;0
519863.654;275.441807002;0
519864.654;276.005756427;0
519865.654;275.748204494;0
519866.654;275.487380921;0
519867.654;275.138300757;0
519868.654;275.658775394;0
519869.654;275.479121323;0
519870.654;274.773562951;0
519871.654;274.407281316;0
519872.654;274.670528597;0
519873.654;275.273409607;0
519874.654;275.087079157;0
519875.654;274.330215037;0
519876.654;274.729898111;0
519877.654;274.759842235;0
519878.654;274.463284288;0
519879.654;274.58244104;0
519880.654;274.027031526;0
519881.654;274.275444273;0
519882.654;274.929795288;0
519883.654;275.078776019;0
519884.654;274.714495267;0
519885.654;273.993866157;0
519886.654;274.200882785;0
519887.654;274.042225654;0
519888.654;273.098731114;0
519889.654;273.303601986;0
519890.654;273.107209726;0
519891.654;272.457602354;0
519892.654;271.180171527;0
519893.654;271.183345755;0
519894.654;271.381341705;0
519895.654;271.565867478;0
519896.654;271.000542341;0
519897.654;270.578101519;0
519898.654;269.790134712;0
519899.654;269.890826831;0
519900.654;270.008327354;0
519901.654;270.538866;0
519902.654;270.060495645;0
519903.654;270.237898286;0
519904.654;269.928196842;0
519905.654;269.994739681;0
519906.654;269.611030242;0
519907.654;269.632995889;0
519908.654;227.219627637;0
519909.654;226.835928493;0
519910.654;269.245836017;0
519911.654;268.654512519;0
519912.654;268.159769565;0
519913.654;268.118341115;0
519914.654;268.039411887;0
519915.654;267.140957356;0
519916.654;266.614530905;0
519917.654;267.030181339;0
519918.654;267.542424646;0
519919.654;266.711029569;0
519920.654;266.317609435;0
519921.654;266.368381222;0
519922.654;266.120686037;0
519923.654;265.497707647;0
519924.654;264.767430997;0
519925.654;265.420790317;0
519926.654;265.30007907;0
519927.654;265.708009331;0
519928.654;265.057626583;0
519929.654;265.500994527;0
519930.654;265.672882932;0
519931.654;265.08231084;0
519932.654;265.391175344;0
519933.654;265.65995624;0
519934.654;264.87608692;0
519935.654;265.064055456;0
519936.654;264.795579968;0
519937.654;263.078774611;0
519938.654;312.850858631;0
519939.654;312.659776618;0
519940.654;312.5809799;0
519941.654;312.763191859;0
519942.654;262.702289729;0
519943.654;262.449034532;0
519944.654;262.97891156;0
519945.654;263.866120177;0
519946.654;262.896816256;0
519947.654;262.861550751;0
519948.654;262.068453121;0
519949.654;261.830093878;0
519950.654;262.080392661;0
519951.654;262.741853705;0
519952.654;262.24169326;0
519953.654;261.82284499;0
519954.654;261.556380175;0
519955.654;261.652441259;0
519956.654;261.644611108;0
519957.654;260.803533823;0
519958.654;259.866591711;0
519959.654;259.300450045;0
519960.654;259.618739148;0
519961.654;259.413522652;0
519962.654;259.42088651;0
519963.654;259.664827048;0
519964.654;258.774362785;0
519965.654;258.916264723;0
519966.654;259.080577377;0
519967.654;258.800971531;0
519968.654;259.094279126;0
519969.654;259.100640051;0
519970.654;258.176880516;0
519971.654;258.520674569;0
519972.654;258.485082901;0
519973.654;258.164376227;0
519974.654;258.092671368;0
519975.654;257.683370647;0
519976.654;257.025924121;0
519977.654;257.36004413;0
519978.654;256.875944224;0
519979.654;257.250760486;0
519980.654;256.818367006;0
519981.654;257.189313896;0
519982.654;256.284282679;0
519983.654;255.588419901;0
519984.654;256.007555992;0
519985.654;256.302928334;0
519986.654;256.400901062;0
519987.654;254.620342432;0
519988.654;254.413323274;0
519989.654;254.315724984;0
519990.654;254.213953116;0
519991.654;254.329867846;0
519992.654;254.241871945;0
519993.654;254.060731191;0
519994.654;253.545665467;0
519995.654;253.802733465;0
519996.654;253.359522783;0
519997.654;253.315517282;0
519998.654;253.042432285;0
519999.654;252.635237921;0
520000.654;252.856776799;0
520001.654;252.58607912;0
520002.654;252.85021016;0
520003.654;252.300423366;0
520004.654;252.112837598;0
520005.654;252.407195641;0
520006.654;252.12131221;0
520007.654;251.123144996;0
520008.654;250.923066128;0
520009.654;251.046821945;0
520010.654;251.283860217;0
520011.654;251.088398058;0
520012.654;250.721530724;0
520013.654;250.367361638;0
520014.654;249.976374692;0
520015.654;249.628260964;0
520016.654;249.377576207;0
520017.654;248.39766207;0
520018.654;248.310989299;0
520019.654;248.131436002;0
520020.654;248.566904893;0
520021.654;248.445119517;0
520022.654;247.617889633;0
520023.654;247.45672577;0
520024.654;247.443609498;0
520025.654;247.77926824;0
520026.654;246.317899684;0
520027.654;246.816336864;0
520028.654;246.878777297;0
520029.654;246.935274622;0
520030.654;246.43316834;0
520031.654;246.788626427;0
520032.654;246.994711312;0
520033.654;246.658581454;0
520034.654;246.064925428;0
520035.654;245.387192602;0
520036.654;245.869356544;0
520037.654;245.426107581;0
520038.654;245.62397372;0
520039.654;245.326325009;0
520040.654;245.192826134;0
520041.654;245.937690231;0
520042.654;246.635450797;0
520043.654;246.663686861;0
520044.654;246.006470031;0
520045.654;245.220752602;0
520046.654;245.377114873;0
520047.654;244.659364363;0
520048.654;244.611740317;0
520049.654;245.132162757;0
520050.654;244.369845702;0
520051.654;244.020497521;0
520052.654;244.753247665;0
520053.654;244.428886608;0
520054.654;243.776079938;0
520055.654;243.704257168;0
520056.654;243.024382263;0
520057.654;242.933068549;0
520058.654;242.22114683;0
520059.654;242.773043026;0
520060.654;242.386036304;0
520061.654;242.719863842;0
520062.654;242.08830769;0
520063.654;242.334205525;0
520064.654;242.729671732;0
520065.654;242.661145267;0
520066.654;242.671957779;0
520067.654;241.941483985;0
520068.654;241.04397493;0
520069.654;240.136415234;0
520070.654;240.447659117;0
520071.654;239.811553885;0
520072.654;239.714161572;0
520073.654;239.198302348;0
520074.654;239.197868283;0
520075.654;239.053770058;0
520076.654;239.265358657;0
520077.654;239.730774705;0
520078.654;239.144462441;0
520079.654;238.435189252;0
520080.654;238.484563636;0
520081.654;238.556651178;0
520082.654;238.24030483;0
520083.654;238.901438142;0
520084.654;238.232104461;0
520085.654;238.061157464;0
520086.654;237.694489244;0
520087.654;237.189700364;0
520088.654;236.28823287;0
520089.654;236.68787222;0
520090.654;236.929057768;0
520091.654;236.29054496;0
520092.654;235.892123655;0
520093.654;235.81816798;0
520094.654;235.800682086;0
520095.654;235.368862255;0
520096.654;235.367612792;0
520097.654;235.254602534;0
520098.654;234.926406004;0
520099.654;234.146911222;0
520100.654;234.349625271;0
520101.654;234.694387765;0
520102.654;234.264880325;0
520103.654;234.123160566;0
520104.654;233.442468774;0
520105.654;233.235807777;0
520106.654;233.583265134;0
520107.654;233.334911344;0
520108.654;233.176114142;0
520109.654;233.417343621;0
520110.654;233.358944761;0
520111.654;232.583583426;0
520112.654;233.088359432;0
520113.654;233.034097835;0
520114.654;233.80728354;0
520115.654;233.698402013;0
520116.654;233.134262157;0
520117.654;232.540998045;0
520118.654;232.76973048;0
520119.654;233.29309904;0
520120.654;232.670988804;0
520121.654;231.546034919;0
520122.654;231.896332481;0
520123.654;232.639889297;0
520124.654;232.401707587;0
520125.654;232.791100154;0
520126.654;232.045114389;0
520127.654;231.582495285;0
520128.654;230.64769812;0
520129.654;230.091655765;0
520130.654;230.342957141;0
520131.654;229.991675065;0
520132.654;230.03506304;0
520133.654;229.228999488;0
520134.654;228.870270416;0
520135.654;229.067153868;0
520136.654;229.400031852;0
520137.654;229.774166423;0
520138.654;229.492682915;0
520139.654;229.138203915;0
520140.654;228.495710553;0
520141.654;228.23495976;0
520142.654;227.672814114;0
520143.654;227.127066247;0
520144.654;227.419254553;0
520145.654;227.660768926;0
520146.654;227.642345859;0
520147.654;227.006565405;0
520148.654;227.636670179;0
520149.654;227.031079692;0
520150.654;226.362318011;0
520151.654;225.805672525;0
520152.654;225.408731043;0
520153.654;225.808579944;0
520154.654;225.705834374;0
520155.654;226.318023926;0
520156.654;225.360891433;0
520157.654;225.060433559;0
520158.654;224.439463255;0
520159.654;224.489933613;0
520160.654;224.643683599;0
520161.654;223.756673476;0
520162.654;224.02492864;0
520163.654;223.848296154;0
520164.654;224.353967858;0
520165.654;224.045260854;0
520166.654;223.924489208;0
520167.654;224.500170364;0
520168.654;223.958104636;0
520169.654;223.322693412;0
520170.654;222.972390972;0
520171.654;223.573737941;0
520172.654;223.927074769;0
520173.654;223.356727801;0
520174.654;222.869060176;0
520175.654;222.456296257;0
520176.654;221.851978854;0
520177.654;221.840428473;0
520178.654;221.625703064;0
520179.654;221.753812771;0
520180.654;221.738704143;0
520181.654;221.565913274;0
520182.654;221.669909112;0
520183.654;221.083681739;0
520184.654;220.48537815;0
520185.654;220.698347949;0
520186.654;220.436101499;0
520187.654;219.764439437;0
520188.654;219.465919566;0
520189.654;218.96775716;0
520190.654;218.883746951;0
520191.654;219.136882291;0
520192.654;218.907210614;0
520193.654;218.343237129;0
520194.654;218.32036784;0
520195.654;217.842950218;0
520196.654;218.170993789;0
520197.654;218.050188863;0
520198.654;218.091634384;0
520199.654;218.253097184;0
520200.654;217.017532708;0
520201.654;217.246864203;0
520202.654;217.062383015;0
520203.654;217.314722279;0
520204.654;217.516313408;0
520205.654;216.437665715;0
520206.654;215.490502094;0
520207.654;215.962635453;0
520208.654;216.805066616;0
520209.654;216.420442841;0
520210.654;216.262457448;0
520211.654;216.369734378;0
520212.654;215.909986351;0
520213.654;216.193693886;0
520214.654;215.84435272;0
520215.654;215.505356044;0
520216.654;215.667101437;0
520217.654;215.01760114;0
520218.654;214.828854477;0
520219.654;214.834530851;0
520220.654;214.880524008;0
520221.654;214.323793602;0
520222.654;214.299784819;0
520223.654;214.034688749;0
520224.654;214.128639023;0
520225.654;213.420581831;0
520226.654;213.299074506;0
520227.654;212.78340701;0
520228.654;213.293165826;0
520229.654;212.901296201;0
520230.654;213.151486827;0
520231.654;212.441281151;0
520232.654;212.046295889;0
520233.654;211.708014872;0
520234.654;212.215076568;0
520235.654;212.017363359;0
520236.654;212.12908953;0
520237.654;211.807703332;0
520238.654;211.26276177;0
520239.654;211.215232403;0
520240.654;211.439518841;0
520241.654;211.583933152;0
520242.654;211.402810523;0
520243.654;210.757490957;0
520244.654;210.931616922;0
520245.654;211.048632481;0
520246.654;210.058292788;0
520247.654;209.662119161;0
520248.654;209.670917736;0
520249.654;209.38334648;0
520250.654;209.092899972;0
520251.654;209.239896629;0
520252.654;208.870057865;0
520253.654;208.728416114;0
520254.654;209.180376622;0
520255.654;209.638204289;0
520256.654;209.053143465;0
520257.654;209.390228123;0
520258.654;209.193237879;0
520259.654;208.670130444;0
520260.654;209.376550153;0
520261.654;208.983256944;0
520262.654;208.672443916;0
520263.654;208.781288298;0
520264.654;208.69418382;0
520265.654;208.305261421;0
520266.654;208.826395936;0
520267.654;207.734551496;0
520268.654;208.188584443;0
520269.654;207.906781094;0
520270.654;207.675430017;0
520271.654;206.694684938;0
520272.654;206.527193484;0
520273.654;206.451619121;0
520274.654;206.343456242;0
520275.654;206.408967199;0
520276.654;206.260513852;0
520277.654;206.221160975;0
520278.654;207.307263234;0
520279.654;205.92561866;0
520280.654;204.715365251;0
520281.654;204.322929027;0
520282.654;204.480284518;0
520283.654;204.993023393;0
520284.654;205.154909792;0
520285.654;204.55292697;0
520286.654;203.4625113;0
520287.654;203.151806333;0
520288.654;202.867892063;0
520289.654;202.660979701;0
520290.654;202.092482861;0
520291.654;202.041924434;0
520292.654;201.97109088;0
520293.654;201.018613531;0
520294.654;201.088595299;0
520295.654;201.700404149;0
520296.654;201.153532482;0
520297.654;200.543630907;0
520298.654;200.343348712;0
520299.654;199.870074546;0
520300.654;199.528737432;0
520301.654;199.859265845;0
520302.654;200.28729474;0
520303.654;200.127457182;0
520304.654;200.089587415;0
520305.654;199.369988388;0
520306.654;200.016565128;0
520307.654;199.478062095;0
520308.654;199.332108408;0
520309.654;199.233090665;0
520310.654;198.749081152;0
520311.654;198.560508695;0
520312.654;198.546006093;0
520313.654;198.30143327;0
520314.654;198.44354849;0
520315.654;198.332707911;0
520316.654;198.184111536;0
520317.654;197.879581585;0
520318.654;198.020431194;0
520319.654;198.318951528;0
520320.654;197.303296935;0
520321.654;197.804110103;0
520322.654;198.24679581;0
520323.654;198.103468153;0
520324.654;197.737321381;0
520325.654;197.586601829;0
520326.654;197.533334416;0
520327.654;196.927479434;0
520328.654;197.222347744;0
520329.654;196.966934309;0
520330.654;196.735292054;0
520331.654;196.677744354;0
520332.654;196.428791953;0
520333.654;196.315640654;0
520334.654;196.154652718;0
520335.654;196.077356273;0
520336.654;195.815515;0
520337.654;195.449654807;0
520338.654;195.249020157;0
520339.654;194.980543672;0
520340.654;194.036680564;0
520341.654;194.78436604;0
520342.654;195.439701926;0
520343.654;195.436434938;0
520344.654;194.636172713;0
520345.654;194.465173447;0
520346.654;194.304230704;0
520347.654;194.427850142;0
520348.654;194.437668764;0
520349.654;193.723487001;0
520350.654;193.85741826;0
520351.654;193.115367358;0
520352.654;193.292283302;0
520353.654;193.294536044;0
520354.654;193.7321284;0
520355.654;192.82300573;0
520356.654;192.666946499;0
520357.654;191.941071392;0
520358.654;191.771097705;0
520359.654;191.477687043;0
520360.654;191.707716822;0
520361.654;190.599585917;0
520362.654;190.366842557;0
520363.654;190.271617846;0
520364.654;190.523481744;0
520365.654;190.759086758;0
520366.654;191.374915431;0
520367.654;190.93784374;0
520368.654;190.534106343;0
520369.654;190.94886469;0
520370.654;190.53893392;0
520371.654;189.750064698;0
520372.654;189.67143514;0
520373.654;189.788131741;0
520374.654;189.835007036;0
520375.654;189.765127024;0
520376.654;189.196489451;0
520377.654;190.294419496;0
520378.654;190.236000813;0
520379.654;189.585420185;0
520380.654;189.901608073;0
520381.654;189.621473362;0
520382.654;187.91451147;0
520383.654;188.089125148;0
520384.654;188.263007695;0
520385.654;188.003831726;0
520386.654;187.816232712;0
520387.654;187.413525386;0
520388.654;187.379939503;0
520389.654;187.226292482;0
520390.654;188.419287954;0
520391.654;187.571129613;0
520392.654;187.178107369;0
520393.654;187.039561229;0
520394.654;187.521245496;0
520395.654;187.241556404;0
520396.654;186.682632322;0
520397.654;186.886275195;0
520398.654;186.019910865;0
520399.654;186.209624057;0
520400.654;186.056670831;0
520401.654;186.037750791;0
520402.654;186.68490276;0
520403.654;185.961412531;0
520404.654;185.979806787;0
520405.654;185.109984566;0
520406.654;184.598054803;0
520407.654;184.420720549;0
520408.654;184.034041461;0
520409.654;183.762244523;0
520410.654;183.276841983;0
520411.654;182.439954907;0
520412.654;181.76535039;0
520413.654;182.080936055;0
520414.654;181.596837038;0
520415.654;181.49639936;0
520416.654;181.772713665;0
520417.654;182.069798461;0
520418.654;182.064281628;0
520419.654;181.869736572;0
520420.654;181.179641039;0
520421.654;181.643615455;0
520422.654;181.387552029;0
520423.654;180.797511864;0
520424.654;180.437181671;0
520425.654;181.253511783;0
520426.654;180.747725676;0
520427.654;180.075528381;0
520428.654;180.395353372;0
520429.654;179.999845344;0
520430.654;179.714622483;0
520431.654;179.556101324;0
520432.654;179.434743392;0
520433.654;179.527872598;0
520434.654;178.830761747;0
520435.654;179.694641716;0
520436.654;179.040806164;0
520437.654;178.677851214;0
