time;bias-band1;bias-band2
232647.624;0;0
232648.624;-69.3893989028;0
232649.624;-70.2472553204;0
232650.624;-69.8013730983;0
232651.624;-70.4316896993;0
232652.624;-70.2846867982;0
232653.624;-70.5713816504;0
232654.624;-70.5612094952;0
232655.624;-69.9768078544;0
232656.624;-70.259619622;0
232657.624;-70.2993441341;0
232658.624;-70.3235046842;0
232659.624;-71.1132439207;0
232660.624;-69.6335460186;0
232661.624;-70.5357483309;0
232662.624;-69.9047082847;0
232663.624;-69.6741254058;0
232664.624;-70.1076801339;0
232665.624;-69.9357877731;0
232666.624;-69.9240433712;0
232667.624;-69.5148446248;0
232668.624;-70.0471240442;0
232669.624;-70.6302598999;0
232670.624;-69.8822998244;0
232671.624;-70.2016330051;0
232672.624;-69.2504314333;0
232673.624;-69.5273656828;0
232674.624;-70.3059660635;0
232675.624;-70.2694336851;0
232676.624;-69.8249931443;0
232677.624;-70.2601082574;0
232678.624;-70.3885547428;0
232679.624;-70.3643335761;0
232680.624;-69.6197250048;0
232681.624;-70.1439727094;0
232682.624;-71.1076374697;0
232683.624;-70.3662360928;0
232684.624;-69.460746441;0
232685.624;-70.5132529022;0
232686.624;-69.6956366008;0
232687.624;-70.3028081919;0
232688.624;-70.7722655182;0
232689.624;-69.9978828847;0
232690.624;-69.9148949607;0
232691.624;-70.6313914302;0
232692.624;-69.2899105757;0
232693.624;-70.4334512851;0
232694.624;-70.3012597352;0
232695.624;-70.078264716;0
232696.624;-69.5950911792;0
232697.624;-69.7079941104;0
232698.624;-70.1769732828;0
232699.624;-69.6280342026;0
232700.624;-69.8912666039;0
232701.624;-69.5685378091;0
232702.624;-69.8200349122;0
232703.624;-69.3999521682;0
232704.624;-70.3258928567;0
232705.624;-69.8302357767;0
232706.624;-69.7932504728;0
232707.624;-69.0632238454;0
232708.624;-70.0782913743;0
232709.624;-69.0103576633;0
232710.624;-70.1158907286;0
232711.624;-70.0387910686;0
232712.624;-70.2077654741;0
232713.624;-70.6117863339;0
232714.624;-69.832804983;0
232715.624;-70.1351970741;0
232716.624;-70.2549532667;0
232717.624;-70.3181038917;0
232718.624;-69.625352826;0
232719.624;-69.9696867998;0
232720.624;-70.3530745181;0
232721.624;-70.0674955469;0
232722.624;-70.0797587328;0
232723.624;-70.0643368526;0
232724.624;-70.1075217508;0
232725.624;-70.0396431349;0
232726.624;-70.6241183019;0
232727.624;-69.1018154099;0
232728.624;-69.6898677422;0
232729.624;-70.1092738351;0
232730.624;-69.7089323178;0
232731.624;-69.828168818;0
232732.624;-70.366014374;0
232733.624;-70.3348277642;0
232734.624;-69.768493967;0
232735.624;-69.7594088095;0
232736.624;-69.9270795418;0
232737.624;-69.9052601752;0
232738.624;-70.0950270316;0
232739.624;-70.2144927601;0
232740.624;-70.0432444381;0
232741.624;-70.1564589248;0
232742.624;-69.9939616267;0
232743.624;-70.3099882635;0
232744.624;-69.746726867;0
232745.624;-69.855662437;0
232746.624;-70.3308295997;0
232747.624;-69.8723496256;0
232748.624;-69.796042978;0
232749.624;-70.0462304476;0
232750.624;-69.4932802073;0
232751.624;-70.5998561049;0
232752.624;-69.7478035127;0
232753.624;-69.9995079105;0
232754.624;-70.0634040956;0
232755.624;-69.8974580647;0
232756.624;-70.7090443114;0
232757.624;-69.8389983795;0
232758.624;-70.3667029838;0
232759.624;-70.8012761143;0
232760.624;-70.2996495233;0
232761.624;-70.2158368467;0
232762.624;-70.3056183624;0
232763.624;-70.1463928558;0
232764.624;-70.1653602222;0
232765.624;-70.5203025848;0
232766.624;-70.4802107443;0
232767.624;-70.1681630512;0
232768.624;-70.2528171977;0
232769.624;-70.4854491205;0
232770.624;-70.9375288137;0
232771.624;-70.5100110727;0
232772.624;-70.5597879734;0
232773.624;-70.515555379;0
232774.624;-70.3570694944;0
232775.624;-70.4182946699;0
232776.624;-70.835769124;0
232777.624;-70.6828963537;0
232778.624;-70.8718397518;0
232779.624;-70.3046946362;0
232780.624;-70.23166282;0
232781.624;-70.7382428051;0
232782.624;-70.8141464279;0
232783.624;-70.2550309317;0
232784.624;-69.4757172188;0
232785.624;-70.3780538952;0
232786.624;-70.7415853288;0
232787.624;-70.0106115445;0
232788.624;-70.253047839;0
232789.624;-70.4400629249;0
232790.624;-70.3394508565;0
232791.624;-70.7330182133;0
232792.624;-70.4244242624;0
232793.624;-70.3866044311;0
232794.624;-69.6781239912;0
232795.624;-70.3863664664;0
232796.624;-70.3949464525;0
232797.624;-70.2523682937;0
232798.624;-70.6175310176;0
232799.624;-70.1918021213;0
232800.624;-70.3541318041;0
232801.624;-70.500874666;0
232802.624;-70.3214293962;0
232803.624;-70.510725371;0
232804.624;-70.1553031352;0
232805.624;-70.1709937636;0
232806.624;-70.5294118407;0
232807.624;-70.1327681748;0
232808.624;-70.5105100832;0
232809.624;-69.9191227131;987.197453689
232810.624;-69.8766122888;987.422012911
232811.624;-70.3674480703;987.618114168
232812.624;-70.0996701693;987.814194854
232813.624;-69.9901101583;988.010227214
232814.624;-70.398329367;988.206237788
232815.624;-70.4309388329;988.402243235
232816.624;-70.3393466096;988.59820679
232817.624;-70.0797765591;988.794140117
232818.624;-70.4061349989;455.88095731
232819.624;-70.135241787;456.156177378
232820.624;-70.5959900064;456.431241227
232821.624;-70.17975145;456.706352968
232822.624;-69.7545487956;456.981409677
232823.624;-70.5957318555;457.256476125
232824.624;-70.3521584933;457.531558759
232825.624;-70.4414094255;457.806580406
232826.624;-70.3675589805;458.081624498
232827.624;-70.1620288611;458.356683189
232828.624;-70.6379751186;458.631711817
232829.624;-70.2557206578;458.906727399
232830.624;-70.0455161207;459.181766017
232831.624;-70.5858942056;459.456751919
232832.624;-70.2831218285;459.731750961
232833.624;-69.775251537;460.006745958
232834.624;-70.1170084659;460.281728525
232835.624;-69.7091291504;460.556721324
232836.624;-70.605542468;460.831704678
232837.624;-69.546300898;461.106652502
232838.624;-70.0819559624;461.381610692
232839.624;-70.7497066349;461.656520653
232840.624;-70.1923755673;461.931488531
232841.624;-69.7520889248;462.206400499
232842.624;-70.6797294255;462.481330466
232843.624;-70.2108992148;462.756263419
232844.624;-69.5709776919;151.700761858
232845.624;-69.9415947149;152.005093602
232846.624;-70.638578075;152.312579351
232847.624;-70.3714944721;152.620055229
232848.624;-69.8100780597;152.927531083
232849.624;-69.6648600752;153.235017817
232850.624;-69.6489183603;153.542531257
232851.624;-70.0886619247;153.850003288
232852.624;-69.9989076118;154.157488925
232853.624;-69.7163840963;-346.849471831
232854.624;-69.6984866827;-346.582149628
232855.624;-69.9194612897;-306.115657683
232856.624;-69.8461121523;-305.869151292
232857.624;-69.1569334604;-305.622639836
232858.624;-69.7132647067;-305.376124543
232859.624;-69.8902632746;-305.129589595
232860.624;-70.0563339619;-304.883048873
232861.624;-69.8968350387;-304.636513372
232862.624;-70.129702735;-304.389951332
232863.624;-69.8551666766;-304.143409334
232864.624;-69.7339246463;-303.896803885
232865.624;-69.7195045886;-303.650200118
232866.624;-69.9414114298;-303.4036042
232867.624;-69.6328852137;-303.157011105
232868.624;-70.2807497316;-302.910372589
232869.624;-69.5981958258;-302.663763555
232870.624;-69.8097633314;-302.417125052
232871.624;-69.799613533;-302.170466647
232872.624;-69.7375542548;-301.923821472
232873.624;-69.9014278468;-301.677145216
232874.624;-69.8582984064;-301.43045377
232875.624;-70.0569562282;-301.183775466
232876.624;-69.8323649471;-300.93707986
232877.624;-69.6919482734;-300.690364761
232878.624;-69.9074039836;-300.443668828
232879.624;-69.7911973257;-300.196915312
232880.624;-69.9447173275;-299.950175168
232881.624;-70.1785057704;-299.70344382
232882.624;-69.7802862989;-299.45668547
232883.624;-70.2339944899;-299.209900965
232884.624;-70.2234351491;-298.963118943
232885.624;-70.0066408546;-298.716352961
232886.624;-70.1156304006;-298.469558766
232887.624;-69.9503897385;-298.222746315
232888.624;-70.5384451496;-297.975921206
232889.624;-69.9673388269;-297.729098213
232890.624;-69.67747287;-297.482240428
232891.624;-69.6859917505;-297.235369511
232892.624;-70.6377678124;-296.988548106
232893.624;-69.6719203828;-296.741664889
232894.624;-69.6592011037;-296.4948113
232895.624;-70.3319942389;-296.247872683
232896.624;-69.8380240693;-296.001002478
232897.624;-69.4454166815;-295.754077264
232898.624;-70.312573434;-295.507172615
232899.624;-69.0687637757;-295.260244337
232900.624;-70.5611226918;-295.013309419
232901.624;-70.6725993955;-294.766367867
232902.624;-69.3858173846;-294.519392099
232903.624;-69.5773533027;-294.272411696
232904.624;-70.6743827661;-294.02546336
232905.624;-70.281531337;-293.778448862
232906.624;-70.4082555075;-293.531479856
232907.624;-70.2716517065;-293.284450337
232908.624;-70.0298173886;-293.037445022
232909.624;-69.8125627362;-331.27233494
232910.624;-69.6022981335;-330.991532327
232911.624;-70.038004942;-330.712823109
232912.624;-70.4351730517;-330.434045777
232913.624;-69.679261326;-330.155293306
232914.624;-68.8379639011;-329.876499108
232915.624;-70.0520975298;-329.597677102
232916.624;-70.4875711775;-329.318876413
232917.624;-70.8914077591;-329.040086698
232918.624;-69.8992951993;-328.761229772
232919.624;-70.7056880306;-328.482412689
232920.624;-70.5174966481;-328.203553873
232921.624;-70.9718969925;-327.924691933
232922.624;-70.7768622271;-327.645797163
232923.624;-70.1674012094;-327.366928228
232924.624;-69.3526242273;-327.088009172
232925.624;-70.1085810603;-326.809100838
232926.624;-70.1325096134;-326.530187039
232927.624;-69.5929294691;-326.251230696
232928.624;-70.6213240645;-325.972283457
232929.624;-70.2249039034;-325.693308538
232930.624;-70.2833980031;-325.414350752
232931.624;-69.8824949848;-325.13536332
232932.624;-69.9589328848;-324.856370915
232933.624;-69.6097549107;-324.577341494
232934.624;-69.8832909152;-324.298345825
232935.624;-70.1464216752;-324.019298761
232936.624;-69.9123091308;-323.740261876
232937.624;-69.8299597645;-323.461215393
232938.624;-70.1938825028;-323.182140807
232939.624;-69.5798942232;-322.903088581
232940.624;-70.6914639137;-322.62398359
232941.624;-69.9887713742;-322.344881976
232942.624;-70.1563974183;-322.065770398
232943.624;-70.2228637039;-321.786652999
232944.624;-69.7644676062;-321.507479811
232945.624;-69.603002467;-321.228339806
232946.624;-69.8444506844;-320.949185858
232947.624;-70.1060139352;-320.670020643
232948.624;-70.1570310738;-320.390845804
232949.624;-70.3519831346;-320.111648504
232950.624;-70.1723259623;-319.832429397
232951.624;-70.1246920275;-319.553204065
232952.624;-70.3684732331;-319.273981427
232953.624;-69.5081307258;-318.994727839
232954.624;-69.8614811012;-318.715481696
232955.624;-70.1374716611;-318.436207983
232956.624;-70.292776204;-318.156937688
232957.624;-69.171319636;-317.877656587
232958.624;-69.6287571768;-317.59836443
232959.624;-70.3039530701;-317.319045374
232960.624;-69.9510397502;-317.039724412
232961.624;-69.7826791765;-316.760381588
232962.624;-69.5725218443;-316.48102679
232963.624;-69.8016338778;-316.201685646
232964.624;-70.0985024178;-315.922301089
232965.624;-69.7203733454;-315.642922467
232966.624;-70.5742835313;-315.363530947
232967.624;-70.4031702301;-315.084114781
232968.624;-69.8014160104;-314.804709038
232969.624;-70.0840411342;-314.525285064
232970.624;-69.8435647425;-314.245824583
232971.624;-70.3144481739;-313.966370253
232972.624;-70.5757826698;-313.686920934
232973.624;-70.4027104829;-313.407442245
232974.624;-70.2345358002;-313.127966391
232975.624;-70.572005961;-312.848457019
232976.624;-70.0219854275;-312.568946511
232977.624;-69.8557549557;-312.289435705
232978.624;-70.2660755636;-312.0099049
232979.624;-70.6133166007;-311.730357573
232980.624;-70.1128808615;-311.450795257
232981.624;-69.8442849735;-311.171221326
232982.624;-70.7337274713;-310.891657817
232983.624;-70.1823349237;-310.612077704
232984.624;-70.355314523;-310.332458521
232985.624;-70.3308588725;-310.052847671
232986.624;-70.1120635517;-309.773218912
232987.624;-70.6307706858;-309.493587306
232988.624;-71.1858051053;-309.213939674
232989.624;-70.1974898379;-308.934289093
232990.624;-69.7675483166;-308.654612903
232991.624;-70.5958234439;-308.37493841
232992.624;-70.3494717902;-308.095245984
232993.624;-70.3783260141;-307.815545551
232994.624;-70.4481775543;-307.535813366
232995.624;-70.2645219249;-307.256080197
232996.624;-70.2580308768;-306.976360585
232997.624;-70.5763120987;-306.696598516
232998.624;-70.3783943374;-306.416829024
232999.624;-70.3775611771;-306.137068991
233000.624;-70.6675240434;-305.857284772
233001.624;-70.1078849404;-305.57748963
233002.624;-70.151165622;-305.297678214
233003.624;-70.1077491679;-305.01786948
233004.624;-70.4533641503;-304.738034865
233005.624;-70.4735876387;-304.458186694
233006.624;-70.2326950279;-304.178337148
233007.624;-70.7392503668;-303.898473127
233008.624;-70.3430769453;-303.618593702
233009.624;-70.485385628;-303.338713709
233010.624;-71.1538579608;-303.058832348
233011.624;-70.1297220896;-302.77888972
233012.624;-69.8839401133;-302.498984683
233013.624;-69.7155024804;-302.219063668
233014.624;-69.8958673581;-301.939114987
233015.624;-69.1020262552;-301.659156334
233016.624;-70.5792656134;-301.37918779
233017.624;-70.0711543878;-301.099205052
233018.624;-70.1048472965;-300.819221979
233019.624;-70.1902979947;-300.539227091
233020.624;-70.1235805198;-300.259199086
233021.624;-70.4002436644;-299.979190316
233022.624;-70.0417291692;-299.699148366
233023.624;-69.9201270222;-299.419100987
233024.624;-69.6257053164;-299.139061277
233025.624;-69.5597707205;-298.858991144
233026.624;-70.1449971035;-298.578903908
233027.624;-70.5171564542;-298.298820153
233028.624;-69.4225268404;-298.018729613
233029.624;-69.6606657098;-297.738600598
233030.624;-71.1566271508;-297.458466748
233031.624;-69.7284098453;-297.178352861
233032.624;-70.5614773901;-296.89820391
233033.624;-69.905302795;-296.61804926
233034.624;-70.1979540564;-296.337884853
233035.624;-70.2450877687;-296.057697028
233036.624;-70.5260315617;-295.777517818
233037.624;-70.4385610059;-295.497295361
233038.624;-70.2272991688;-295.217084851
233039.624;-69.9880987159;-294.936859858
233040.624;-70.8262609156;-294.656634447
233041.624;-70.5911774006;-294.376393369
233042.624;-70.8150337644;-294.096107247
233043.624;-70.0024044965;-293.815853273
233044.624;-69.8167270827;-293.535578022
233045.624;-69.4968629763;-293.255297202
233046.624;-69.6951699875;-292.974998678
233047.624;-69.9827009991;-292.694671176
233048.624;-69.7706287859;-292.414345304
233049.624;-70.5161831315;-292.134008152
233050.624;-70.4281442489;-291.853657043
233051.624;-70.1098379474;-291.573300329
233052.624;-69.9669172662;-291.292947612
233053.624;-70.1681419501;-291.012578429
233054.624;-70.8869103751;-290.732179399
233055.624;-69.8848040436;-290.451775242
233056.624;-69.7645477286;-290.171369784
233057.624;-68.963588446;-289.89093438
233058.624;-69.7036675851;-289.610504264
233059.624;-70.5757573143;-289.330045995
233060.624;-70.4901001522;-289.049626794
233061.624;-70.0526077895;-288.769137398
233062.624;-70.2467730919;-288.488654882
233063.624;-70.1331263568;-288.208162843
233064.624;-70.8968311843;-287.927666422
233065.624;-69.4911842304;-287.647148934
233066.624;-70.2195154582;-287.366620699
233067.624;-70.9968876819;-287.086088621
233068.624;-69.9639016458;-286.805540111
233069.624;-70.421376143;-286.525019965
233070.624;-69.8200023146;-286.244429208
233071.624;-70.7674836157;-285.963847176
233072.624;-70.012042099;-285.683263096
233073.624;-70.1055986165;-285.402652516
233074.624;-70.1073639083;-285.122042435
233075.624;-70.5759448117;-284.841433865
233076.624;-70.3708758217;-284.560801533
233077.624;-70.3400422737;-284.280163054
233078.624;-69.8923993125;-283.999518345
233079.624;-70.7072200369;-283.718825729
233080.624;-70.1449329654;-283.438154419
233081.624;-70.5539407444;-283.157479594
233082.624;-70.4015698248;-282.876752816
233083.624;-70.2871532465;-282.596074239
233084.624;-70.2162405326;-282.315346776
233085.624;-69.9465154433;-282.034614248
233086.624;-69.8354004024;-281.75388215
233087.624;-69.5971039557;-281.473127596
233088.624;-69.7033637569;-281.192366778
233089.624;-71.3486587761;-280.911581991
233090.624;-69.5887003002;-280.630801766
233091.624;-69.5478848627;-280.35001915
233092.624;-70.2047001995;-280.069200554
233093.624;-69.6209221019;-279.788393928
233094.624;-70.2300835384;-279.507561241
233095.624;-70.4535150353;-279.22672221
233096.624;-70.0779121012;-278.945865285
233097.624;-70.391979621;-278.665024223
233098.624;-70.5544679144;-278.384153838
233099.624;-70.3862707294;-278.103252415
233100.624;-70.4828541234;-277.8224626
233101.624;-70.0591966093;-277.541551526
233102.624;-70.0953331014;-277.260650938
233103.624;-69.863464896;-276.979719136
233104.624;-70.6812225903;-276.698780221
233105.624;-70.3411623206;-276.417836856
233106.624;-70.2239356777;-276.136867912
233107.624;-69.6983744033;-275.85593074
233108.624;-70.3383614591;-275.574920372
233109.624;-70.520576918;-275.293954412
233110.624;-69.8521980692;-275.012944799
233111.624;-70.4547113926;-274.731937509
233112.624;-70.6120855253;-274.450903908
233113.624;-70.1218337988;-274.169873365
233114.624;-70.9393833824;-273.888835035
233115.624;-70.2489443131;-273.607799872
233116.624;-70.0373974513;-273.326736298
233117.624;-70.3139084502;-273.045644633
233118.624;-70.4470608065;-272.764542189
233119.624;-70.4984284605;-272.483474129
233120.624;-70.1487861941;-272.202361897
233121.624;-70.3094675438;-271.921231366
233122.624;-69.8887329295;-271.640098917
233123.624;-70.6982807763;-271.3589697
233124.624;-70.5785371187;-271.077842759
233125.624;-70.2939030122;-270.796656813
233126.624;-70.2057811413;-270.515483302
233127.624;-70.3262556046;-270.234310417
233128.624;-70.1273807407;-269.953113405
233129.624;-70.826940886;-269.671904166
233130.624;-70.1564152054;-269.390713485
233131.624;-70.0510887667;-269.109479328
233132.624;-69.9916712694;-268.828246741
233133.624;-69.6765850842;-268.546992109
233134.624;-69.8124812698;-268.265736887
233135.624;-69.5087309207;-267.984472959
233136.624;-69.5488987721;-267.703184165
233137.624;-70.7393086822;-267.421920801
233138.624;-70.4912135505;-267.140620581
233139.624;-70.3475915378;-266.859298367
233140.624;-70.1141624805;-266.577990708
233141.624;-70.814326524;-266.296673223
233142.624;-69.8664042857;-266.015324275
233143.624;-70.1973903853;-265.73395834
233144.624;-69.6678532944;-265.452602728
233145.624;-70.4931969456;-265.171238307
233146.624;-70.345292061;-264.889848884
233147.624;-69.6958342713;-264.608462016
233148.624;-70.1992967237;-264.327069526
233149.624;-70.1537138377;-264.045632724
233150.624;-70.0493795691;-263.764223296
233151.624;-69.7873910765;-263.48277309
233152.624;-70.1369713547;-263.201349187
233153.624;-70.3089966736;-262.919899681
233154.624;-69.5231555441;-262.638409514
233155.624;-70.3570922434;-262.356936486
233156.624;-70.9537161971;-262.075446527
233157.624;-70.9970177735;-261.793963673
233158.624;-69.6871887556;-261.512453506
233159.624;-69.1884915001;-261.230926922
233160.624;-70.2193009721;-260.949412725
233161.624;-70.2376042207;-260.667868297
233162.624;-70.4742342547;-260.386303423
233163.624;-70.3624806505;-260.104766298
233164.624;-70.4329181569;-259.823193479
233165.624;-70.5465245198;-259.541613412
233166.624;-70.1802557615;-259.260020669
233167.624;-70.4143718644;-258.978420645
233168.624;-70.553358616;-258.696796306
233169.624;-70.2351274975;-258.415190051
233170.624;-70.059276103;-258.133555179
233171.624;-69.8305217023;-257.851921685
233172.624;-69.7292659575;-257.570258244
233173.624;-70.5291959821;-257.288589459
233174.624;-71.1535353657;-257.006911749
233175.624;-69.8530633314;-256.725220389
233176.624;-70.0715814578;-256.443556586
233177.624;-69.3916375652;-256.16185047
233178.624;-70.4175329475;-255.880131016
233179.624;-70.3895414815;-255.598411295
233180.624;-69.9468833198;-255.316675292
233181.624;-71.1487612866;-255.03492413
233182.624;-70.5410742958;-254.753166621
233183.624;-69.0861262933;-254.471400883
233184.624;-69.6321505634;-254.189626979
233185.624;-70.2666544343;-253.907851184
233186.624;-70.4281067141;-253.626051284
233187.624;-70.4711935987;-253.344240945
233188.624;-70.5670062319;-253.062414099
233189.624;-70.4173059943;-252.780581454
233190.624;-70.4862117259;-252.498763886
233191.624;-69.7996186885;-252.216915779
233192.624;-70.0044160865;-251.935045375
233193.624;-69.9965204701;-251.653176438
233194.624;-70.6601349548;-251.371306652
233195.624;-69.8170637222;-251.08940006
233196.624;-69.3978660329;-250.807512845
233197.624;-70.4649892317;-250.525619623
233198.624;-70.6114028975;-250.24369985
233199.624;-69.991198743;-249.961769243
233200.624;-69.7044062024;-249.679821396
233201.624;-69.289488882;-249.397880238
233202.624;-69.3489695476;-249.115911476
233203.624;-70.4377710959;-248.833948568
233204.624;-69.9439255257;-248.551945376
233205.624;-69.9329195226;-248.269966308
233206.624;-70.4970927732;-247.987965681
233207.624;-70.8003453051;-247.705962529
233208.624;-69.7862082505;-247.4239413
233209.624;-69.5835820478;-247.141914512
233210.624;-69.9751179784;-246.859881382
233211.624;-69.7379128287;-246.57781024
233212.624;-69.8921377384;-246.295748722
233213.624;-70.2338424774;-246.013674418
233214.624;-69.7158267519;-245.731610473
233215.624;-69.8540097656;-245.449504962
233216.624;-70.5187714469;-245.167409203
233217.624;-70.2234116513;-244.885322275
233218.624;-69.9766292863;-244.603172095
233219.624;-69.1060299141;-244.321040925
233220.624;-70.1536287296;-244.038910831
233221.624;-70.3267813861;-243.756758588
233222.624;-70.0134150534;-243.474594315
233223.624;-70.1494996391;-243.192438129
233224.624;-70.6056649129;-242.910256244
233225.624;-70.2493462967;-242.628070188
233226.624;-69.5207384244;-242.345861498
233227.624;-70.3112708422;-242.063634024
233228.624;-69.9043559802;-241.781416207
233229.624;-70.1911758324;-241.499177015
233230.624;-69.7991253227;-241.216949477
233231.624;-69.8558786576;-240.934694827
233232.624;-70.0186892356;-240.65243521
233233.624;-69.7848200964;-240.37016607
233234.624;-70.1814122267;-240.087870402
233235.624;-69.6145339453;-239.805585857
233236.624;-70.0195544881;-239.523299102
233237.624;-70.3722126376;-239.240984127
233238.624;-70.0244741277;-238.958663107
233239.624;-70.0626688084;-238.676329234
233240.624;-69.467285562;-238.39399144
233241.624;-69.429888031;-238.11162817
233242.624;-70.1659311023;-237.829253153
233243.624;-69.7352078222;-237.546906101
233244.624;-70.02439628;-237.264536802
233245.624;-69.6897326329;-236.98212798
233246.624;-70.4910144423;-236.699727402
233247.624;-69.9874262866;-236.417326979
233248.624;-70.5201680488;-236.134907405
233249.624;-70.1443212127;-235.852488806
233250.624;-70.2957861542;-235.570026302
233251.624;-69.593374158;-235.287590261
233252.624;-69.7809929008;-235.005133525
233253.624;-69.8570902;-234.722663061
233254.624;-70.0275106787;-234.440180673
233255.624;-70.3829214564;-234.157696964
233256.624;-69.8195434045;-233.875189126
233257.624;-69.9802297067;-233.592699042
233258.624;-70.0908787953;-233.310165605
233259.624;-69.657788778;-233.027627424
233260.624;-70.113761146;-232.745094992
233261.624;-69.7291419294;-232.462562081
233262.624;-70.0071933996;-232.180009989
233263.624;-69.8565126022;-231.897423129
233264.624;-69.4716816986;-231.614855342
233265.624;-69.3956294298;-231.332263011
233266.624;-70.4469107274;-231.049666088
233267.624;-70.4576095064;-230.767082373
233268.624;-69.767109063;-230.484469167
233269.624;-70.0881122257;-230.201826001
233270.624;-70.0755485416;-229.919204803
233271.624;-70.4760699124;-229.636560047
233272.624;-69.3796969986;-229.353890226
233273.624;-69.937638229;-229.07123324
233274.624;-69.8994676866;-228.788547825
233275.624;-69.9841703076;-228.505875487
233276.624;-69.4651693534;-228.223186779
233277.624;-70.1760360062;-227.940484715
233278.624;-70.0521139897;-227.657751543
233279.624;-70.2391627127;-227.375033091
233280.624;-69.8687850996;-227.092303889
233281.624;-70.085124639;-226.809570005
233282.624;-70.3750881586;-226.526804654
233283.624;-70.0552928347;-226.244044113
233284.624;-69.6485836181;-225.961272789
233285.624;-70.2606294251;-225.678497236
233286.624;-70.2746476237;-225.395726865
233287.624;-69.9101156409;-225.112916386
233288.624;-70.4664919573;-224.830110575
233289.624;-70.1172195239;-224.54729323
233290.624;-69.9263164716;-224.264452504
233291.624;-69.8676609727;-223.981619348
233292.624;-70.0056993376;-223.698775333
233293.624;-70.0034655087;-223.415901875
233294.624;-70.1938506615;-223.133061658
233295.624;-70.1174143558;-222.850167297
233296.624;-69.9275056531;-222.567278179
233297.624;-69.8548024736;-222.284397341
233298.624;-70.0725364921;-222.001515684
233299.624;-70.5662098036;-221.718586529
233300.624;-70.3339273528;-221.435661196
233301.624;-69.9473408595;-221.152724825
233302.624;-69.8244248983;-220.869767452
233303.624;-69.9839519955;-220.586825568
233304.624;-69.9862376436;-220.303871831
233305.624;-69.8064699434;-220.020875456
233306.624;-69.7820135744;-219.737904725
233307.624;-70.0321753612;-219.454932558
233308.624;-69.9111993575;-219.171908773
233309.624;-69.6623141367;-218.888907871
233310.624;-70.5537026471;-218.605920513
233311.624;-69.9501034151;-218.322855534
233312.624;-69.6803364824;-218.03983334
233313.624;-69.4970851466;-217.756782313
233314.624;-70.1640442189;-217.473744635
233315.624;-70.2797860498;-217.190650127
233316.624;-69.2129487638;-216.907592551
233317.624;-70.1851674545;-216.624504778
233318.624;-69.3700898063;-216.341417819
233319.624;-69.7686764469;-216.058310177
233320.624;-70.18326842;-215.775184452
233321.624;-69.193759294;-215.492059507
233322.624;-69.7232130157;-215.208926534
233323.624;-68.5311727781;-214.925782233
233324.624;-69.6110291451;-214.642652281
233325.624;-70.0572526973;-214.359470957
233326.624;-69.8275483027;-214.076312174
233327.624;-70.1974283763;-213.79313226
233328.624;-70.000519087;-213.509951109
233329.624;-69.8885649935;-213.226752664
233330.624;-70.2063126513;-212.943558281
233331.624;-69.1882813379;-212.660327092
233332.624;-69.8870598778;-212.377091703
233333.624;-69.5186930392;-212.093877261
233334.624;-70.2361977597;-211.810596758
233335.624;-69.3744937142;-211.52738304
233336.624;-69.4470852655;-211.244091768
233337.624;-69.6142672309;-210.960844569
233338.624;-69.6944902617;-210.677548649
233339.624;-70.0196405914;-210.394248149
233340.624;-69.8204317101;-210.110978916
233341.624;-70.0871710388;-209.827641527
233342.624;-70.1178041499;-209.544322931
233343.624;-69.7601485935;-209.260985049
233344.624;-70.2068255805;-208.977669384
233345.624;-69.8513339059;-208.694329753
233346.624;-70.9567751611;-208.410970448
233347.624;-69.4512946088;-208.127610834
233348.624;-70.0252839406;-207.844236391
233349.624;-69.4170552953;-207.560844216
233350.624;-69.9019891596;-207.27745216
233351.624;-70.1125209964;-206.994046889
233352.624;-69.6984463143;-206.710639654
233353.624;-69.5394560499;-206.42722432
233354.624;-69.6458765356;-206.143800035
233355.624;-69.8093426787;-205.860358975
233356.624;-69.4382326593;-205.576913222
233357.624;-70.3135923516;-205.293445828
233358.624;-69.2071525569;-205.009991964
233359.624;-71.0494881874;-204.726490265
233360.624;-69.6411013794;-204.443016261
233361.624;-69.832893598;-204.159520869
233362.624;-69.6684324994;-203.876024774
233363.624;-70.0090609927;-203.592525963
233364.624;-70.7522232282;-203.309008009
233365.624;-70.9397098498;-203.025471263
233366.624;-69.339689923;-202.741920558
233367.624;-69.8865741824;-202.458374717
233368.624;-70.732866122;-202.174824356
233369.624;-69.7769991824;-201.891251126
233370.624;-69.4416415034;-201.607665917
233371.624;-70.4797419794;-201.324091496
233372.624;-70.2699731627;-201.040498675
233373.624;-69.6238865304;-200.756909304
233374.624;-69.5701801459;-200.473288123
233375.624;-70.084065838;-200.189682986
233376.624;-70.0114032929;-199.906038267
233377.624;-68.7807714873;-199.622410873
233378.624;-69.6274416205;-199.33875284
233379.624;-69.0885759127;-199.055083039
233380.624;-69.583914515;-198.771435746
233381.624;-69.9032744172;-198.487770552
233382.624;-68.8108998468;-198.204066973
233383.624;-69.5906064171;-197.920386779
233384.624;-69.7126826176;-197.636676837
233385.624;-69.1529553463;-197.352978149
233386.624;-69.6476990206;-197.069257369
233387.624;-69.7996542477;-196.785512788
233388.624;-69.8990906555;-196.501779963
233389.624;-69.875890038;-196.218044493
233390.624;-70.1723954451;-195.934284017
233391.624;-69.9214325135;-195.650504989
233392.624;-69.9240100784;-195.366752156
233393.624;-69.0873024119;-195.082946757
233394.624;-70.5732685704;-194.799153695
233395.624;-69.6463522603;-194.515359157
233396.624;-69.2995235022;-194.231555763
233397.624;-69.2098934329;-193.947727189
233398.624;-69.9507523402;-193.663910481
233399.624;-69.2961033104;-193.380072716
233400.624;-69.5168356746;-193.096227982
233401.624;-70.1821199466;-192.812373942
233402.624;-69.7843129952;-192.528510695
233403.624;-70.6611198565;-192.244648661
233404.624;-69.6148608319;-191.960764688
233405.624;-69.9948168401;-191.676889703
233406.624;-69.8936507478;-191.392961333
233407.624;-69.8302293186;-191.109058907
233408.624;-70.6753944376;-190.825139833
233409.624;-70.1934124505;-190.5412107
233410.624;-69.6575308426;-190.257278244
233411.624;-69.7253684259;-189.973351808
233412.624;-70.0427957172;-189.689383747
233413.624;-70.2352458022;-189.405431804
233414.624;-70.0993573451;-189.121462906
233415.624;-70.4296953774;-188.837482249
233416.624;-69.6524418412;-188.553518368
233417.624;-70.6860557933;-188.269493975
233418.624;-69.844548431;-187.985519654
233419.624;-70.4164955122;-187.701504344
233420.624;-69.8827758487;-187.41748552
233421.624;-70.1966851289;-187.133441549
233422.624;-70.4201892187;-186.849397498
233423.624;-70.3214488477;-186.565355084
233424.624;-69.8287428161;-186.281294025
233425.624;-70.747769261;-185.997236636
233426.624;-70.9630665569;-185.713155589
233427.624;-70.1889393847;-185.429076594
233428.624;-70.4886226438;-185.144983282
233429.624;-70.0390981774;-184.860880209
233430.624;-70.5335224056;-184.576784295
233431.624;-69.9785082719;-184.292645952
233432.624;-70.2188344743;-184.008522334
233433.624;-70.708579192;-183.724394041
233434.624;-70.4297604156;-183.440251105
233435.624;-69.8440942221;-183.156085488
233436.624;-69.4903078867;-182.871949656
233437.624;-70.4866819658;-182.587767267
233438.624;-69.9549339564;-182.303589721
233439.624;-69.15560394;-182.019386144
233440.624;-69.9904860042;-181.735203936
233441.624;-69.7046489649;-181.450996053
233442.624;-70.3830834101;-181.166791516
233443.624;-69.6318062932;-180.88256543
233444.624;-70.3912882026;-180.598326998
233445.624;-69.1544905196;-180.314107871
233446.624;-70.0069192593;-180.029839273
233447.624;-70.0967002001;-179.745597197
233448.624;-69.8829375056;-179.461316653
233449.624;-70.4361780087;-179.177044468
233450.624;-70.3776171158;-178.892783748
233451.624;-69.953545749;-178.608491968
233452.624;-70.0839818478;-178.324184041
233453.624;-70.2764734838;-178.039893575
233454.624;-69.8256934931;-177.755569326
233455.624;-69.9825002376;-177.471213551
233456.624;-70.5446113287;-177.186896479
233457.624;-70.3943281451;-176.902578468
233458.624;-70.3501144314;-176.618189136
233459.624;-69.9996517456;-176.333864378
233460.624;-69.5928203115;-176.04947937
233461.624;-70.2426418694;-175.765090282
233462.624;-70.1462194005;-175.480715178
233463.624;-69.9321177709;-175.196304442
233464.624;-69.5105318215;-174.91192528
233465.624;-69.8016539939;-174.627528269
233466.624;-70.3341285327;-174.343101075
233467.624;-70.0212414856;-322.209595814
233468.624;-69.4246678022;-343.594346828
233469.624;-69.6886137454;-343.350979985
233470.624;-69.2849079876;-343.107613746
233471.624;-69.8536909646;-342.864241069
233472.624;-69.5919289047;-342.620875531
233473.624;-69.8985065551;-342.377489636
233474.624;-70.1328226382;-342.134093016
233475.624;-70.5458608305;-341.890700899
233476.624;-70.069086539;-341.647290388
233477.624;-69.5302999728;-341.403893001
233478.624;-70.4933025086;-341.160473052
233479.624;-70.0445249562;-340.91705
233480.624;-70.0449737644;-340.673623468
233481.624;-70.0104221516;-340.430187122
233482.624;-70.2301069583;-340.186754976
233483.624;-69.3768722896;-339.943308802
233484.624;-69.5129203506;-339.699861533
233485.624;-69.7039465007;-339.45639954
233486.624;-70.2924521441;-339.212926945
233487.624;-69.9952237865;-338.969475603
233488.624;-70.3026384384;-338.725987383
233489.624;-70.2827453181;-338.482499358
233490.624;-70.4900933809;-338.239038495
233491.624;-69.8339598912;-337.995525139
233492.624;-69.4968743081;-337.752037743
233493.624;-70.4931195814;-337.508548076
233494.624;-70.2894730108;-314.947850713
233495.624;-70.7892943696;-314.621964249
233496.624;-68.9611287624;-314.350719019
233497.624;-69.7664749095;-314.079509185
233498.624;-70.5563376433;-313.808275215
233499.624;-69.7252477985;-313.537010503
233500.624;-69.4356700099;-313.265747127
233501.624;-69.5892986398;-312.994485673
233502.624;-69.3570291015;-312.723218842
233503.624;-69.0020535929;-312.451959034
233504.624;-69.7919070702;-312.180664519
233505.624;-70.0912135105;-311.909370277
233506.624;-69.5578616757;-311.638099119
233507.624;-69.6887339429;-311.36680668
233508.624;-69.6978118462;-311.095470352
233509.624;-70.3801184332;-310.824167672
233510.624;-69.9193451698;-310.552852148
233511.624;-69.9491384431;-310.281525684
233512.624;-70.1017956234;-310.010174995
233513.624;-69.7971147074;-309.738840276
233514.624;-69.033619672;-309.467487556
233515.624;-69.9203565065;-309.196140588
233516.624;-69.3303737633;-308.924787443
233517.624;-69.766557524;-308.653400314
233518.624;-70.116521499;-308.382041062
233519.624;-70.192544274;-308.11065969
233520.624;-68.6611716918;-307.839283852
233521.624;-69.531478503;-307.567895525
233522.624;-70.1688752439;-307.296498879
233523.624;-70.0710663187;-307.025079748
233524.624;-69.942977408;-306.753647511
233525.624;-69.8632694087;-306.482238575
233526.624;-70.2444871181;-306.2108207
233527.624;-70.469450815;-305.939374368
233528.624;-69.5495570964;-305.66793118
233529.624;-70.2777740463;-305.396481575
233530.624;-70.398424629;-305.12503424
233531.624;-70.3535303521;-304.853559777
233532.624;-69.4505769724;-304.582097678
233533.624;-70.099214083;-304.310616636
233534.624;-70.1472879814;-304.039149777
233535.624;-69.7661636052;-303.767673042
233536.624;-69.2860450418;-303.496156542
233537.624;-70.8482812493;-303.224668051
233538.624;-70.3198339748;-302.953151359
233539.624;-69.6192105207;-302.68163917
233540.624;-70.0002793874;-302.41011443
233541.624;-69.3164270743;-302.138594893
233542.624;-69.1655909949;-301.86705037
233543.624;-69.4104572822;-301.595514605
233544.624;-70.4005963709;-301.323976204
233545.624;-69.4087816437;-301.052410904
233546.624;-69.4082105742;-300.780863281
233547.624;-68.6102504877;-300.509284713
233548.624;-69.5982845651;-300.237720792
233549.624;-69.5273811142;-299.966127694
233550.624;-69.9044258405;-299.694559506
233551.624;-70.0867939612;-299.422965689
233552.624;-70.0058122354;-299.151363651
233553.624;-69.366070786;-298.879741276
233554.624;-70.1570112836;-298.608143022
233555.624;-68.9328304816;-298.336536125
233556.624;-69.4473830957;-298.06489692
233557.624;-69.9000993046;-297.793255017
233558.624;-70.0893298036;-297.521627892
233559.624;-69.2393141911;-297.249984474
233560.624;-69.8603411352;-296.978326019
233561.624;-70.0101752477;-296.706669476
233562.624;-69.7879503556;-296.435013731
233563.624;-70.2727384472;-296.163336015
233564.624;-69.3758844702;-146.4300175
233565.624;-70.1424049079;-146.14478181
233566.624;-69.3886297571;-145.859552617
233567.624;-69.0112919388;-145.574308129
233568.624;-69.9589801444;-145.289065347
233569.624;-70.4896863268;-145.003806182
233570.624;-70.1136699665;-144.718549575
233571.624;-69.9427460411;-144.433279247
233572.624;-70.682584707;-144.147987641
233573.624;-68.9073247891;-143.862706821
233574.624;-69.948288437;-255.719740344
233575.624;-69.1294124634;-255.459051768
233576.624;-70.1637252356;-255.198356497
233577.624;-69.3200778526;-254.937635092
233578.624;-70.0840507719;-254.67689018
233579.624;-69.5620614654;-254.416178749
233580.624;-70.4573669348;-254.155410949
233581.624;-69.5250685703;-253.89468255
233582.624;-69.86896158;-253.633923029
233583.624;-70.1397412352;-253.373125559
233584.624;-70.4193603927;-284.176088659
233585.624;-70.868895564;-283.976343076
233586.624;-69.2783739612;-283.776563906
233587.624;-69.2775512677;-485.342052813
233588.624;-70.3102392143;-485.090555214
233589.624;-70.3491451861;-484.884887263
233590.624;-70.4837426688;-484.67917955
233591.624;-70.2539362296;-484.473478643
233592.624;-69.8496103844;-484.267713712
233593.624;-70.1753150595;-484.061998996
233594.624;-70.2868148769;-483.856252277
233595.624;-69.5483761036;-483.650500496
233596.624;-70.0801112725;-312.363184799
233597.624;-69.9857201005;-312.151711217
233598.624;-69.641016148;-311.907612724
233599.624;-70.7653790372;-311.663485619
233600.624;-70.5415730336;-311.419329938
233601.624;-69.8404260406;-311.175207005
233602.624;-69.8793651139;-310.931076628
233603.624;-69.3277958191;-310.68692741
233604.624;-69.8271805362;-310.442788587
233605.624;-70.4238809742;-284.752139189
233606.624;-69.8000588964;-284.475488739
233607.624;-69.3922127395;-284.203538775
233608.624;-70.0128350461;-283.931569115
233609.624;-70.7492282773;-283.659629441
233610.624;-70.4292807028;-283.387666239
233611.624;-70.4861027087;-283.115669655
233612.624;-69.2771744158;-282.843692271
233613.624;-69.9487546025;-282.571693101
233614.624;-70.4016313704;-282.299721092
233615.624;-70.1803191268;-282.027720218
233616.624;-70.0996427308;-281.755716061
233617.624;-70.1470771682;-281.483714373
233618.624;-69.8175420065;-281.211696759
233619.624;-70.1105750521;-280.939670811
233620.624;-70.0544711086;-280.66762878
233621.624;-70.0364830047;-280.395605544
233622.624;-69.6527576259;-280.123556851
233623.624;-69.1049840612;-279.851510416
233624.624;-69.6298039927;-279.579465005
233625.624;-69.4513299645;-279.30740152
233626.624;-70.2605188718;-279.035358817
233627.624;-69.5843062642;-278.76327323
233628.624;-68.7308617739;-278.491174874
233629.624;-69.0525842879;-278.219109583
233630.624;-70.094172745;-400.674690774
233631.624;-69.2026458695;-400.424366282
233632.624;-69.8458067177;-400.17404634
233633.624;-69.725794077;-399.923722241
233634.624;-69.5248948356;-399.673391195
233635.624;-69.8013626387;-399.42304943
233636.624;-69.9767556621;-399.172694318
233637.624;-70.0196805009;-398.922349264
233638.624;-69.600683779;-398.671981281
233639.624;-69.2586671078;-398.421622835
233640.624;-69.4054303373;-398.171240948
233641.624;-69.9001656621;-397.920843745
233642.624;-69.4300731547;-397.670454342
233643.624;-69.7156969505;-397.420077278
233644.624;-69.6339227086;-397.169637177
233645.624;-69.8271032512;-396.919242118
233646.624;-69.3529637237;-396.66883188
233647.624;-69.9377031135;-396.418379819
233648.624;-70.3055335693;-396.167964829
233649.624;-69.4375043056;-395.917512976
233650.624;-70.1476234115;-395.667073154
233651.624;-70.8136066452;-272.228899095
233652.624;-69.5295874325;-271.959522866
233653.624;-69.5306961073;-271.6872846
233654.624;-70.2579119301;-271.415062634
233655.624;-70.0998627425;-271.142823479
233656.624;-69.9208367288;-270.87058692
233657.624;-70.5278936134;-270.598307859
233658.624;-69.8165016133;-270.32607326
233659.624;-70.0222205098;-162.245480426
233660.624;-69.962146612;-161.861947411
233661.624;-69.7263258286;-161.478517891
233662.624;-69.605931736;-161.095010572
233663.624;-70.3954769423;-160.711452817
233664.624;-70.7195547448;-160.327961897
233665.624;-69.9256090949;-159.944396764
233666.624;-69.9835858786;-159.560838804
233667.624;-69.4790407249;-159.177250522
233668.624;-69.5980730897;-158.793757473
233669.624;-69.8689439086;-158.410152165
233670.624;-70.1279117516;-158.026590071
233671.624;-69.9536312847;-157.642981759
233672.624;-68.8810746526;-157.259368573
233673.624;-70.2331540405;-156.875735327
233674.624;-70.0224409124;-156.492157904
233675.624;-69.8156251278;-156.108536975
233676.624;-69.5993808479;-155.724946896
233677.624;-69.7437908421;-155.341298096
233678.624;-70.270527434;-154.957622639
233679.624;-69.3934869201;-154.574010588
233680.624;-69.6039878731;-154.190360353
233681.624;-69.1851014669;-153.80666174
233682.624;-69.8601465936;-153.422997101
233683.624;-70.1159098887;-153.039337074
233684.624;-69.5198060052;-152.655668222
233685.624;-69.944684667;-152.271958385
233686.624;-69.5409666345;-151.888247458
233687.624;-69.2998401425;-151.504574854
233688.624;-69.6926493143;-151.120820103
233689.624;-69.1444079818;-261.903029339
233690.624;-70.5543331463;-261.61075504
233691.624;-69.0340747644;-261.338302895
233692.624;-69.9798155321;-261.065843464
233693.624;-69.030219474;-260.793389874
233694.624;-69.5190885969;-260.520923604
233695.624;-70.0821757163;-260.248445157
233696.624;-69.5582133255;-259.975981929
233697.624;-68.6190231724;-259.703488401
233698.624;-69.4249591716;-259.430999305
233699.624;-69.7528711175;-259.158496175
233700.624;-69.5810187818;-258.886052041
233701.624;-68.995706876;-258.613560334
233702.624;-69.9977622134;-258.341020944
233703.624;-68.5851545542;-258.06852385
233704.624;-69.6018764868;-257.795991081
233705.624;-70.0981568942;-257.5235002
233706.624;-69.8077283068;-257.250941855
233707.624;-69.5569076867;-256.978407862
233708.624;-69.6284939431;-256.705852888
233709.624;-70.0300132664;-256.433308333
233710.624;-70.0029883231;-256.160746991
233711.624;-69.6864041746;-255.888184385
233712.624;-69.6986153554;-255.615617711
233713.624;-69.4559585335;-255.343063558
233714.624;-70.4380285184;-255.070457796
233715.624;-69.8576383241;-254.797885008
233716.624;-69.0859995243;-254.52529827
233717.624;-69.923250511;-254.252704554
233718.624;-69.8977291872;-253.980111381
233719.624;-69.3544419747;-253.707490847
233720.624;-69.3072670431;-253.434881498
233721.624;-69.6423928753;-253.162248201
233722.624;-69.3597241918;-252.889644112
233723.624;-69.7018705418;-252.617009371
233724.624;-70.5114837708;-252.344383463
233725.624;-69.1054327029;-252.071736156
233726.624;-69.7915055108;-251.799090515
233727.624;-69.8039239104;-251.526447655
233728.624;-70.1464330676;-251.253805073
233729.624;-69.7960471054;-250.981131586
233730.624;-70.1104101569;-250.708470361
233731.624;-70.2341594394;-250.435797261
233732.624;-69.2161408704;-250.163113128
233733.624;-69.5562377208;-249.890442235
233734.624;-69.6786917934;-249.617755624
233735.624;-68.8520937164;-249.34505401
233736.624;-69.8432047493;-249.072341904
233737.624;-69.7081889766;-248.799634201
233738.624;-69.8020323459;-248.52694292
233739.624;-69.3740410829;-248.254211226
233740.624;-69.0943588816;-247.981496092
233741.624;-69.7889505735;-247.708779248
233742.624;-69.7783040541;-247.436042551
233743.624;-69.3011904;-247.163308354
233744.624;-68.7251433563;-246.890576066
233745.624;-69.2781091846;-246.617807969
233746.624;-69.4924066267;-246.345055223
233747.624;-69.1450269458;-246.072294148
233748.624;-69.5181857525;-245.799528849
233749.624;-69.3200794709;-245.526767091
233750.624;-69.1258523057;-245.253991678
233751.624;-69.7937707836;-244.981192661
233752.624;-70.0294200341;-244.708419585
233753.624;-69.2743435329;-244.43563009
233754.624;-69.6919477251;-244.162820445
233755.624;-69.8457534708;-243.890032579
233756.624;-69.4393147377;-243.617226217
233757.624;-69.89277422;-243.344431197
233758.624;-69.7159793927;-243.071596603
233759.624;-69.4434878984;-242.798759521
233760.624;-69.9019795411;-242.525930074
233761.624;-69.5938803874;-242.253099494
233762.624;-68.8899464079;-241.980272997
233763.624;-69.6913824003;-241.707427795
233764.624;-69.0256935856;-241.434572262
233765.624;-69.5061692782;-241.161714057
233766.624;-69.9367006747;-240.888868624
233767.624;-70.327972453;-240.615987955
233768.624;-69.9777371047;-240.343118343
233769.624;-69.6172570339;-240.070254342
233770.624;-69.8638547826;-239.797364057
233771.624;-69.4584713856;-239.524493906
233772.624;-69.9158493712;-239.251585234
233773.624;-69.4852155103;-238.978684883
233774.624;-69.6696718435;-238.705784563
233775.624;-69.8731910232;-238.432890511
233776.624;-69.6775799672;-238.159961673
233777.624;-68.915107066;-237.887047137
233778.624;-69.6666252036;-363.552496607
233779.624;-69.3179116907;-363.301169671
233780.624;-69.6039321497;-363.049843117
233781.624;-69.2131897902;-362.798484598
233782.624;-69.4057976178;-362.547116502
233783.624;-69.0291018185;-362.295782959
233784.624;-70.227443274;-362.044435103
233785.624;-68.8611418189;-361.79305415
233786.624;-69.7824700631;-361.541699848
233787.624;-69.637345876;-361.290298194
233788.624;-68.8067268782;-361.038915566
233789.624;-70.5406863524;-360.787499509
233790.624;-68.9057013818;-360.536099369
233791.624;-69.5444898059;-360.284706021
233792.624;-69.7377819171;-360.0332742
233793.624;-70.187452747;-359.781869939
233794.624;-69.413783985;-198.142509545
233795.624;-69.9165121449;-197.879824823
233796.624;-69.6490670828;-197.617124161
233797.624;-70.0653730047;-197.354392762
233798.624;-69.7237153716;-197.091674628
233799.624;-69.8602487497;-196.828946422
233800.624;-69.4427270618;-196.566171969
233801.624;-70.7698718607;-107.716354384
233802.624;-69.6764208555;-107.331870577
233803.624;-69.1056068498;-106.94741595
233804.624;-69.6555633918;-106.562879548
233805.624;-70.7297854597;-106.178413116
233806.624;-69.3298997618;-105.793931197
233807.624;-69.4193869173;-105.409360933
233808.624;-69.5982822568;-105.024890422
233809.624;-69.5514143417;-104.640397881
233810.624;-70.3082549461;-228.905613251
233811.624;-69.575682638;-228.604777196
233812.624;-69.3335444835;-228.331714452
233813.624;-69.8905212808;-228.058593423
233814.624;-69.0030188569;-227.785484602
233815.624;-69.9586318073;-227.512393937
233816.624;-68.5497893871;-227.239253908
233817.624;-69.010453524;-226.966138091
233818.624;-70.1936014866;-226.693015798
233819.624;-69.3705564056;-226.419871026
233820.624;-69.8535525797;-226.146760793
233821.624;-68.6164523144;-225.87360197
233822.624;-69.5724158452;-225.6004687
233823.624;-69.2567024193;-225.327298924
233824.624;-69.6029575322;-225.0541383
233825.624;-69.6548046672;-224.780992352
233826.624;-68.9896852451;-224.507832008
233827.624;-69.8553280967;-224.234656463
233828.624;-68.9804012581;-223.961483094
233829.624;-69.5047484881;-223.688302278
233830.624;-69.0515450513;-223.415111434
233831.624;-69.4372276284;-223.141924874
233832.624;-69.0262232507;-222.868751888
233833.624;-69.8387957874;-222.595532085
233834.624;-69.3685115398;-222.322310194
233835.624;-69.2548565425;-222.049101505
233836.624;-69.7056711333;-221.77590115
233837.624;-69.751682018;-221.502676682
233838.624;-69.3631378836;-221.229454705
233839.624;-68.9518048054;-220.95622334
233840.624;-70.0736943514;-347.957848741
233841.624;-69.4859330177;-347.706124674
233842.624;-69.7603291627;-347.45437382
233843.624;-69.8091370436;-347.202636289
233844.624;-69.0868155809;-346.950905173
233845.624;-70.1214747518;-346.699154232
233846.624;-69.9167075407;-346.447394693
233847.624;-68.8623673186;-346.195656815
233848.624;-69.1836211814;-345.943847229
233849.624;-68.8641352816;-345.692082029
233850.624;-69.207741388;-345.440302802
233851.624;-69.4940470997;-345.18850493
233852.624;-69.6040885944;-344.936707824
233853.624;-69.8376740118;-344.684908494
233854.624;-70.0416377994;-344.433097096
233855.624;-69.652685585;-344.181293956
233856.624;-68.9079107791;-343.929455546
233857.624;-70.1668977105;-343.677624486
233858.624;-68.6510186602;-343.425807364
233859.624;-69.2231687619;-215.486329739
233860.624;-69.405998265;-215.217305394
233861.624;-69.7590744542;-214.943976124
233862.624;-70.346682875;-214.67061253
233863.624;-70.4354792155;-214.397300343
233864.624;-69.7413731811;-214.123951854
233865.624;-69.9924299677;-213.850594796
233866.624;-69.5143204644;-213.577243267
233867.624;-70.0245084629;-213.3038878
233868.624;-69.5765024974;-213.030515826
233869.624;-68.827403777;-212.757145882
233870.624;-69.3003267258;-212.483765107
233871.624;-69.9333985247;-212.210383686
233872.624;-70.1512578684;-211.936989786
233873.624;-69.8081227842;-211.66360381
233874.624;-69.5064771225;-211.390211163
233875.624;-69.3365242573;-211.116826247
233876.624;-68.8333768938;-210.843408847
233877.624;-69.3553239773;-210.570009208
233878.624;-70.1217150114;-210.296584942
233879.624;-69.3355496325;-210.023156677
233880.624;-70.1869716573;-209.749773011
233881.624;-69.9675121696;-209.476322278
233882.624;-69.8791486035;-209.202912153
233883.624;-69.7531410281;-208.929450413
233884.624;-69.0965462465;-208.656009717
233885.624;-69.0124093596;-208.382567609
233886.624;-69.8361316926;-208.10911446
233887.624;-70.0223444135;-207.835661232
233888.624;-69.8687158751;-207.562209023
233889.624;-69.5337711878;-207.288742765
233890.624;-70.4052015581;-207.01526943
233891.624;-69.9540624789;-206.741798552
233892.624;-69.8670254684;-334.859845869
233893.624;-69.7939625245;-334.607785576
233894.624;-69.7342880455;-334.355745343
233895.624;-70.5053011357;-334.103665421
233896.624;-69.521655992;-333.851636732
233897.624;-69.858109748;-333.599533605
233898.624;-69.7937246804;-333.347479895
233899.624;-69.7543686076;-333.095368728
233900.624;-69.8960442375;-332.843281172
233901.624;-70.0182001805;-332.591203765
233902.624;-69.2923626369;-332.339090437
233903.624;-70.2455816532;-332.087002045
233904.624;-70.3385963666;-331.834892959
233905.624;-69.7390693418;-331.582755795
233906.624;-70.2601439266;-331.330630067
233907.624;-70.1998662922;-331.078504836
233908.624;-69.4861047762;-330.826366541
233909.624;-70.4912408625;-330.574206122
233910.624;-69.6992157079;-330.322074867
233911.624;-70.1086997794;-330.069940034
233912.624;-69.8695401717;-329.817762311
233913.624;-70.0675737723;-329.565594604
233914.624;-69.9593302143;-329.313433546
233915.624;-70.4530862483;-329.061233282
233916.624;-70.3432026296;-328.809044069
233917.624;-70.1309481287;-328.556870247
233918.624;-69.3483814499;-328.304670944
233919.624;-68.951891892;-328.052464622
233920.624;-69.2933436625;-327.800243798
233921.624;-69.9191764056;-327.548058858
233922.624;-69.8479042799;-327.295840995
233923.624;-69.18790102;-327.043610761
233924.624;-69.9458711078;-326.79135823
233925.624;-70.2504335667;-326.539129786
233926.624;-69.7389157072;-326.286900274
233927.624;-69.6284106599;-326.034639303
233928.624;-69.8753630899;-325.782390384
233929.624;-69.9367625059;-325.530131501
233930.624;-69.5782268274;-325.277859352
233931.624;-69.4454707793;-325.025584939
233932.624;-69.3250910181;-324.773318487
233933.624;-69.5998740148;-324.521026085
233934.624;-69.7011711627;-324.268741401
233935.624;-69.4709343954;-324.016436938
233936.624;-68.9335749181;-194.427348422
233937.624;-70.0893913391;-194.15724788
233938.624;-69.7095943491;-193.883579576
233939.624;-69.769588524;-193.609910449
233940.624;-69.5810330162;-193.336212517
233941.624;-69.8967162094;-193.062519069
233942.624;-69.2837040469;-192.788830448
233943.624;-69.0988913907;-192.515109868
233944.624;-70.1452365466;-192.241419323
233945.624;-69.7353603149;-191.967706265
233946.624;-69.5989099868;-191.693986053
233947.624;-69.3693858853;-191.420274236
233948.624;-70.1634672739;-191.146564983
233949.624;-69.4523340174;-190.872831307
233950.624;-69.7542431297;-190.599104925
233951.624;-69.2330374752;-190.325353325
233952.624;-70.1708668669;-190.051635813
233953.624;-69.8469537711;-189.777886787
233954.624;-69.4846713989;-189.504157605
233955.624;-69.0813314451;-189.230389804
233956.624;-69.5761336739;-188.956636363
233957.624;-69.7110784263;-188.682891995
233958.624;-69.7550560244;-188.409138485
233959.624;-69.7623856411;-188.135357198
233960.624;-70.0343547347;-187.861569179
233961.624;-70.4339699278;-187.587798909
233962.624;-69.7290969344;-187.314021784
233963.624;-69.7049052682;-187.040254798
233964.624;-69.8818384856;-222.21342477
233965.624;-69.3548797364;-221.96750697
233966.624;-69.4400563119;-221.721579151
233967.624;-69.4131067517;-221.475650328
233968.624;-68.8941431448;-221.229724126
233969.624;-70.0488292136;-220.98378323
233970.624;-69.96263425;-220.737816123
233971.624;-68.5019291982;-220.491866702
233972.624;-69.7723822082;-220.245921793
233973.624;-69.9174837774;-219.999954252
233974.624;-69.5787096698;-219.753997944
233975.624;-69.4433938026;-404.979623197
233976.624;-70.0956758274;-404.771366156
233977.624;-70.1346899574;-404.563072415
233978.624;-69.841349007;-404.354769593
233979.624;-69.2312596735;-404.146478262
233980.624;-69.9128698055;-403.938167853
233981.624;-69.6924849059;-403.72987362
233982.624;-69.7191222709;-403.521543845
233983.624;-69.9215989981;-403.313231351
233984.624;-70.7300013742;-403.104898174
233985.624;-69.7218574122;-402.896565849
233986.624;-69.6710736077;-402.688221926
233987.624;-69.5030976447;-402.479857725
233988.624;-70.0761848694;-402.271528545
233989.624;-69.7617388988;-402.063159285
233990.624;-70.0448155009;-401.854822308
233991.624;-69.5770305081;-401.646409799
233992.624;-69.4878710038;-401.438035665
233993.624;-70.0857189675;-401.229645835
233994.624;-69.8839620331;-401.021289757
233995.624;-70.0678861517;-201.243021886
233996.624;-69.8788102457;-201.039211628
233997.624;-69.7110661166;-200.835396702
233998.624;-69.7539374092;-200.631578717
233999.624;-69.8339183635;-200.427750424
234000.624;-70.0644402567;-200.22388753
234001.624;-70.1195151155;-200.020010555
234002.624;-70.3987397293;-199.81616698
234003.624;-70.3830329047;-199.612294657
234004.624;-69.9023268644;-199.408408215
234005.624;-69.4699569427;-199.204475548
234006.624;-69.9147215377;-199.00057196
234007.624;-70.2608522862;-198.796665682
234008.624;-70.306213356;-198.592738712
234009.624;-69.8227687539;-198.388811187
234010.624;-69.609187315;-198.184863022
234011.624;-70.0136212969;-197.980911382
234012.624;-70.30330008;-197.77695853
234013.624;-69.9015633771;-197.572965551
234014.624;-69.945955451;-197.368945672
234015.624;-69.8302353902;-197.164967048
234016.624;-69.5465308684;-196.960964666
234017.624;-69.1459638783;-196.756940014
234018.624;-70.0838054951;-196.55291036
234019.624;-70.1210838687;-196.348901065
234020.624;-69.8525359074;-196.144860584
234021.624;-70.2332413524;-195.940793982
234022.624;-69.6351329668;-195.736740532
234023.624;-69.1481790883;-195.532667
234024.624;-69.9859369845;-195.32855239
234025.624;-69.9524463134;-195.124488074
234026.624;-69.8606964563;-194.920378207
234027.624;-69.8446479694;-194.716287906
234028.624;-69.0707568716;-194.512146981
234029.624;-69.2265880187;-194.308015023
234030.624;-69.840407445;-194.103877122
234031.624;-69.1834097001;-193.899723722
234032.624;-69.6931012052;-193.695562596
234033.624;-69.44056837;-193.491402748
234034.624;-70.5409184514;-193.287217348
234035.624;-68.7212007947;-193.083033122
234036.624;-69.7518943084;-192.878834025
234037.624;-69.2687632626;-192.674609586
234038.624;-69.9313122588;-192.470388211
234039.624;-69.4229516422;-192.266151098
234040.624;-69.1592315009;-192.061914086
234041.624;-69.6580740213;-191.857684306
234042.624;-70.9010269478;-191.65342401
234043.624;-68.9338950355;-191.449152495
234044.624;-70.3179819025;-191.244881923
234045.624;-69.8879544174;-191.040583682
234046.624;-70.1561841497;-190.836300878
234047.624;-69.6421706813;-190.631981747
234048.624;-69.2767837525;-190.427661003
234049.624;-69.284605301;-190.223342586
234050.624;-69.4949136508;-190.019003117
234051.624;-69.9877539831;-189.814657688
234052.624;-69.9265978819;-189.610306058
234053.624;-69.9816317599;-189.405954999
234054.624;-70.8350103577;-189.20157481
234055.624;-69.6910243384;-188.997187257
234056.624;-69.5227513824;-188.792774826
234057.624;-70.2930094232;-188.588356876
234058.624;-69.8300016054;-188.383969274
234059.624;-70.0530620033;-188.179535585
234060.624;-70.1475312324;-187.975118394
234061.624;-69.4685658571;-187.770685462
234062.624;-70.030195199;-187.566229222
234063.624;-69.6279207249;-187.361755673
234064.624;-69.4091027322;-187.15729061
234065.624;-69.6964679497;-186.952798151
234066.624;-69.8633970438;-186.74828996
234067.624;-69.9105689082;-186.543823857
234068.624;-70.1414630011;-186.339286323
234069.624;-69.7156364867;-186.134756672
234070.624;-69.1664371317;-185.930244903
234071.624;-69.3513409592;-185.725727654
234072.624;-69.7520148585;-185.521164555
234073.624;-70.3550254789;-185.316606894
234074.624;-69.2838793601;0.746221852432
234075.624;-69.0869420572;0.994302284213
234076.624;-68.6338145547;1.25029237025
234077.624;-69.7793429519;1.50624593655
234078.624;-70.1419786841;1.76225456477
234079.624;-69.8594449373;2.01823010401
234080.624;-70.8441763783;2.27421172859
234081.624;-69.0017483993;2.53022162377
234082.624;-69.8149445789;2.78622070598
234083.624;-69.5711723661;3.04222074378
234084.624;-69.3244803174;3.29824222688
234085.624;-69.687318359;3.55427765343
234086.624;-69.4303499627;3.81032703136
234087.624;-69.7767863519;4.06633097718
234088.624;-69.3561021342;4.32238108079
234089.624;-69.5976989458;4.57843185755
234090.624;-69.4103199956;4.83446364379
234091.624;-69.6425048556;5.09050657445
234092.624;-69.9700653167;5.34656636414
234093.624;-70.0546505751;-190.515350924
234094.624;-69.3553789357;-380.150236812
234095.624;-69.2871157173;-379.941182494
234096.624;-69.3474519544;-379.732145212
234097.624;-69.4035691727;-379.523132019
234098.624;-69.841509647;-379.314064043
234099.624;-70.4385085949;-379.105026541
234100.624;-69.6191263467;-378.895939213
234101.624;-68.5940693645;-378.686898078
234102.624;-70.0100742514;-378.477836264
234103.624;-69.8339754473;-378.268761053
234104.624;-69.8411286714;-378.059665994
234105.624;-69.4846976444;-377.850591015
234106.624;-69.0954132537;-377.641523384
234107.624;-69.9788681512;-377.432386633
234108.624;-69.682363129;-178.150945114
234109.624;-69.7898016425;-177.946045397
234110.624;-69.655235104;-177.741104655
234111.624;-69.6928874075;-177.536179936
234112.624;-69.8301437888;10.4735892524
234113.624;-70.1614340594;10.7249404816
234114.624;-70.2062355621;10.9811316888
234115.624;-69.6869299169;11.2373125272
234116.624;-70.3881997711;11.4934743287
234117.624;-69.4367816353;11.7496526241
234118.624;-70.0249153923;12.0058601727
234119.624;-70.4551987067;12.2620214083
234120.624;-69.968301615;12.518264979
234121.624;-70.059885887;12.7744465167
234122.624;-69.5049771368;13.0306556841
234123.624;-69.918668978;13.2868904403
234124.624;-69.7913692113;13.5431007122
234125.624;-70.0284910981;13.7993176628
234126.624;-69.775034103;14.0555429712
234127.624;-69.9506424396;14.3117986089
234128.624;-70.2782636892;14.5680403105
234129.624;-70.2360947079;14.8242786539
234130.624;-69.9442704756;15.0805349686
234131.624;-70.2536748235;15.3367867997
234132.624;-70.0826314348;15.5930385342
234133.624;-70.4347059741;-180.600092349
234134.624;-69.846510873;-180.348955645
234135.624;-69.2438455058;-180.102383229
234136.624;-69.8115745283;-179.855775475
234137.624;-69.729268947;-179.609202753
234138.624;-69.5953622499;-179.36260968
234139.624;-69.4634101755;-179.116013527
234140.624;-69.475037375;-178.869411099
234141.624;-69.8136495749;-178.62280994
234142.624;-69.7015939321;-178.37620503
234143.624;-68.9464626217;-178.129594752
234144.624;-69.4130275431;-177.882975016
234145.624;-69.9813109155;-177.636367021
234146.624;-69.5522170204;19.1812037002
234147.624;-69.6633441186;19.4375302138
234148.624;-69.3185440275;19.6938817119
234149.624;-69.3292421457;19.9502221231
234150.624;-69.1809362791;20.2065903347
234151.624;-69.3006986441;20.4629318736
234152.624;-69.6745205468;27.4559310462
234153.624;-69.6727168508;27.8844755632
234154.624;-69.3497925242;28.2702166934
234155.624;-69.5407253916;28.6558363265
234156.624;-69.6902863075;29.0416398849
234157.624;-69.3125145351;29.427316326
234158.624;-69.3564967494;29.8129821226
234159.624;-69.069712383;30.198685773
234160.624;-69.106201413;30.5844364039
234161.624;-69.1939868169;30.9701327585
234162.624;-69.0776513725;31.3558602766
234163.624;-69.2949489039;31.7416155782
234164.624;-68.9510782652;32.1273311487
234165.624;-69.3203162666;24.0524013177
234166.624;-69.4985955124;24.3088443199
234167.624;-69.5027234843;24.5652632704
234168.624;-70.1921071067;24.8217054674
234169.624;-69.7118915101;25.0781449109
234170.624;-69.0023527972;25.334580006
234171.624;-68.3006088091;25.5910467677
234172.624;-69.9314189766;25.847492755
234173.624;-69.3444441599;26.1039752392
234174.624;-69.9847175807;26.360444378
234175.624;-68.8624193953;26.6169095341
234176.624;-69.4397099703;26.8733852862
234177.624;-69.540760347;27.1298722489
234178.624;-69.7660082812;27.3863377598
234179.624;-69.5029762888;27.6428376915
234180.624;-69.277692197;27.89934067
234181.624;-69.7534381326;28.1558380538
234182.624;-70.041565486;28.4123266946
234183.624;-69.5194306944;28.668837702
234184.624;-68.9725843368;28.9253387808
234185.624;-68.7393549428;29.1818945534
234186.624;-69.6891031759;29.4384032998
234187.624;-69.063973991;29.6949364562
234188.624;-69.4899700144;29.9514664049
234189.624;-69.9185981214;30.2079892487
234190.624;-68.8693101691;30.4645718158
234191.624;-69.7183394094;30.721110427
234192.624;-69.4280666613;-160.90511833
234193.624;-69.7413040447;-160.699406089
234194.624;-69.7057250483;-160.493681089
234195.624;-70.4618501411;-160.287946177
234196.624;-69.5182612648;-160.082176107
234197.624;-69.7872532596;-159.876427129
234198.624;-70.1669326933;-159.670656255
234199.624;-69.5291894431;-159.464876346
234200.624;-69.0034326941;-159.259112824
234201.624;-69.2262436111;-159.053326626
234202.624;-69.1907337713;-357.545075982
234203.624;-69.6503617668;-357.33014948
234204.624;-70.2395138702;-357.120435552
234205.624;-69.5403165694;-356.910753196
234206.624;-69.6314760954;-356.701045706
234207.624;-69.3967869217;-356.491336639
234208.624;-69.8450444507;-356.281621455
234209.624;-69.8841271192;-356.071893324
234210.624;-70.2765973967;-355.86215785
234211.624;-69.6249163165;-161.33689849
234212.624;-69.9848508988;-161.105295483
234213.624;-69.4756243584;-160.858438352
234214.624;-69.6278438683;-160.611574328
234215.624;-69.2678759437;-160.364713602
234216.624;-69.6491602239;-160.117887793
234217.624;-69.5139896818;-159.871033227
234218.624;-69.3941081957;-159.624155215
234219.624;-69.8235586906;-159.377292221
234220.624;-69.7120097095;-159.130419239
234221.624;-69.4494387549;-158.883562696
234222.624;-69.5265489311;-158.636689883
234223.624;-69.5580667363;-158.389807571
234224.624;-69.7201370379;-158.142924228
234225.624;-69.6471920691;-157.896025531
234226.624;-69.0024646427;-157.64914818
234227.624;-70.0976895053;-157.402265055
234228.624;-68.9599867393;-157.155369223
234229.624;-69.1424492357;-156.908487271
234230.624;-70.1709418319;-156.661600706
234231.624;-69.5747613946;-156.414687137
234232.624;-68.4554881913;41.2435155902
234233.624;-68.5694341017;41.5002984899
234234.624;-68.932741377;41.7570413918
234235.624;-69.3963371806;42.0137829268
234236.624;-69.6942517602;42.2705310096
234237.624;-69.2667227283;42.5273096606
234238.624;-69.5647897921;42.7840630574
234239.624;-68.8539281029;43.0408319855
234240.624;-69.0989528064;43.2976123424
234241.624;-69.9764834046;43.5543835164
234242.624;-69.0089742021;43.8111555883
234243.624;-68.9329009599;62.6020783854
234244.624;-69.531314722;62.9860386824
234245.624;-69.7705142858;63.3717655559
234246.624;-69.4379801067;63.7574786715
234247.624;-69.4234244692;64.1432971933
234248.624;-69.5284063834;64.5289463495
234249.624;-70.1634566864;64.9147245873
234250.624;-69.0180935648;65.3004852468
234251.624;-69.2700277998;65.6862244967
234252.624;-69.6395272943;66.0719668977
234253.624;-69.2689131586;66.4576836936
234254.624;-69.9796928928;66.8434597204
234255.624;-69.8036152216;67.2291808355
234256.624;-69.3283758322;67.6149484453
234257.624;-69.1949582415;68.0006795305
234258.624;-68.5839960007;68.3863975236
234259.624;-69.1455727084;68.7721008178
234260.624;-70.0870408017;69.1578873707
234261.624;-69.2739440858;69.5435983137
234262.624;-69.9799159855;69.9293455573
234263.624;-69.4899252067;70.3150699069
234264.624;-69.1420120551;70.7008337827
234265.624;-69.1069699745;71.086563883
234266.624;-68.8858631043;71.4722823841
234267.624;-69.1852867648;71.8580158131
234268.624;-69.3900066598;72.2437514253
234269.624;-69.3766134703;72.6294574849
234270.624;-70.0733473127;73.0151975833
234271.624;-69.121997322;73.400946664
234272.624;-69.5389574316;73.7866722945
234273.624;-69.7181518261;74.1724392027
234274.624;-68.7829211907;74.5581493812
234275.624;-69.4128238387;74.943867521
234276.624;-69.5646719399;75.3295843444
234277.624;-69.5839155413;75.715337923
234278.624;-69.2198153654;76.1010690985
234279.624;-69.4726183954;76.4867620609
234280.624;-68.8971511684;-100.082442916
234281.624;-69.2946500895;-99.8008771645
234282.624;-69.2319053904;-99.5261125291
234283.624;-69.5512849605;-99.2512983124
234284.624;-69.5285657067;-98.9765100106
234285.624;-69.2501584876;-98.7017082219
234286.624;-69.6037655175;-98.4269196806
234287.624;-69.4933380898;-142.583288907
234288.624;-70.2834812045;-142.336225198
234289.624;-69.4603372662;-142.089123043
234290.624;-69.0804042501;-141.84205156
234291.624;-69.2159480258;-141.594970924
234292.624;-69.2710841565;-141.347880312
234293.624;-69.297883023;-141.10078662
234294.624;-69.8206821273;-140.853717381
234295.624;-69.1924084362;-140.606607006
234296.624;-69.8893453536;-140.359521213
234297.624;-69.9323267069;-140.112422866
234298.624;-69.8537064182;-139.865312311
234299.624;-68.9588752529;-139.61821287
234300.624;-69.3071921893;-139.371083241
234301.624;-69.546186857;-139.124003454
234302.624;-69.9680883243;-138.876879837
234303.624;-69.3971692142;-138.629755424
234304.624;-68.3223570693;-138.382641543
234305.624;-69.4428497965;-138.135501491
234306.624;-68.7860221679;-137.888380731
234307.624;-69.2986376418;60.5114996787
234308.624;-69.7806378889;60.7685723489
234309.624;-69.0221241797;61.0256295778
234310.624;-69.3924991245;61.2827064081
234311.624;-69.5571651583;61.53979585
234312.624;-69.7130408301;61.7968720531
234313.624;-68.880951872;62.0539832623
234314.624;-69.6060222176;62.3110640682
234315.624;-68.7887723727;62.5681725736
234316.624;-69.6927474056;62.8252627912
234317.624;-69.53713979;63.0823714635
234318.624;-68.5143387184;63.3394991071
234319.624;-68.9757639746;63.5966181601
234320.624;-68.2808030978;63.8537321364
234321.624;-68.4150982793;92.6943711445
234322.624;-69.1929502225;93.0722944555
234323.624;-69.331162852;93.4579580153
234324.624;-69.5356328623;93.8436449493
234325.624;-68.8871049457;94.229303783
234326.624;-68.9682034942;94.6149750135
234327.624;-69.0612186184;95.0006549713
234328.624;-67.971287031;95.3863753161
234329.624;-69.5594057974;95.7719862354
234330.624;-68.8051117961;96.1577188698
234331.624;-68.7975523996;96.5434159193
234332.624;-68.6583298858;96.9290744319
234333.624;-68.9143190778;97.3147558894
234334.624;-68.9139403142;97.7004178542
234335.624;-68.7301649353;98.0860502261
234336.624;-69.2652838176;98.4717719607
234337.624;-69.4646243248;98.8574442994
234338.624;-68.5276186989;99.2430953126
234339.624;-68.2852611052;99.6287887276
234340.624;-68.7750283625;100.014380861
234341.624;-68.8510374626;100.400064835
234342.624;-68.6407677483;100.785742485
234343.624;-68.8068150415;101.171368774
234344.624;-68.8164455133;101.557042676
234345.624;-68.0720190744;101.942664452
234346.624;-68.5849350815;102.32836729
234347.624;-69.2920385544;102.714017049
234348.624;-69.343362304;103.099639662
234349.624;-68.6277688248;103.485309464
234350.624;-70.0946701529;103.870915767
234351.624;-68.9560806069;104.256571496
234352.624;-68.7064892042;104.642207297
234353.624;-69.1371061936;105.027879595
234354.624;-69.6766163112;105.413514703
234355.624;-69.2353248535;105.799114412
234356.624;-69.149369145;106.184777576
234357.624;-69.0207592158;106.57045364
234358.624;-69.4780803527;106.956070405
234359.624;-69.2812924201;-78.3286889239
234360.624;-68.8141758388;-78.0861370814
234361.624;-68.7760930315;-77.811182613
234362.624;-69.1447459503;-77.5362326703
234363.624;-69.4460639541;-77.261303919
234364.624;-68.8329574916;-76.9863389417
234365.624;-69.5999204418;-76.711382418
234366.624;-68.2767275151;-76.4364321802
234367.624;-69.6859590709;-76.1614743515
234368.624;-68.563790498;-75.8865118546
234369.624;-69.5070817487;-75.6115799064
234370.624;-69.5663744663;-122.066625915
234371.624;-68.7822926973;-121.819323926
234372.624;-68.8797180848;-121.572033504
234373.624;-68.5891139278;-121.324707371
234374.624;-69.5142173279;-121.077427917
234375.624;-69.2197320742;-120.830091917
234376.624;-68.5834407297;-120.582765555
234377.624;-68.9621552503;-120.335455337
234378.624;-69.4039164446;-120.088172519
234379.624;-68.9543362101;-119.840831223
234380.624;-69.3729274203;-119.593486927
234381.624;-69.1676767509;-119.346157123
234382.624;-68.5936501948;-119.098838034
234383.624;-69.4927485894;-118.851501584
234384.624;-69.4779630573;-118.604171402
234385.624;-68.7107823935;-118.356857636
234386.624;-69.5265514109;-118.109502583
234387.624;-69.8337382231;-117.862156929
234388.624;-68.8691268292;-117.614826802
234389.624;-69.2093388191;-117.367451592
234390.624;-69.6812698403;-117.120117364
234391.624;-68.8115884346;-116.872781334
234392.624;-69.1955998063;-116.625407364
234393.624;-69.3653115604;-116.378063624
234394.624;-69.502633406;-116.130711309
234395.624;-69.6965751969;-115.883322367
234396.624;-69.1254297774;-115.635976536
234397.624;-69.5199239056;-115.388613618
234398.624;-69.1685011976;-115.141232934
234399.624;-68.8875824521;-67.3597337904
234400.624;-68.5703241823;-67.0869949644
234401.624;-68.5369946363;-66.8120145367
234402.624;-69.9263120606;-66.536982188
234403.624;-69.1971591567;-66.2619662335
234404.624;-68.199790118;-65.9869516629
234405.624;-69.2275044226;-65.7119437665
234406.624;-68.7731198527;-65.4369265482
234407.624;-69.1362869834;-65.1619032412
234408.624;-69.2167579287;-64.8868936186
234409.624;-69.1639437054;-64.6118771202
234410.624;-68.5844097661;-64.3368388706
234411.624;-68.3615276853;-64.0618169351
234412.624;-68.4960414926;-63.7867805714
234413.624;-68.5142325648;-63.5117678917
234414.624;-68.9194438309;-63.2367332704
234415.624;-69.0033803763;-62.9616949948
234416.624;-69.1156523686;-62.6866743957
234417.624;-68.8939370515;-62.4116266543
234418.624;-68.8480421179;-62.1366093385
234419.624;-68.515000949;-61.8615622275
234420.624;-67.1704295495;-61.5865130566
234421.624;-68.2217197235;-61.3114814515
234422.624;-68.4027417164;-61.0364636937
234423.624;-68.9269938561;-60.7613978933
234424.624;-68.550566788;-60.486369038
234425.624;-67.9142024365;-60.2113130421
234426.624;-68.2327778077;-59.9362636443
234427.624;-68.572523284;-59.6612298014
234428.624;-69.5939049523;-59.3861719219
234429.624;-69.64850052;-59.1111227253
234430.624;-70.9427109531;-58.8360842634
234431.624;-69.1221537799;-58.5610250239
234432.624;-69.2084043154;-58.285980425
234433.624;-69.0439674744;-58.0109192849
234434.624;-68.8556769882;-57.7358390513
234435.624;-69.4033721724;-57.4607957121
234436.624;-69.4891464085;-57.185746609
234437.624;-69.1014679943;-56.9106856835
234438.624;-69.3018761084;-56.6356258724
234439.624;-68.9659689191;-56.3605749782
234440.624;-68.3257065978;-56.0854802082
234441.624;-69.486085601;-55.810429048
234442.624;-69.5089434621;-55.5353606796
234443.624;-68.9624680669;-55.2602935951
234444.624;-69.0355210349;-54.9852251129
234445.624;-68.3095543968;-54.7101585526
234446.624;-68.7642447793;-54.435088146
234447.624;-68.8550608715;-54.1600120217
234448.624;-68.7400001013;-53.8849225406
234449.624;-68.4544805584;-53.6098695114
234450.624;-68.6159991166;-53.3347929476
234451.624;-68.6634328555;-53.0596996012
234452.624;-69.3232255312;-52.7846475039
234453.624;-69.1503542671;-52.5095592537
234454.624;-69.0700502204;-52.2344638057
234455.624;-68.9515013956;-51.9593948915
234456.624;-68.6356596815;-51.6843053122
234457.624;-68.8364202366;145.122911829
234458.624;-68.7264410458;145.508334157
234459.624;-69.0289596497;145.893729915
234460.624;-68.9342176286;146.279110235
234461.624;-69.0277442985;146.664444276
234462.624;-69.1332004608;147.049846217
234463.624;-68.872434669;147.435193368
234464.624;-68.7305849289;147.820628063
234465.624;-69.159289493;148.205985385
234466.624;-68.8590824314;148.591293926
234467.624;-69.481691998;148.97669322
234468.624;-69.3209197265;149.362038536
234469.624;-69.4279242774;149.747428011
234470.624;-69.7376585094;150.132749561
234471.624;-70.1413480823;150.518089551
234472.624;-68.9139251626;150.90347621
234473.624;-69.076394133;151.288832037
234474.624;-69.1179663057;151.67418192
234475.624;-68.7605023494;-46.5173588023
234476.624;-68.2661112112;-46.1823921076
234477.624;-69.6842589436;-45.907308575
234478.624;-69.107064536;-45.6322004248
234479.624;-69.5935327069;-45.3570866488
234480.624;-69.1229789123;-45.0819786212
234481.624;-68.5736990207;-44.8068591672
234482.624;-68.7589955011;-44.5317452015
234483.624;-69.1880563542;-44.2566421928
234484.624;-69.0188497579;-43.9815196269
234485.624;-69.7150923162;-43.7064126442
234486.624;-69.7492287688;-43.4313073204
234487.624;-68.4983729443;-43.1561769405
234488.624;-69.24168546;-42.8810697995
234489.624;-69.7554693248;-42.6059350974
234490.624;-69.7144081225;-42.3308279168
234491.624;-69.4698166674;-42.0557095264
234492.624;-69.1765700635;-41.7805744379
234493.624;-69.2802257865;-41.5054602251
234494.624;-69.2149209409;-41.2303344225
234495.624;-69.4048904594;-40.9552096211
234496.624;-69.4327550016;-40.6800879107
234497.624;-69.4520095877;-40.40495406
234498.624;-69.1162104062;-40.1298379855
234499.624;-69.071784787;-39.8546978718
234500.624;-68.6369578837;-39.5795784481
234501.624;-68.891578996;-39.3044561077
234502.624;-70.1875717688;-39.0293091724
234503.624;-69.2310576655;-38.7541835311
234504.624;-69.4077394423;-38.4790538775
234505.624;-69.2556926492;-38.2039106131
234506.624;-69.2146202011;-37.9287950208
234507.624;-68.3346323606;-37.6536424203
234508.624;-68.4722492972;-37.3785109707
234509.624;-69.4536059322;-37.1033728354
234510.624;-69.1244233634;-36.8282388409
234511.624;-69.1266897529;-36.5531079742
234512.624;-69.2014081887;-36.2779705481
234513.624;-68.9659684706;-36.0028313341
234514.624;-68.7082721835;-35.7276988235
234515.624;-69.6179283425;-35.4525450909
234516.624;-69.2789528034;-35.1773906902
234517.624;-69.3148277921;-34.9022709212
234518.624;-69.7643430431;-34.6271280951
234519.624;-68.9115158542;-34.3519846316
234520.624;-69.4459652749;-34.0768218971
234521.624;-69.1372787187;-33.8016791296
234522.624;-68.9395257925;-33.5265335617
234523.624;-68.7306381953;-33.2513866378
234524.624;-68.864345258;-32.9762524607
234525.624;-68.9819742837;-32.701071656
234526.624;-68.6387163492;-32.4259280395
234527.624;-68.8448745681;-32.1507866445
234528.624;-69.2065040589;-31.8756473277
234529.624;-68.9157636676;-31.6004877111
234530.624;-69.4261956199;-31.3253293889
234531.624;-69.3450325545;-31.0501752863
234532.624;-69.6246040377;-30.7750158749
234533.624;-69.4104353055;-30.4998631779
234534.624;-69.7687422041;-30.2247221792
234535.624;-69.2363801216;-29.9495471787
234536.624;-69.3641950543;-29.6743885704
234537.624;-69.5506075144;-29.3992328151
234538.624;-69.3846943751;-29.1240901751
234539.624;-69.0742140489;-28.8489205444
234540.624;-69.9549472912;-28.573754322
234541.624;-69.0024987368;-28.2986017922
234542.624;-69.0111689583;-28.0234399531
234543.624;-69.4805858947;-27.7482820719
234544.624;-69.9324316747;-27.4731293739
234545.624;-69.1629665984;-27.1979588569
234546.624;-68.7712507125;-26.9227999031
234547.624;-68.6627161775;-26.6476250474
234548.624;-69.1813584927;-26.3724721697
234549.624;-69.4640248114;-26.0972902415
234550.624;-68.7883306371;-25.8221354902
234551.624;-69.0081249733;-25.5469673936
234552.624;-68.5486213693;-25.2717977166
234553.624;-68.7317029787;-24.9966340749
234554.624;-68.7432881003;-24.7214612049
234555.624;-68.7976660592;-24.4463028618
234556.624;-68.9934187168;-24.1711211245
234557.624;-69.4300200303;-23.8959608832
234558.624;-69.6134739533;-23.6207835949
234559.624;-69.097336889;-23.3456191651
234560.624;-69.1614629449;-23.0704477303
234561.624;-69.6115197817;-22.7952718017
234562.624;-69.6073059731;-22.5201148535
234563.624;-69.4899666339;-22.2449282221
234564.624;-69.1716750605;-21.9697595137
234565.624;-68.8935877191;-21.6945683309
234566.624;-69.4928878607;-21.4194108892
234567.624;-68.7335586161;-21.1442251779
234568.624;-68.8425905943;-20.8690419056
234569.624;-68.5690262442;-20.5938737184
234570.624;-68.7126408761;-20.3186997269
234571.624;-69.8163962429;-20.0435153109
234572.624;-69.8246595949;-19.7683413338
234573.624;-69.4237598371;-19.49317923
234574.624;-69.0509586809;-19.2179974742
234575.624;-69.0377378076;-18.9428235684
234576.624;-69.8002762674;-18.6676342982
234577.624;-70.0962269232;-18.3924547015
234578.624;-68.3252036768;-18.1172861979
234579.624;-69.0722957341;-17.8420844002
234580.624;-69.499902929;-17.5669168476
234581.624;-69.9436955197;-17.2917302685
234582.624;-69.4439452612;-17.016551338
234583.624;-69.9228912852;-16.7413626662
234584.624;-69.2612313064;-16.4661867875
234585.624;-69.3442576309;-16.1909817583
234586.624;-69.181627998;-15.9158116394
234587.624;-69.7709341137;-15.6406294908
234588.624;-69.1912893588;-15.3654417498
234589.624;-68.7089215657;-15.0902625782
234590.624;-68.1048601995;-14.8150728851
234591.624;-68.6607660076;-14.5398893125
234592.624;-69.0645222646;-14.2647046824
234593.624;-69.7919132585;-13.9895219036
234594.624;-69.3200592365;-13.714318041
234595.624;-69.4458980218;-13.4391422088
234596.624;-69.6000594203;-13.1639681217
234597.624;-69.709070626;-12.8887693262
234598.624;-68.9253149945;-12.6135743828
234599.624;-68.8985891901;-12.3383792947
234600.624;-68.8745963232;-12.0633289872
234601.624;-68.7865608154;-11.7881475882
234602.624;-69.0311228563;-11.5129519289
234603.624;-68.5471772133;-11.2377612966
234604.624;-68.4993900028;-10.9625903339
234605.624;-69.0927830632;-10.6873972807
234606.624;-69.4185879526;-10.4121963672
234607.624;-69.8664725348;-10.1370026303
234608.624;-70.0360758121;-9.86183765594
234609.624;-69.4386326704;-9.58663126941
234610.624;-68.9498212619;-9.3114533651
234611.624;-69.6557162028;-9.03626183989
234612.624;-69.5537786522;-8.76105438129
234613.624;-68.9995244764;-8.48586663185
234614.624;-69.0169497446;-8.21067941168
234615.624;-69.3136701433;-7.93549122463
234616.624;-68.8594191702;-7.66030597497
234617.624;-68.1361774083;-7.38508645829
234618.624;-69.6151274796;-7.10990203143
234619.624;-69.6098961151;-6.83471452417
234620.624;-69.2839737756;-6.55953561717
234621.624;-69.3715015454;-6.2843375488
234622.624;-69.3896920701;-6.00913834887
234623.624;-69.0508548842;-5.73394139003
234624.624;-69.1241190147;-5.45873890812
234625.624;-69.8811905707;-5.18355098586
234626.624;-69.7052553347;-4.90836268248
234627.624;-68.7884821713;-4.63316030928
234628.624;-69.4377298718;-4.35796375391
234629.624;-69.8334836382;-4.08278311275
234630.624;-69.5057755024;-3.80758334816
234631.624;-68.7159733253;-3.53239446669
234632.624;-69.4974390925;-3.25719174138
234633.624;-69.1746318337;-2.98200549077
234634.624;-69.7344075075;-2.70679471938
234635.624;-69.1705762583;-2.43160190345
234636.624;-69.582552536;-2.15642991762
234637.624;-69.2489626986;-1.8812134867
234638.624;-69.2609190521;-1.60602610837
234639.624;-69.3687685016;-1.33083489778
234640.624;-69.2102009659;-1.0556353145
234641.624;-69.0547401637;-0.780422100019
234642.624;-69.550701398;-0.505250652217
234643.624;-68.8919284628;-0.230042934463
234644.624;-69.61324901;0.045151640329
234645.624;-68.9060461525;0.320353742002
234646.624;-69.1978757558;0.595547896143
234647.624;-69.0529836479;0.870744803717
234648.624;-70.0733542614;1.14591911979
234649.624;-69.1667343103;1.42112374136
234650.624;-69.4110916419;1.69632640618
234651.624;-68.6640630174;1.97151516485
234652.624;-68.988686907;2.24672287331
234653.624;-68.6238733117;2.5219197789
234654.624;-68.9434358298;2.79711496885
234655.624;-69.0979670434;3.07230458311
234656.624;-68.7764829767;3.34752372851
234657.624;-69.1724444541;3.62269511619
234658.624;-68.4562764396;3.89788288782
234659.624;-69.332291593;4.17307195162
234660.624;-68.6992961025;4.44828247965
234661.624;-68.9596653471;4.7234879083
234662.624;-69.6581636684;4.9986605846
234663.624;-69.0023049435;5.27387988362
234664.624;-68.4412138699;5.54906832595
234665.624;-69.186186789;5.82424827178
234666.624;-69.4758379421;6.09946480726
234667.624;-69.3961975376;6.37464873161
234668.624;-68.5657883857;6.64982418082
234669.624;-69.4040808909;6.92503370087
234670.624;-69.1554769139;7.20023143947
234671.624;-68.3328276733;7.47544615982
234672.624;-68.7297702029;7.75061421744
234673.624;-69.0747286805;8.02580539216
234674.624;-68.8392139141;8.30100066785
234675.624;-68.7167983029;8.57618592105
234676.624;-68.5640707342;8.85140000119
234677.624;-68.6709445788;9.12659049443
234678.624;-68.4807649806;9.40176878276
234679.624;-69.7577392353;9.67697038297
234680.624;-68.9013215772;9.9521697437
234681.624;-68.7132937259;10.2273455546
234682.624;-69.0822490482;10.5025565844
234683.624;-69.0824892187;10.7777420404
234684.624;-69.2145694972;11.0529242109
234685.624;-68.8472162006;11.3281215822
234686.624;-69.7173567488;11.6033220253
234687.624;-68.1457222236;11.8785091933
234688.624;-69.4026135062;12.1536852517
234689.624;-69.3190364011;12.4288918884
234690.624;-69.4557957699;12.7040803559
234691.624;-68.6937575053;12.9792471331
234692.624;-68.5361603488;13.2544513234
234693.624;-68.261982768;13.5296398886
234694.624;-69.6491428489;13.8048192447
234695.624;-68.8350947609;14.0800284501
234696.624;-68.3906006905;14.3552201889
234697.624;-68.7203424528;14.6303982292
234698.624;-68.7992692627;14.9056017045
234699.624;-69.3159169882;15.1807855576
234700.624;-69.5591225358;15.4559732536
234701.624;-68.9554528833;15.7311620972
234702.624;-69.669175214;16.0063425121
234703.624;-69.4555426538;16.2815323616
234704.624;-69.4600550096;16.5567362651
234705.624;-69.5390125194;16.8319168235
234706.624;-69.2414056142;17.1070993198
234707.624;-69.0606102668;17.3822706604
234708.624;-70.0973757194;17.6574534752
234709.624;-68.8702732238;17.9326396325
234710.624;-69.6265696416;18.2078230007
234711.624;-69.1803305957;18.4830051338
234712.624;-68.9276272768;18.7582012277
234713.624;-68.6956649605;19.0333689799
234714.624;-69.8007717309;19.3085651951
234715.624;-69.1043436035;19.5837430019
234716.624;-69.0374025542;19.8589238414
234717.624;-70.0599167583;20.1341017456
234718.624;-69.4439296288;20.4093002028
234719.624;-69.1990665728;20.6844755301
234720.624;-69.4885809363;20.9596483903
234721.624;-68.9454900397;21.2348133838
234722.624;-69.2339966644;21.5100095447
234723.624;-69.223302467;21.7851926649
234724.624;-69.2804087272;22.0603555349
234725.624;-69.2072028329;22.3355474745
234726.624;-68.3996331633;22.6107319537
234727.624;-68.9049705138;22.8859025606
234728.624;-68.6200796515;23.1610695123
234729.624;-69.0162432893;23.4362358058
234730.624;-69.7565068937;23.7114320178
234731.624;-69.248575832;23.986594281
234732.624;-69.330660131;24.2617735309
234733.624;-69.3988971824;24.5369378835
234734.624;-69.5077228912;24.8121293443
234735.624;-69.5347518921;25.0872915992
234736.624;-69.1619437287;25.3624786129
234737.624;-68.912606279;25.6376406558
234738.624;-69.4956704201;25.9128168327
234739.624;-69.2498355891;26.1879886021
234740.624;-68.3608339935;26.463163154
234741.624;-69.5056342831;26.7383256361
234742.624;-69.4508118966;27.0134995629
234743.624;-69.6034072234;27.2886762832
234744.624;-69.6532825891;27.5638424323
234745.624;-69.4721305887;27.8389883958
234746.624;-69.3805640764;28.1141813043
234747.624;-68.4460909616;28.3893288248
234748.624;-69.3660991454;28.6644821947
234749.624;-68.5317813408;28.9396594814
234750.624;-68.5507889852;29.2148318461
234751.624;-69.7801689338;29.489987253
234752.624;-68.8956736512;29.7651512596
234753.624;-68.8836368107;30.0403160914
234754.624;-68.8063683679;30.3154788845
234755.624;-68.58064522;30.5906547298
234756.624;-69.3584674242;30.8658071503
234757.624;-69.5192745462;31.1409774019
234758.624;-69.1752295116;31.4161254034
234759.624;-69.4663230556;31.6912858226
234760.624;-69.5517250081;31.9664670355
234761.624;-69.4326975613;32.2416016155
234762.624;-69.3753549661;32.5167614544
234763.624;-69.4184168878;32.7919107596
234764.624;-69.6260989749;33.0670809879
234765.624;-68.9605633257;33.3422340668
234766.624;-69.4891689793;33.6173851295
234767.624;-69.9945131732;33.8925506256
234768.624;-68.9063492914;34.167683273
234769.624;-69.2035013357;34.4428408297
234770.624;-70.0307627611;34.7179743709
234771.624;-69.78533942;34.9931305787
234772.624;-69.0533792437;35.2682973364
234773.624;-69.0919560681;35.5434413887
234774.624;-69.6955738515;35.8185833113
234775.624;-69.5866504543;36.0937568619
234776.624;-69.5172306264;36.3688926913
234777.624;-69.2675060042;36.6440521687
234778.624;-70.4977047586;36.9191795354
234779.624;-69.1038721453;37.1943160422
234780.624;-69.434239922;37.4694641456
234781.624;-69.1077746302;37.7446109074
234782.624;-69.8066937945;38.0197610038
234783.624;-69.4511459062;38.2948936798
234784.624;-70.0948172552;38.5700246867
234785.624;-69.3866934685;38.8451852799
234786.624;-69.4125870336;39.1203203256
234787.624;-69.7572457658;39.3954436602
234788.624;-69.7708348907;39.6705785522
234789.624;-69.8059066728;39.9457146883
234790.624;-69.4499414728;40.2208672471
234791.624;-69.3811096605;40.4960015377
234792.624;-69.7857240776;40.7711287136
234793.624;-70.0383861647;41.046255491
234794.624;-69.2457172188;41.32139739
234795.624;-69.2540568346;41.5965144051
234796.624;-68.4864012747;41.8716462822
234797.624;-69.7880624116;42.1467899868
234798.624;-69.6198242998;42.4219185801
234799.624;-69.2943680146;42.6970411245
234800.624;-69.5771277689;42.9721532666
234801.624;-69.5395390134;43.247292702
234802.624;-68.7570401735;43.5224242369
234803.624;-69.2938831265;43.7975497855
234804.624;-69.3785994007;44.0726596432
234805.624;-69.3392522773;44.3477994849
234806.624;-69.7062019578;44.6229038686
234807.624;-69.1131686548;44.8980259252
234808.624;-69.6773638037;45.1731451184
234809.624;-69.443523458;45.4482568044
234810.624;-69.2627746504;45.7233934364
234811.624;-69.5205439218;45.9984984849
234812.624;-69.5310359112;46.2736125632
234813.624;-69.1415121342;46.5487389069
234814.624;-70.0322792741;46.8238506223
234815.624;-70.0953274941;47.0989518201
234816.624;-69.510517406;47.3740588307
234817.624;-69.6606439849;47.6491830937
234818.624;-70.0937885425;47.9242993986
234819.624;-69.1630972665;48.1993939639
234820.624;-69.4185065417;48.4745111756
234821.624;-68.9895293977;48.7496377423
234822.624;-69.6754507725;49.0247220533
234823.624;-69.5673956565;49.2998305798
234824.624;-69.5623059305;49.5749123778
234825.624;-70.0862636693;49.8500339121
234826.624;-69.4026444957;50.1251268324
234827.624;-69.1313332689;50.4002168208
234828.624;-68.9476822641;50.6753329154
234829.624;-69.9663985336;50.9504299359
234830.624;-69.8974313066;51.2255194943
234831.624;-69.1831420674;51.5006169627
234832.624;-68.9909040834;51.7757279921
234833.624;-68.9119789763;52.0508152715
234834.624;-69.8242756606;52.3258932387
234835.624;-68.9441681961;52.6009893322
234836.624;-69.8720681096;52.8760835284
234837.624;-69.5167826837;53.1511660248
234838.624;-69.3030768094;53.4262647639
234839.624;-69.3638208772;53.7013364084
234840.624;-69.4122048725;53.9764493991
234841.624;-69.4627891923;54.2515236483
234842.624;-69.2532267138;54.5265911708
234843.624;-69.2438429839;54.8016708093
234844.624;-69.247316508;55.0767753329
234845.624;-70.0439841197;55.3518564827
234846.624;-69.2387445706;55.6269052595
234847.624;-69.8412417615;55.90200891
234848.624;-69.52759285;56.1770652231
234849.624;-69.349444848;56.452155754
234850.624;-69.3258077622;56.727232071
234851.624;-69.5848117288;57.0022902268
234852.624;-69.0658559481;57.2773717872
234853.624;-69.5848101365;57.552437613
234854.624;-69.5346217934;57.8275055754
234855.624;-69.0680417343;58.1025632158
234856.624;-68.7940276234;58.3776296809
234857.624;-69.4879754293;58.6527000706
234858.624;-69.7518529255;58.9277651419
234859.624;-69.7948452357;59.2028206102
234860.624;-69.6727808146;59.4778894697
234861.624;-70.1005294463;59.7529513903
234862.624;-70.1950928594;60.0280003552
234863.624;-69.5657923116;60.303076994
234864.624;-70.0156292461;60.5781254674
234865.624;-69.7841952745;60.8531903695
234866.624;-69.3924476134;61.1282272188
234867.624;-69.3551414703;61.4033014452
234868.624;-69.7802042552;61.6783271396
234869.624;-69.8237742145;61.953388783
234870.624;-70.0560378533;62.228433941
234871.624;-69.852752877;62.5034808897
234872.624;-69.4744536656;62.7785386953
234873.624;-69.4805591947;63.0535738553
234874.624;-69.4231587995;63.3286309504
234875.624;-69.1277196449;63.6036531875
234876.624;-69.5054745511;63.8787104704
234877.624;-69.5364052411;64.1537302925
234878.624;-69.3432832558;64.428772207
234879.624;-69.7863027789;64.7038068572
234880.624;-69.1181765535;64.9788525251
234881.624;-68.961024012;65.2538705451
234882.624;-69.4899741179;65.5289102611
234883.624;-69.4404084388;65.8039507992
234884.624;-70.0922235106;66.0789803288
234885.624;-69.4602599275;66.3540036821
234886.624;-69.5089410682;66.6290406467
234887.624;-69.4238630226;66.9040554301
234888.624;-68.8862371481;67.1790773795
234889.624;-69.4079742021;67.4541069805
234890.624;-69.4875395242;67.7291253756
234891.624;-69.1913491876;68.0041251361
234892.624;-69.3234306207;68.2791605821
234893.624;-69.5231214815;68.5541726054
234894.624;-69.0899962673;68.82918807
234895.624;-69.3199710804;69.1041921745
234896.624;-70.08468016;69.3792190401
234897.624;-69.5427846663;69.6542206228
234898.624;-69.4657109601;69.9292380307
234899.624;-69.4150273784;70.2042382464
234900.624;-69.316168888;70.4787507494
234901.624;-69.4728798678;70.75377113
234902.624;-69.579599198;71.028785311
234903.624;-69.73420574;71.3037728382
234904.624;-69.5711999553;71.578786297
234905.624;-70.1056894725;71.8537732357
234906.624;-69.0790467926;72.1287616014
234907.624;-70.0832523639;72.4037558187
234908.624;-69.3874727705;72.678741035
234909.624;-68.975449363;72.9537504433
234910.624;-69.4112893518;73.2287499964
234911.624;-69.5827207238;73.5037165855
234912.624;-69.3701302473;73.7787116879
234913.624;-69.18528522;74.0536984625
234914.624;-69.8877358228;74.3286908989
234915.624;-69.3843518197;74.6036663367
234916.624;-69.1186408921;74.8786580942
234917.624;-69.564660757;75.1536399725
234918.624;-70.010312948;75.4286047055
234919.624;-68.9565335806;75.7035843635
234920.624;-69.571096644;75.9785746152
234921.624;-69.3419396933;76.2535435134
234922.624;-69.8584954432;76.5285043296
234923.624;-70.1270017952;76.8034673586
234924.624;-69.5072141083;77.0784410338
234925.624;-69.7333224006;77.3534154652
234926.624;-69.1791760624;77.6283768608
234927.624;-69.3062896843;77.9033299426
234928.624;-68.9450993751;78.1783005778
234929.624;-69.1405551427;78.4532664675
234930.624;-68.7789938979;78.7282224073
234931.624;-69.7650903337;79.003175586
234932.624;-69.5842107823;79.2781181351
234933.624;-68.6855413335;79.5530738692
234934.624;-69.32709275;79.82803776
234935.624;-69.9825505971;80.1029723681
234936.624;-70.561807845;80.3779284923
234937.624;-69.1821059533;80.652868201
234938.624;-70.0260361329;80.9278056931
234939.624;-70.1492331431;81.2027665603
234940.624;-68.727347846;81.4777032499
234941.624;-70.2810499047;81.7526352059
234942.624;-69.1732184561;82.02757797
234943.624;-69.2054388226;82.3025098364
234944.624;-69.423975291;82.5774504149
234945.624;-69.3734169484;82.8523571224
234946.624;-69.0811950795;83.1273103976
234947.624;-70.0866644457;83.4022359549
234948.624;-69.7017091916;83.6771594483
234949.624;-69.06167056;83.9520871675
234950.624;-69.4497559488;84.2270143491
234951.624;-68.923028527;84.501919573
234952.624;-69.2005616732;84.7768508798
234953.624;-69.30195921;85.051755367
234954.624;-69.5019525857;85.3266873083
234955.624;-69.7082229472;85.6015991038
234956.624;-69.9234730146;85.8765143798
234957.624;-69.2385601812;86.151406568
234958.624;-69.3889665654;86.426321852
234959.624;-69.9364312272;86.7012456496
234960.624;-70.0391980026;86.9761485854
234961.624;-70.0117276549;87.2510245564
234962.624;-69.6176101362;87.5259350553
234963.624;-69.8227211085;87.8008375173
234964.624;-70.4827210818;88.0757348035
234965.624;-69.4399929007;88.3506295749
234966.624;-69.3640671434;88.6255189419
234967.624;-69.3156643311;88.9004203922
234968.624;-70.2586953306;89.1752999808
234969.624;-69.4382431697;89.4501866808
234970.624;-69.3107552463;89.725075926
234971.624;-69.5900940989;89.9999714718
234972.624;-69.5690674628;90.2748486331
234973.624;-69.8648301052;90.5497310906
234974.624;-69.0652991267;90.8246007799
234975.624;-69.5680916808;91.0994839801
234976.624;-70.3347688607;91.3743538074
234977.624;-69.6823251288;91.64921069
234978.624;-69.6097205816;91.9240994162
234979.624;-70.2430127642;92.1989593946
234980.624;-69.2860837061;92.4738115106
234981.624;-69.6449443542;92.7486848609
234982.624;-70.4938531988;93.02355079
234983.624;-69.8378822471;93.2984163404
234984.624;-69.7116289207;93.5732587106
234985.624;-69.8187464252;93.848121426
234986.624;-69.9653335071;94.1229717917
234987.624;-69.7150339848;94.3978313445
234988.624;-68.8504747851;94.6726930094
234989.624;-69.751765097;94.9475307197
234990.624;-69.9397542518;95.2223841644
234991.624;-68.9254388282;95.4972098401
234992.624;-69.687258214;95.7720610221
234993.624;-69.1789607197;96.0469135009
234994.624;-69.3232427653;96.3217349742
234995.624;-69.2161312923;96.5965764085
234996.624;-70.0055441049;96.8713869526
234997.624;-70.0519375256;97.1462362203
234998.624;-69.6921186707;97.4210578296
234999.624;-69.3939798416;97.6959082618
235000.624;-69.4531137133;97.9707237888
235001.624;-69.0667410361;98.2455389532
235002.624;-69.6002907634;98.5203525639
235003.624;-69.1805130294;98.7951727195
235004.624;-70.0505840976;99.069987472
235005.624;-69.7274958873;99.3448001567
235006.624;-69.8678703745;99.6196225938
235007.624;-69.5486986106;99.8944276531
235008.624;-69.3326546502;100.169230489
235009.624;-69.7222593703;100.444044054
235010.624;-69.6103135527;100.718849302
235011.624;-69.7917430446;100.993642308
235012.624;-69.8704347322;101.268437989
235013.624;-70.2292028018;101.543234621
235014.624;-69.4287999575;101.818026144
235015.624;-69.2309288496;102.092822383
235016.624;-70.107669849;102.367615255
235017.624;-70.0885021708;102.642416893
235018.624;-69.8435858877;102.917194427
235019.624;-70.0213141467;103.191980172
235020.624;-70.6482939915;103.466740846
235021.624;-68.9404577335;103.741542108
235022.624;-69.7931918275;104.016322668
235023.624;-69.8525822602;104.291092476
235024.624;-69.2523839215;104.565876877
235025.624;-68.896359994;104.84063576
235026.624;-68.1190462938;105.115395672
235027.624;-69.4729737389;105.390159593
235028.624;-70.0936906655;105.664929917
235029.624;-69.2409981524;105.939681099
235030.624;-68.9253919471;106.214448869
235031.624;-69.8801385709;106.489184958
235032.624;-69.8092565475;106.763954174
235033.624;-69.366325159;107.038708225
235034.624;-69.2302129761;107.313474409
235035.624;-69.0043379734;107.588180241
235036.624;-69.3518001652;107.862960276
235037.624;-69.6803678293;108.137702428
235038.624;-69.4415731498;108.412429982
235039.624;-69.2996641444;108.687149424
235040.624;-69.3227605688;108.961893811
235041.624;-68.9214352617;109.236644447
235042.624;-69.6890994512;109.511360629
235043.624;-69.771964198;109.786102901
235044.624;-69.5122729924;110.060829069
235045.624;-69.2357973089;110.335545978
235046.624;-69.0829399801;110.610273538
235047.624;-69.5342069221;110.8849834
235048.624;-68.7135930907;111.159699128
235049.624;-69.1794884168;111.434423952
235050.624;-69.2223637963;111.709129177
235051.624;-68.8351630243;111.983833444
235052.624;-70.0649633754;112.258529075
235053.624;-69.6261594928;112.533263734
235054.624;-68.9879979108;112.807956566
235055.624;-69.1463242373;113.0826458
235056.624;-69.340570561;113.357347998
235057.624;-69.2020093389;113.632046968
235058.624;-69.4771242839;113.906742177
235059.624;-70.1454317457;114.181415683
235060.624;-69.2519879038;114.456115418
235061.624;-69.7636629663;114.730782953
235062.624;-69.7532426572;115.005469864
235063.624;-69.5684134769;115.280153125
235064.624;-69.4615432494;115.554814397
235065.624;-69.527095373;115.829504303
235066.624;-69.8315466599;116.104170013
235067.624;-69.5082539543;116.378843692
235068.624;-69.0802984097;116.653499087
235069.624;-69.1056403291;116.928170983
235070.624;-69.7950283562;117.202854298
235071.624;-70.1329164968;117.47749129
235072.624;-69.7420596436;117.752154601
235073.624;-69.4574691378;118.0268056
235074.624;-69.6734681725;118.301453286
235075.624;-69.3914162144;118.576104635
235076.624;-69.9312385669;118.850755508
235077.624;-68.7290655326;119.125410914
235078.624;-69.1169681833;119.400037006
235079.624;-68.9788658689;119.674684969
235080.624;-69.9485996578;119.94931392
235081.624;-69.719495089;120.223952013
235082.624;-69.5837476605;120.49859163
235083.624;-69.0843602321;120.773207932
235084.624;-68.756238719;121.047841277
235085.624;-69.3361405141;121.322461954
235086.624;-69.4438065575;121.59706088
235087.624;-69.7266053793;121.871706296
235088.624;-69.9002610923;122.14632454
235089.624;-69.6991406897;122.420921915
235090.624;-70.0282575011;122.69554565
235091.624;-69.3062283918;122.970151359
235092.624;-69.8892743258;123.244757699
235093.624;-69.0293777457;123.519346268
235094.624;-69.2003151361;123.79395253
235095.624;-69.3292660451;124.068554565
235096.624;-70.0994445236;124.343143411
235097.624;-69.1287995107;124.617736756
235098.624;-69.5218417081;124.892316982
235099.624;-69.3629088071;125.166914306
235100.624;-69.7545686886;125.441505819
235101.624;-69.9462603725;125.716073829
235102.624;-68.9480905892;125.990656568
235103.624;-69.1595036041;126.265228444
235104.624;-69.3713172961;126.539792859
235105.624;-69.249726533;126.814362148
235106.624;-69.7523461867;127.088936912
235107.624;-69.8673131051;127.363480322
235108.624;-69.5908197231;127.63806464
235109.624;-69.419443774;127.912619419
235110.624;-68.7445544137;128.187173172
235111.624;-69.003869093;128.46170763
235112.624;-69.7428147845;128.736283639
235113.624;-69.2818060027;129.010827136
235114.624;-69.2157275321;129.285363843
235115.624;-68.7664154192;129.559923845
235116.624;-69.5398068685;129.834446957
235117.624;-69.1657246681;130.108981042
235118.624;-69.0578361855;130.383527605
235119.624;-69.2687461035;130.658037619
235120.624;-68.7303937781;130.932581085
235121.624;-69.7580800769;131.207105432
235122.624;-69.60959922;131.481627681
235123.624;-69.7693407378;131.756135189
235124.624;-69.6574052776;132.030641011
235125.624;-68.8948641345;132.305162394
235126.624;-69.2436418963;132.579689271
235127.624;-69.3131577539;132.854190367
235128.624;-69.7580602427;133.128694027
235129.624;-68.9557045873;133.403193595
235130.624;-69.6306916213;133.677692143
235131.624;-68.0576359678;133.95219035
235132.624;-69.3738560668;134.226671601
235133.624;-68.0511916544;134.501169016
235134.624;-69.2264071367;134.775642223
235135.624;-68.8398646916;135.050146578
235136.624;-69.3435862089;135.324627775
235137.624;-69.8154849633;135.599099175
235138.624;-69.1178439423;135.873578327
235139.624;-69.3086886471;136.148049601
235140.624;-69.5557927952;136.42251375
235141.624;-68.8175581458;136.696969559
235142.624;-69.7957085146;136.971439087
235143.624;-69.1631001195;137.24592304
235144.624;-68.7360363621;137.520350023
235145.624;-68.9212076802;137.794828238
235146.624;-68.6210618434;138.069281362
235147.624;-68.5740597323;138.34372022
235148.624;-69.4215760804;138.618167482
235149.624;-68.8345269388;138.892612934
235150.624;-68.6898508885;139.167065104
235151.624;-69.4602478587;139.441490776
235152.624;-69.5181385603;139.715922022
235153.624;-68.3187818234;139.990370386
235154.624;-69.2522802897;140.264784243
235155.624;-69.0484534135;140.53921491
235156.624;-68.3512663563;140.813646843
235157.624;-69.6765668993;141.088056296
235158.624;-68.8874256037;141.362459985
235159.624;-69.3924102203;141.636873033
235160.624;-68.7120398084;141.911290146
235161.624;-69.7453648684;142.185687513
235162.624;-69.1274973013;142.460102433
235163.624;-68.708854417;142.734512668
235164.624;-69.1697539065;143.008884323
235165.624;-68.3985847559;143.283285439
235166.624;-69.2672622077;143.557682402
235167.624;-69.2607696058;143.832061568
