time;bias-band1;bias-band2
237801.64;0;0
237802.64;-140.246288306;0
237803.64;-140.260760177;0
237804.64;-140.324072563;0
237805.64;-140.308620574;0
237806.64;-140.318261709;0
237807.64;-140.330876625;0
237808.64;-140.239389329;0
237809.64;-140.1319517;0
237810.64;-140.145257465;0
237811.64;-140.02223239;0
237812.64;-140.358529294;0
237813.64;-140.146984935;0
237814.64;-140.034774651;0
237815.64;-140.190836076;0
237816.64;-140.019409056;0
237817.64;-139.563839723;0
237818.64;-139.669483149;0
237819.64;-139.88520368;0
237820.64;-139.795264107;0
237821.64;-139.780198412;0
237822.64;-139.831265046;0
237823.64;-139.702039839;0
237824.64;-139.518398194;0
237825.64;-139.583551781;0
237826.64;-139.624636818;0
237827.64;-139.599657869;0
237828.64;-139.467560178;0
237829.64;-139.54646895;0
237830.64;-139.602766034;0
237831.64;-139.568102175;0
237832.64;-139.431181144;0
237833.64;-139.341108878;0
237834.64;-139.41355318;0
237835.64;-139.50719897;0
237836.64;-139.439739798;0
237837.64;-139.180919204;0
237838.64;-139.250703256;0
237839.64;-139.426824404;0
237840.64;-139.495503998;0
237841.64;-139.155533769;0
237842.64;-139.030179343;0
237843.64;-139.037919569;0
237844.64;-139.284724416;0
237845.64;-139.121635018;0
237846.64;-139.191293155;0
237847.64;-139.185014751;0
237848.64;-139.129707858;0
237849.64;-139.01097297;0
237850.64;-138.848290582;0
237851.64;-138.890249986;0
237852.64;-138.662008881;0
237853.64;-138.423525787;0
237854.64;-138.680656473;0
237855.64;-138.853679761;0
237856.64;-138.710229325;0
237857.64;-138.589071695;0
237858.64;-138.529268835;0
237859.64;-138.664553826;0
237860.64;-138.642115165;0
237861.64;-138.391527721;0
237862.64;-138.433516224;0
237863.64;-138.451146542;0
237864.64;-138.254907319;0
237865.64;-138.156219276;0
237866.64;-138.25516806;0
237867.64;-138.280495407;0
237868.64;-138.253474272;0
237869.64;-138.003674154;0
237870.64;-138.279683537;0
237871.64;-138.08363108;0
237872.64;-138.341095719;0
237873.64;-138.079250118;721.533034483
237874.64;-137.875078732;721.892602235
237875.64;-137.671881909;722.236858257
237876.64;-137.740784607;722.581081597
237877.64;-137.866728333;722.925239154
237878.64;-138.012279647;723.269341907
237879.64;-137.887697099;723.613476438
237880.64;-137.722104436;723.957597441
237881.64;-137.787427449;724.301645243
237882.64;-137.98049279;724.645691289
237883.64;-137.971030323;724.989698639
237884.64;-137.93897017;725.333695317
237885.64;-137.770974591;725.677655687
237886.64;-137.982488051;726.021607237
237887.64;-138.008870511;726.365504327
237888.64;-137.581992651;726.709379644
237889.64;-137.949418295;727.053242384
237890.64;-137.689157433;727.397041228
237891.64;-137.726569294;618.189575316
237892.64;-137.793121092;618.551361986
237893.64;-137.573162002;618.907191421
237894.64;-137.645601824;619.2629975
237895.64;-137.745247364;619.618749375
237896.64;-137.632772229;619.974508831
237897.64;-137.554497494;620.330255232
237898.64;-137.46594342;620.685935978
237899.64;-137.407818785;621.041615719
237900.64;-137.359715134;621.396758767
237901.64;-137.36319805;621.752386101
237902.64;-137.445795855;622.1080172
237903.64;-137.410240658;622.463585138
237904.64;-137.281942858;622.819152161
237905.64;-137.298039168;623.174630998
237906.64;-137.267436271;623.530174433
237907.64;-137.237244033;623.885619548
237908.64;-137.134432645;-185.260544046
237909.64;-137.162929591;-185.010822011
237910.64;-137.122261828;-184.750856156
237911.64;-137.145124055;-184.490967477
237912.64;-137.008383067;-184.231011033
237913.64;-136.847525392;-183.97109853
237914.64;-137.093668703;-183.711186288
237915.64;-137.335369488;-183.451324562
237916.64;-137.292103257;-183.191400006
237917.64;-137.318446678;-182.931570697
237918.64;-137.243195892;-182.671670456
237919.64;-137.170170412;-182.411852853
237920.64;-137.157848402;-182.151990678
237921.64;-137.032900927;-181.892172392
237922.64;-136.895283645;-181.632343043
237923.64;-136.703936759;-181.372540092
237924.64;-136.631996607;-181.11273903
237925.64;-136.72721571;-180.85294014
237926.64;-136.843009858;-180.593161687
237927.64;-136.875417353;-180.333381299
237928.64;-136.808037854;-180.073615515
237929.64;-136.839695379;-179.813855714
237930.64;-136.679427841;-179.554141174
237931.64;-136.709776904;-179.294403407
237932.64;-136.867096605;-179.034677825
237933.64;-136.73910231;-178.774986593
237934.64;-136.910557891;-178.515289726
237935.64;-136.924970694;-178.25557475
237936.64;-136.799950672;-177.995887438
237937.64;-136.747432129;-177.736221692
237938.64;-136.500038101;-177.47654314
237939.64;-136.530175535;-177.216906292
237940.64;-136.730488658;-176.957261894
237941.64;-136.785864149;-176.697636569
237942.64;-136.798518527;-176.438031012
237943.64;-136.680911476;-176.178427437
237944.64;-136.600852784;-175.918834244
237945.64;-136.491692333;-175.659249089
237946.64;-136.675504202;-175.399644828
237947.64;-136.665612415;-175.140064603
237948.64;-136.557489587;-174.880513567
237949.64;-136.59295869;-174.620970679
237950.64;-136.515750853;-174.361428716
237951.64;-136.526453348;-174.101911616
237952.64;-136.533088099;-173.842369709
237953.64;-136.397786784;-173.58291835
237954.64;-136.210475739;-173.32338729
237955.64;-136.445709958;-173.063897872
237956.64;-136.480376243;-172.804434979
237957.64;-136.344731925;-172.544970396
237958.64;-136.096620755;-172.28548908
237959.64;-136.16319663;-172.02605979
237960.64;-136.060614014;-171.76662308
237961.64;-136.004207393;-171.50721486
237962.64;-136.03157353;-171.247776847
237963.64;-136.099807855;-170.988391838
237964.64;-136.126046872;-170.728992598
237965.64;-136.052867457;-170.469569743
237966.64;-136.021601983;-170.210243099
237967.64;-136.040289948;-169.950861269
237968.64;-135.936756768;-169.691518704
237969.64;-135.793379042;-169.432145982
237970.64;-135.712562122;-169.17282449
237971.64;-135.693090977;-168.913512027
237972.64;-135.53769502;-168.654201015
237973.64;-135.447925876;-168.394871151
237974.64;-135.348058558;-168.135589816
237975.64;-135.40348596;-167.87632545
237976.64;-135.45191649;-167.617065902
237977.64;-135.262079582;-167.357804083
237978.64;-135.299221294;-167.098585282
237979.64;-135.351194411;-166.83931472
237980.64;-135.428824969;-166.580092021
237981.64;-135.45311479;-166.320854601
237982.64;-135.297585438;-166.061661549
237983.64;-135.323088942;-165.802429738
237984.64;-135.439091573;-165.543278057
237985.64;-135.309758344;-165.284060668
237986.64;-135.356893671;-165.024942437
237987.64;-135.417279715;-164.765763938
237988.64;-135.4687176;-164.506612501
237989.64;-135.425025925;-164.247479771
237990.64;-135.323013636;-163.988363323
237991.64;-135.401481869;-163.729252444
237992.64;-135.362379776;-163.470141981
237993.64;-135.402794598;-163.211031154
237994.64;-135.231321719;-162.951961571
237995.64;-134.948927501;-162.692892715
237996.64;-134.818750883;-162.433857948
237997.64;-134.656298343;-162.174772993
237998.64;-135.099789797;-161.915750046
237999.64;-135.13722007;-161.656717633
238000.64;-135.21182074;-161.397694161
238001.64;-135.23328651;-161.138696371
238002.64;-135.200079954;-160.879669984
238003.64;-134.937052898;-160.620711819
238004.64;-134.788682371;-160.361745945
238005.64;-135.31959207;-160.102764527
238006.64;-134.967162094;-159.843786543
238007.64;-135.025097595;-159.584835263
238008.64;-134.699495447;-159.325913683
238009.64;-134.652782548;-159.066994653
238010.64;-134.827428321;-158.808084793
238011.64;-134.885650633;-158.549181113
238012.64;-134.633382533;-158.290290735
238013.64;-134.644183411;-158.031392241
238014.64;-134.723767728;-157.772515808
238015.64;-134.83269939;-157.513668861
238016.64;-134.793622762;-157.254843307
238017.64;-134.708818164;-156.995981039
238018.64;-134.756080193;-156.737158445
238019.64;-134.666458384;-156.47833213
238020.64;-134.783498521;-156.21951396
238021.64;-134.814275393;-155.960744338
238022.64;-134.561026933;-155.701944614
238023.64;-134.659391192;-155.443172726
238024.64;-134.773635781;-155.184428001
238025.64;-134.674370749;-154.92565198
238026.64;-134.499198432;-154.666923221
238027.64;-134.554270813;-154.408148447
238028.64;-134.415650297;-154.149441819
238029.64;-134.120645771;-153.890746591
238030.64;-134.128363696;-153.63205372
238031.64;-134.232762822;-153.373354346
238032.64;-134.025481165;-153.114667185
238033.64;-133.942077834;-152.856002063
238034.64;-134.007300105;-152.597340787
238035.64;-134.06590169;-152.3386958
238036.64;-133.971442655;-152.080059182
238037.64;-134.209426262;-616.552290363
238038.64;-133.986833459;-616.334172288
238039.64;-133.82991776;-616.116118672
238040.64;-133.886934033;-615.89808171
238041.64;-133.913285401;-615.680027357
238042.64;-133.73883313;-615.461940317
238043.64;-133.863872982;-615.243897741
238044.64;-133.819971421;-615.025834762
238045.64;-134.003071551;-614.8078177
238046.64;-133.630333804;-614.589777782
238047.64;-133.877297852;-614.371705726
238048.64;-134.049518177;-614.153668825
238049.64;-133.672151125;-148.625905967
238050.64;-133.753785438;-148.460281723
238051.64;-134.041304527;-148.201812368
238052.64;-133.824153876;-147.9433424
238053.64;-133.843405705;-147.684926416
238054.64;-133.880568608;-147.426442799
238055.64;-133.948268922;-147.168017806
238056.64;-133.857614082;-146.90963185
238057.64;-133.925954912;-146.651218454
238058.64;-133.61244752;-146.39279135
238059.64;-133.710513893;-146.134407744
238060.64;-133.945901162;-145.876043378
238061.64;-133.816498248;-145.617687776
238062.64;-133.941195411;-145.35933132
238063.64;-133.848161109;-145.100982784
238064.64;-133.87583721;-144.842634426
238065.64;-133.850207396;-144.584308917
238066.64;-133.834237538;-144.326050392
238067.64;-133.72291048;-144.067723853
238068.64;-133.500664155;-143.809433759
238069.64;-133.389810228;-143.551160058
238070.64;-133.512557205;-143.292886725
238071.64;-133.365200892;-143.034619625
238072.64;-133.677672822;-142.776400189
238073.64;-133.428194886;-142.518145942
238074.64;-133.385457113;-142.259940585
238075.64;-133.123525959;-142.001699366
238076.64;-133.059320336;-141.743508355
238077.64;-133.250985514;-141.485314062
238078.64;-133.276876643;-141.22715443
238079.64;-133.394190655;-140.968978304
238080.64;-133.324600907;-140.710837362
238081.64;-133.137260259;-140.452690532
238082.64;-133.215962482;-140.194549896
238083.64;-133.131800442;-139.936412604
238084.64;-133.132620212;-139.678296241
238085.64;-133.098530913;-139.420201801
238086.64;-133.198403052;-139.162083537
238087.64;-133.261994112;-138.904027043
238088.64;-133.056078667;-138.64596844
238089.64;-132.911526632;-138.387899496
238090.64;-133.045325161;-138.129864335
238091.64;-132.93755083;-137.87182999
238092.64;-132.802219513;-137.613809992
238093.64;-132.840977288;-137.355803183
238094.64;-132.970942776;-137.097783975
238095.64;-132.97553859;-136.839800118
238096.64;-132.929380107;-136.581799016
238097.64;-132.991681806;-136.323853875
238098.64;-132.923141612;432.179471303
238099.64;-133.047159608;432.417336564
238100.64;-132.725746288;432.644879251
238101.64;-132.680089543;432.872435288
238102.64;-132.744628143;433.099951974
238103.64;-132.88283968;433.327425427
238104.64;-132.706016217;433.554900976
238105.64;-132.640369142;433.782353815
238106.64;-132.823379508;434.009767118
238107.64;-132.616759131;434.237174593
238108.64;-132.579298709;434.464568136
238109.64;-132.469617269;434.691929619
238110.64;-132.287889063;434.919267283
238111.64;-132.495815645;435.146601475
238112.64;-132.079143516;435.373906307
238113.64;-132.627186612;435.601175062
238114.64;-132.607453242;435.828437793
238115.64;-132.568989939;436.055680035
238116.64;-132.594594919;436.282930242
238117.64;-132.536289327;-131.166834576
238118.64;-132.58186822;-130.909077578
238119.64;-132.645297924;-130.651372169
238120.64;-132.384902043;-130.393688354
238121.64;-132.314360783;-130.13598568
238122.64;-132.259880543;-129.878304393
238123.64;-132.137235403;-129.620610946
238124.64;-132.125943898;-129.362961527
238125.64;-132.321132998;-129.10527702
238126.64;-132.446825676;-128.847646972
238127.64;-132.646161767;-128.590021779
238128.64;-132.499032093;-128.332397888
238129.64;-132.181854413;-128.074800123
238130.64;-132.292193578;-127.817207677
238131.64;-132.341634142;-127.559613742
238132.64;-132.412204056;-127.302047903
238133.64;-132.399176412;-127.044469652
238134.64;-132.392273231;-126.786937052
238135.64;-132.246460638;-126.529369739
238136.64;-132.277273541;-126.271827929
238137.64;-132.32336174;-126.014341498
238138.64;-132.358708874;-125.756831174
238139.64;-132.301890518;-125.499316114
238140.64;-132.135950829;-125.24185568
238141.64;-132.287218325;-124.984419882
238142.64;-132.337097824;-124.726941201
238143.64;-132.256967459;-124.469485617
238144.64;-132.203009631;-124.212045191
238145.64;-132.136768432;-123.954606465
238146.64;-132.281315394;443.107187625
238147.64;-132.235067353;443.316304921
238148.64;-132.14351808;443.542847866
238149.64;-132.295916535;443.769388852
238150.64;-132.49094898;443.995884321
238151.64;-132.303387723;444.222360608
238152.64;-131.983000388;444.448852862
238153.64;-132.002341151;444.675301837
238154.64;-132.062895777;444.901708803
238155.64;-132.200454918;445.128100013
238156.64;-132.397932821;445.354502222
238157.64;-132.299987346;445.580839243
238158.64;-132.235659711;-120.609119388
238159.64;-132.233817992;-120.351844436
238160.64;-132.393554585;-120.094583611
238161.64;-132.405832132;-119.837347942
238162.64;-132.510537475;-119.580104911
238163.64;-132.244959414;-119.322905682
238164.64;-132.11900711;-119.065672
238165.64;-132.113639795;-118.808487511
238166.64;-132.246729866;-118.551264005
238167.64;-132.298668027;-118.294146622
238168.64;-132.223654083;-118.0370096
238169.64;-132.057410855;-117.779838484
238170.64;-132.178144137;-117.522718079
238171.64;-132.243389645;-117.265566282
238172.64;-132.213955576;-117.008452976
238173.64;-132.110522771;-116.751323502
238174.64;-132.067875733;-116.494252715
238175.64;-132.046740767;-116.237188532
238176.64;-131.952351877;-115.980088214
238177.64;-131.86977982;-115.72307562
238178.64;-132.01214228;-115.466009988
238179.64;-131.709274466;-115.20896697
238180.64;-131.743486789;-114.95192684
238181.64;-131.752574436;-114.694939786
238182.64;-131.994274576;-114.437920332
238183.64;-132.080958368;-114.180960292
238184.64;-132.008464114;-113.923977259
238185.64;-131.696751724;-113.667022922
238186.64;-131.495989901;-113.410057865
238187.64;-131.706976178;297.709032776
238188.64;-131.728337674;297.946926118
238189.64;-131.615930542;298.177107511
238190.64;-131.65920363;298.40728894
238191.64;-131.549031603;298.637407734
238192.64;-131.440800496;298.867568299
238193.64;-131.513062448;299.097698372
238194.64;-131.511522009;299.327822778
238195.64;-131.475996825;299.557952388
238196.64;-131.451482731;299.788039426
238197.64;-131.332653357;300.018111809
238198.64;-131.353647221;300.248207941
238199.64;-131.656711741;300.478293961
238200.64;-131.654561739;300.708333297
238201.64;-131.422137807;300.938382202
238202.64;-131.293696226;301.168391173
238203.64;-131.339042419;301.398435531
238204.64;-131.477246697;301.628410245
238205.64;-131.510707673;301.858439944
238206.64;-131.22922371;302.088413961
238207.64;-131.378973139;302.318406972
238208.64;-131.501614496;302.54837758
238209.64;-131.298490564;302.778345191
238210.64;-131.251864988;303.008272815
238211.64;-131.338828979;303.238221283
238212.64;-131.364107499;303.468144753
238213.64;-131.311667487;303.69806349
238214.64;-131.256733117;303.927967061
238215.64;-131.40570265;304.157876983
238216.64;-131.38812813;304.38773258
238217.64;-131.481904354;304.617597561
238218.64;-131.508721787;304.847446202
238219.64;-131.178083431;305.077332089
238220.64;-131.131334384;305.307136225
238221.64;-131.169540092;305.536956521
238222.64;-131.192932734;305.766770407
238223.64;-131.098563097;305.996568432
238224.64;-130.977247449;306.226391309
238225.64;-131.226098484;306.456165976
238226.64;-131.160097783;306.685958424
238227.64;-131.087559434;306.915684748
238228.64;-131.202062552;307.145469168
238229.64;-131.108871418;307.375168201
238230.64;-130.795539264;307.604911363
238231.64;-130.612113852;307.834617338
238232.64;-130.722065777;308.064327505
238233.64;-130.889463096;308.294036152
238234.64;-130.937757692;308.523716504
238235.64;-131.08000731;308.753395615
238236.64;-130.874687608;308.983023318
238237.64;-130.532393867;309.212704563
238238.64;-130.996836049;309.44231491
238239.64;-131.210466762;309.671961749
238240.64;-131.294316668;309.901531727
238241.64;-130.784537814;310.131170882
238242.64;-130.920930361;310.360765082
238243.64;-131.234684565;310.590354035
238244.64;-130.814267663;310.819932321
238245.64;-130.887464456;311.049480592
238246.64;-131.044439094;311.279052988
238247.64;-130.895443155;311.508559326
238248.64;-130.8706525;311.738088247
238249.64;-130.589634235;311.967612025
238250.64;-130.653151302;312.197133397
238251.64;-130.745427299;312.42661774
238252.64;-130.833252655;312.65608956
238253.64;-130.796298295;312.88555324
238254.64;-130.670288662;313.11501117
238255.64;-130.732365045;313.344485661
238256.64;-130.706639862;313.573895034
238257.64;-130.630867184;313.803356991
238258.64;-130.562800581;314.032747756
238259.64;-130.556252955;314.262155776
238260.64;-130.475337079;314.491543352
238261.64;-130.434073391;314.720926621
238262.64;-130.364521311;314.950294824
238263.64;-130.577995511;315.179652732
238264.64;-130.688956658;315.408999875
238265.64;-130.359129592;315.638340083
238266.64;-130.359954657;315.867685696
238267.64;-130.279830973;316.096965087
238268.64;-130.260201371;316.326296299
238269.64;-130.453521984;316.555592194
238270.64;-130.513485767;316.784853029
238271.64;-130.569330806;317.014144695
238272.64;-130.590272425;317.243400497
238273.64;-130.443470113;317.472635636
238274.64;-130.343506332;317.701911752
238275.64;-130.321182172;317.931112689
238276.64;-130.472313902;318.160313993
238277.64;-130.392975472;318.389523508
238278.64;-130.50001345;318.618702999
238279.64;-130.572277074;318.847897175
238280.64;-130.580145394;319.077049378
238281.64;-130.509118975;319.306216226
238282.64;-130.534777289;319.535375785
238283.64;-130.412449341;319.764503729
238284.64;-130.42159765;319.993613314
238285.64;-130.5373677;320.222739202
238286.64;-130.384439398;320.451830286
238287.64;-130.069445753;320.680908481
238288.64;-129.880220121;320.910004266
238289.64;-130.338107983;321.139070458
238290.64;-130.305984452;321.368118545
238291.64;-129.980120046;321.597180869
238292.64;-129.931072664;321.826193469
238293.64;-129.994726519;322.055216324
238294.64;-130.085958606;322.284211287
238295.64;-130.230514273;322.513217863
238296.64;-130.403028878;322.742217372
238297.64;-130.431822925;322.971186668
238298.64;-130.037984768;323.200163828
238299.64;-130.081488251;323.429100418
238300.64;-130.193930425;323.658065935
238301.64;-130.261125824;323.886975998
238302.64;-130.069344484;324.115895888
238303.64;-130.075632397;324.344803573
238304.64;-130.06692112;324.573691897
238305.64;-129.949798448;324.802600832
238306.64;-129.922961091;325.031483335
238307.64;-129.782117243;325.26031461
238308.64;-129.643817526;325.489162943
238309.64;-129.913342754;325.718009422
238310.64;-129.960827994;325.946834983
238311.64;-129.792535976;326.175642005
238312.64;-129.727746334;326.404462083
238313.64;-130.120790123;326.633272161
238314.64;-129.962759486;326.862015131
238315.64;-129.711519677;327.090795918
238316.64;-129.594147629;327.319541734
238317.64;-129.678908705;327.548302021
238318.64;-129.655706438;327.777026397
238319.64;-129.822348751;328.005761429
238320.64;-129.757012973;328.234475781
238321.64;-129.74014189;328.463163179
238322.64;-129.836950421;328.691862156
238323.64;-129.672259968;328.920559221
238324.64;-129.804677538;329.149208882
238325.64;-129.860153595;329.377872105
238326.64;-129.970948183;329.606512056
238327.64;-129.767099241;329.835158529
238328.64;-129.704343689;330.063748278
238329.64;-129.636845351;330.292378295
238330.64;-129.797158139;330.520975304
238331.64;-129.849471092;330.749569592
238332.64;-129.830940843;330.978121748
238333.64;-129.910450001;331.206693028
238334.64;-129.881396939;331.435254733
238335.64;-129.689291533;331.663791758
238336.64;-129.783909672;331.892337173
238337.64;-129.766451995;332.120853231
238338.64;-129.670941985;332.349325422
238339.64;-129.72657534;332.577840179
238340.64;-129.595722524;332.806327719
238341.64;-129.521751998;333.034781187
238342.64;-129.832165423;333.263233376
238343.64;-129.865831946;333.491696774
238344.64;-129.666146441;333.72012973
238345.64;-129.540478868;333.948573907
238346.64;-129.536388386;334.176948553
238347.64;-129.665285947;334.405363099
238348.64;-129.609448792;334.633752828
238349.64;-129.550706036;334.862130354
238350.64;-129.283773058;335.090496597
238351.64;-129.483852561;335.318866808
238352.64;-129.625592407;335.547204308
238353.64;-129.452697258;335.775535472
238354.64;-129.465778722;336.003840729
238355.64;-129.567154919;336.232144323
238356.64;-129.509174205;336.460453914
238357.64;-129.567825099;336.688735392
238358.64;-129.564984531;336.917004114
238359.64;-129.372318975;337.145269352
238360.64;-129.404892135;337.373506022
238361.64;-129.331417352;337.601744483
238362.64;-129.443516763;337.829966721
238363.64;-129.418899404;338.058201508
238364.64;-129.285755749;338.286383921
238365.64;-128.981326182;338.514594817
238366.64;-128.99135908;338.742786297
238367.64;-128.975680638;338.970938468
238368.64;-129.024837761;339.199103766
238369.64;-129.357039994;339.427245471
238370.64;-129.367599057;339.655371514
238371.64;-129.460979913;339.883504523
238372.64;-129.549509065;340.111604968
238373.64;-129.411899223;340.339704418
238374.64;-129.37530114;340.567776723
238375.64;-129.58909377;340.795854068
238376.64;-129.640430698;341.02391681
238377.64;-129.421054923;341.251981767
238378.64;-129.458392832;341.480011621
238379.64;-129.560566011;341.708046296
238380.64;-129.519655111;341.936035061
238381.64;-129.490613849;342.164052974
238382.64;-129.5200525;342.392027793
238383.64;-129.436783018;342.620013097
238384.64;-129.348860852;342.84798908
238385.64;-129.347461852;343.075974778
238386.64;-129.353563879;343.303904745
238387.64;-129.310280223;343.531813109
238388.64;-129.275567905;343.759748757
238389.64;-129.183876091;343.987657905
238390.64;-129.012139653;344.215548429
238391.64;-129.245494984;344.443427859
238392.64;-129.274983068;344.67130082
238393.64;-129.182977618;344.899176664
238394.64;-129.143759223;345.127029522
238395.64;-129.097543237;345.354867622
238396.64;-129.211105723;345.582686412
238397.64;-129.313771449;345.810499562
238398.64;-129.256476788;346.038305602
238399.64;-128.971891362;346.266082304
238400.64;-128.960570906;346.493848512
238401.64;-128.938891476;346.721629496
238402.64;-129.009652093;346.949387654
238403.64;-128.948175623;347.177155149
238404.64;-128.852015962;347.404850648
238405.64;-128.991371709;347.632602323
238406.64;-128.871439602;347.860279246
238407.64;-128.802644838;348.088007024
238408.64;-128.894465904;348.315672565
238409.64;-128.819094298;348.543350543
238410.64;-128.864075637;348.771033822
238411.64;-128.798174927;348.99863817
238412.64;-128.862933717;349.226279884
238413.64;-128.573430736;349.45390402
238414.64;-128.560497776;349.681533987
238415.64;-128.479036207;349.909133559
238416.64;-128.561096767;350.136713533
238417.64;-128.707462388;350.364271993
238418.64;-128.959062059;350.591857185
238419.64;-128.878690624;350.819420031
238420.64;-128.636453408;351.046926975
238421.64;-128.510821938;351.274482066
238422.64;-128.388912018;351.502011426
238423.64;-128.334067322;351.72948045
238424.64;-128.202854037;351.956972983
238425.64;-128.336682278;352.184483495
238426.64;-128.321521137;352.411955726
238427.64;-128.462470713;352.63939316
238428.64;-128.623572002;352.866820638
238429.64;-128.598521995;353.094267668
238430.64;-128.494203044;353.321707338
238431.64;-128.528218755;353.549102207
238432.64;-128.654447282;353.776490172
238433.64;-128.654342129;354.003860973
238434.64;-128.686084984;354.231230004
238435.64;-128.654742827;705.307314483
238436.64;-128.515665527;705.661797885
238437.64;-128.438858966;706.016378935
238438.64;-128.501356571;706.370854989
238439.64;-128.620584254;706.725277947
238440.64;-128.870623039;707.079731024
238441.64;-128.768559232;707.434092661
238442.64;-128.672569916;707.788530302
238443.64;-128.693227616;708.142854493
238444.64;-128.609785758;708.497168382
238445.64;-128.554916776;708.851453174
238446.64;-128.496949707;356.958759733
238447.64;-128.567676871;357.185992405
238448.64;-128.698046151;357.413190954
238449.64;-128.63778562;357.640380997
238450.64;-128.555670594;357.86757237
238451.64;-128.499232138;358.094704414
238452.64;-128.238047454;358.321886111
238453.64;-128.692957061;358.549024787
238454.64;-128.346706343;358.77615173
238455.64;-128.413182887;359.003260827
238456.64;-128.336872264;359.230402087
238457.64;-128.428595009;359.457482235
238458.64;-128.323490706;359.684556456
238459.64;-128.455882836;359.911620354
238460.64;-128.447083143;360.138680366
238461.64;-128.425032289;360.365729849
238462.64;-128.424136161;360.59275132
238463.64;-128.409347879;360.819780925
238464.64;-128.233854393;361.046803684
238465.64;-128.143740238;361.273800642
238466.64;-128.603308991;361.500770676
238467.64;-128.362862799;361.727739486
238468.64;-128.069111848;361.954717978
238469.64;-128.056860594;362.181638819
238470.64;-128.229554684;362.408615626
238471.64;-128.16246994;362.635518084
238472.64;-128.12742397;362.862447307
238473.64;-128.073869968;363.089342346
238474.64;-128.095698436;363.316235242
238475.64;-128.025425886;363.543088953
238476.64;-128.077989132;363.769961804
238477.64;-128.117075385;363.996830478
238478.64;-128.150395206;364.223637255
238479.64;-128.099880978;364.450483296
238480.64;-128.088140784;364.677267583
238481.64;-128.265645652;364.904072579
238482.64;-128.195481516;365.130875742
238483.64;-128.31134693;365.357645332
238484.64;-128.269578305;365.584422326
238485.64;-128.212810729;365.811178561
238486.64;-128.190248386;366.037922405
238487.64;-128.241751118;366.26463722
238488.64;-128.271598013;366.491347736
238489.64;-128.211595442;366.718062484
238490.64;-128.268833564;366.944738219
238491.64;-128.228626008;367.17144036
238492.64;-128.179280803;367.398099399
238493.64;-128.280900105;367.62477551
238494.64;-128.131430691;367.851387785
238495.64;-128.050119373;368.0780239
238496.64;-128.184079182;368.304649097
238497.64;-128.12410803;368.531239446
238498.64;-128.072973575;368.757829709
238499.64;-128.177300005;368.984425962
238500.64;-128.017605584;369.210955462
238501.64;-127.958164677;369.437479257
238502.64;-127.940123401;369.664028063
238503.64;-127.868174123;369.890579273
238504.64;-127.914265906;370.117105037
238505.64;-128.403718445;370.343601834
238506.64;-128.038144018;370.570092296
238507.64;-128.017496923;370.796581197
238508.64;-127.960940671;371.023077205
238509.64;-127.912813628;371.249507332
238510.64;-128.200467017;371.47592988
238511.64;-128.38020147;371.702369486
238512.64;-128.132850699;371.928805857
238513.64;-128.021292204;372.155206117
238514.64;-128.006400005;372.381612717
238515.64;-127.892582633;372.607986396
238516.64;-127.89416769;372.834365811
238517.64;-128.006295395;373.060709399
238518.64;-128.015706751;373.287070407
238519.64;-127.88975186;373.513402437
238520.64;-127.898249044;373.739712864
238521.64;-128.09146165;373.966024961
238522.64;-127.889694004;374.192319191
238523.64;-127.965577978;374.418608966
238524.64;-127.958993553;374.644886348
238525.64;-127.775176681;374.871123956
238526.64;-127.655640134;375.097386552
238527.64;-127.757497516;375.323591355
238528.64;-127.765099589;375.549833668
238529.64;-127.845510269;375.776030524
238530.64;-127.747848461;376.002230057
238531.64;-127.474726263;376.228428791
238532.64;-127.832710663;376.454550701
238533.64;-127.924534016;376.680737216
238534.64;-127.871336421;376.906902557
238535.64;-127.871429222;377.133031454
238536.64;-127.657157332;377.359141594
238537.64;-127.696477175;256.337799171
238538.64;-127.611122963;256.522005153
238539.64;-127.656499937;256.706252953
238540.64;-127.580795847;256.890444165
238541.64;-127.541254293;257.074635215
238542.64;-127.383562766;257.258840049
238543.64;-127.562291466;257.443033686
238544.64;-127.358376793;257.627227331
238545.64;-127.354867729;257.811400735
238546.64;-127.312269009;257.995569646
238547.64;-127.36949048;258.179734527
238548.64;-127.566377803;258.363879336
238549.64;-127.495691692;258.548035185
238550.64;-127.427282725;258.732186422
238551.64;-127.454246379;258.916331085
238552.64;-127.428858644;259.100443957
238553.64;-127.515127206;259.284588845
238554.64;-127.479666443;259.468686646
238555.64;-127.522182695;259.652794088
238556.64;-127.752559122;259.836878178
238557.64;-127.619279302;260.020986437
238558.64;-127.5967515;260.205075208
238559.64;-127.697265563;260.389146367
238560.64;-127.639900693;260.573213594
238561.64;-127.549222358;260.757269165
238562.64;-127.454615603;-182.1631697
238563.64;-127.41653832;-181.957749404
238564.64;-127.421900897;-181.745843026
238565.64;-127.685747635;-181.533978667
238566.64;-127.761953907;-181.322082575
238567.64;-127.494901001;-181.110194928
238568.64;-127.229514747;-180.89832431
238569.64;-127.237210591;-180.686389769
238570.64;-127.428224553;-180.474518758
238571.64;-127.267212261;-180.262606698
238572.64;-127.048407273;-180.050711594
238573.64;-127.107127006;-179.838776806
238574.64;-127.334492796;-179.626876898
238575.64;-127.604162754;-179.41495029
238576.64;-128.096383729;-179.203047561
238577.64;-127.698931839;-178.991109093
238578.64;-127.356040306;-178.779193503
238579.64;-127.181136681;-178.56726398
238580.64;-127.015674607;-178.35532302
238581.64;-127.253862868;-178.143388071
238582.64;-127.386136728;-177.931469115
238583.64;-127.070011592;-177.719522318
238584.64;-127.059582259;-177.507593839
238585.64;-127.060868379;-177.295643318
238586.64;-127.183575427;-177.083694105
238587.64;-127.111459198;-176.87172901
238588.64;-127.077502138;-176.659809206
238589.64;-127.191611585;-176.447821709
238590.64;-127.104277916;-176.235862925
238591.64;-127.097037315;-176.023918554
238592.64;-127.294373354;-175.81194108
238593.64;-127.209192329;-175.599979598
238594.64;-127.16467593;12.1091980192
238595.64;-127.11108953;12.1949415967
238596.64;-127.208582736;12.4345150692
238597.64;-127.159266658;12.6740991858
238598.64;-127.169698499;12.9136798273
238599.64;-127.156537158;13.1532658624
238600.64;-127.058085331;13.3928488574
238601.64;-127.014667702;-224.052110985
238602.64;-127.202400688;-223.833126288
238603.64;-127.220901368;-223.614135944
238604.64;-127.100522813;-223.39513061
238605.64;-127.208919417;-223.176142871
238606.64;-127.302286951;-222.957106832
238607.64;-127.253760693;-222.738084011
238608.64;-126.94973117;-222.519064296
238609.64;-127.350094134;-222.300030738
238610.64;-127.491893261;-222.080981
238611.64;-127.15178314;-221.861971273
238612.64;-127.176224385;-221.642902132
238613.64;-127.157591856;-221.423886873
238614.64;-127.29927801;-221.204827497
238615.64;-127.13335013;17.1527600677
238616.64;-127.372556566;17.225599656
238617.64;-127.206835545;17.4651185976
238618.64;-126.947869637;17.7046249315
238619.64;-126.826264204;17.9441513444
238620.64;-126.962674226;18.1836574153
238621.64;-126.945277056;18.4231540861
238622.64;-126.900080595;18.6626457273
238623.64;-126.96197272;18.9021596255
238624.64;-126.954361343;19.1416635596
238625.64;-126.887744447;19.3811310639
238626.64;-126.899699979;19.6206415703
238627.64;-126.938266015;19.8600916677
238628.64;-126.878315683;20.0995753433
238629.64;-127.028177234;20.3390752072
238630.64;-127.111829782;20.5785399519
238631.64;-126.87570116;20.8179999871
238632.64;-126.880129766;21.0574500569
238633.64;-126.793047366;21.2969423301
238634.64;-126.853026787;21.5363756839
238635.64;-126.971088624;21.7758370868
238636.64;-127.023098715;22.0152878105
238637.64;-127.08683675;22.2547265283
238638.64;-127.207064594;22.4941809433
238639.64;-127.138337283;22.7336150193
238640.64;-127.225377697;22.9730701536
238641.64;-127.009408466;23.2124839629
238642.64;-127.056269763;23.4519290323
238643.64;-127.045899709;-214.850483965
238644.64;-127.104697399;-214.631306281
238645.64;-127.046979042;-214.412126493
238646.64;-127.086607162;-214.192940005
238647.64;-126.992776063;-213.973740601
238648.64;-127.04005963;-213.754539888
238649.64;-126.872375296;-213.535337552
238650.64;-126.988719082;-213.316147289
238651.64;-126.990639595;-213.096931648
238652.64;-127.010169289;-212.877711042
238653.64;-127.089933868;-212.658502736
238654.64;-127.051221477;-212.43926703
238655.64;-127.053393908;-212.220050677
238656.64;-127.212935379;-212.000812958
238657.64;-127.222776619;-211.781585988
238658.64;-126.790742104;-211.562349676
238659.64;-127.224939041;-211.343118559
238660.64;-127.232060688;-211.123880987
238661.64;-127.234300942;-210.904624267
238662.64;-127.176972252;-210.685356409
238663.64;-127.134652164;-210.466080778
238664.64;-126.980868052;-210.246826885
238665.64;-126.810162124;-210.027565085
238666.64;-127.053709339;-209.808291537
238667.64;-127.040758495;-209.589025897
238668.64;-126.716935275;-209.369738137
238669.64;-126.58078957;-209.150466107
238670.64;-126.65364299;-208.931175731
238671.64;-126.67132286;-208.711863385
238672.64;-126.871674658;-208.492585604
238673.64;-126.786877904;-208.273295203
238674.64;-126.573648112;-208.053963654
238675.64;-126.661379459;-207.834668565
238676.64;-126.549618464;-207.615361015
238677.64;-126.667016312;-207.396058256
238678.64;-126.82788488;-207.176732029
238679.64;-126.670384474;-206.957382391
238680.64;-126.81598568;-206.738057355
238681.64;-126.766782931;-206.518731454
238682.64;-126.557116317;-206.299398294
238683.64;-126.419568566;-206.080051812
238684.64;-126.67361955;-205.860708877
238685.64;-126.698869063;33.7543262439
238686.64;-126.781101111;33.9831168791
238687.64;-126.779637695;34.2224067334
238688.64;-126.649161792;34.461657491
238689.64;-126.764793492;34.7009126647
238690.64;-126.689186236;34.9401626028
238691.64;-126.693344895;35.1794088669
238692.64;-126.6449691;35.4186463379
238693.64;-126.599519002;35.6578985973
238694.64;-126.56726113;35.897128232
238695.64;-126.602415835;36.1363526773
238696.64;-126.558813192;36.3755818785
238697.64;-126.520583892;36.6148103322
238698.64;-126.573989125;36.8540372957
238699.64;-126.638031626;37.0932469033
238700.64;-126.622014889;37.3324327961
238701.64;-126.652186738;37.5716548305
238702.64;-126.609503366;37.8108483211
238703.64;-126.718650147;38.0500605302
238704.64;-126.54430411;38.2892543018
238705.64;-126.360842583;38.5284502391
238706.64;-126.620480013;38.76761141
238707.64;-126.854834254;39.0068278038
238708.64;-126.606358164;39.2459875775
238709.64;-126.410913549;39.485169161
238710.64;-126.559728102;39.7243547789
238711.64;-126.680753198;39.9635003113
238712.64;-126.667516066;40.2026535645
238713.64;-126.664698058;40.4418102731
238714.64;-126.593197029;40.6809817832
238715.64;-126.392166457;40.9201223732
238716.64;-126.310935887;41.1592749418
238717.64;-126.33502298;41.3984195912
238718.64;-126.395941301;41.6375370847
238719.64;-126.390576953;41.8767016208
238720.64;-126.438170463;42.1158156951
238721.64;-126.432520959;42.3549666338
238722.64;-126.45246287;42.5940791855
238723.64;-126.327725048;42.833197799
238724.64;-126.294831675;43.0722869522
238725.64;-126.515633055;43.311431031
238726.64;-126.276673014;43.5505315587
238727.64;-126.274900794;43.7896182732
238728.64;-126.278155378;44.0287391187
238729.64;-126.25248246;44.267816496
238730.64;-126.183653687;44.5069242034
238731.64;-126.221803571;44.7460157352
238732.64;-126.118868548;44.9850763405
238733.64;-126.022421533;45.2241627082
238734.64;-126.162196382;45.463225101
238735.64;-126.130578214;45.7022977338
238736.64;-126.077478926;45.9413731565
238737.64;-126.147323125;46.1804028905
238738.64;-126.180491903;46.4195022973
238739.64;-126.23536941;46.658554264
238740.64;-126.136617893;46.8975807659
238741.64;-126.1657782;47.1366443491
238742.64;-126.196153675;47.3756694978
238743.64;-126.169694309;47.6147120126
238744.64;-126.234092433;47.8537346008
238745.64;-126.202620148;48.0927698268
238746.64;-126.188740886;48.3318046199
238747.64;-126.282304561;48.5708247883
238748.64;-126.35245947;48.809838294
238749.64;-126.173928378;49.0488328088
238750.64;-126.222783315;49.2878503806
238751.64;-126.29038091;49.526843881
238752.64;-126.206906815;49.7658688983
238753.64;-126.303677211;50.004849207
238754.64;-126.315000409;50.2438362441
238755.64;-126.377427915;50.4828457509
238756.64;-126.258269203;50.7218037683
238757.64;-126.390689944;50.9608162848
238758.64;-126.083722577;-189.618187995
238759.64;-126.03379338;-189.398571
238760.64;-126.132742023;-189.178894586
238761.64;-126.056774618;-188.959257933
238762.64;-126.228403588;-188.739644699
238763.64;-126.25044075;-188.519984115
238764.64;-126.215671766;-188.300314563
238765.64;-126.253705749;-188.080656041
238766.64;-126.277253994;-187.86098917
238767.64;-126.12374217;-187.641324397
238768.64;-126.018411824;-187.421652091
238769.64;-125.896184627;-187.201992186
238770.64;-125.93673938;-186.982323188
238771.64;-125.935615739;-186.762633497
238772.64;-125.701607792;-186.542941952
238773.64;-125.770507487;-186.323249541
238774.64;-125.961501384;-186.103552871
238775.64;-125.99022981;-185.88384999
238776.64;-126.019976445;-185.664152801
238777.64;-126.115301642;-185.444444702
238778.64;-125.965059727;-185.224747884
238779.64;-125.871153068;-185.005052152
238780.64;-125.992925005;-184.785345726
238781.64;-125.782917442;-184.565570738
238782.64;-125.887805174;-184.345869565
238783.64;-125.861142637;-184.126130013
238784.64;-125.89039516;-183.906436634
238785.64;-126.241680017;-183.686676112
238786.64;-125.696887265;-183.46695968
238787.64;-125.636440813;-183.247201433
238788.64;-125.617879704;-183.02747214
238789.64;-125.594434776;-182.807736439
238790.64;-125.689944549;-182.587968362
238791.64;-125.815781126;-182.368203304
238792.64;-125.987851476;-182.148447103
238793.64;-125.900648705;-181.928678344
238794.64;-125.930324342;-181.708904268
238795.64;-125.981387823;-181.489156401
238796.64;-126.12144783;-181.269355921
238797.64;-126.016412686;-181.049599441
238798.64;-125.858701494;-180.829848132
238799.64;-125.962153227;-180.610032076
238800.64;-125.914479156;-180.390253277
238801.64;-125.764094802;-180.170457313
238802.64;-125.805123288;-179.950662308
238803.64;-125.919273354;-179.730868231
238804.64;-125.922272547;-179.51106806
238805.64;-125.938433398;-179.291240712
238806.64;-126.057356855;-179.07145501
238807.64;-126.125826591;-178.851631744
238808.64;-126.178348307;-178.631806198
238809.64;-126.192318072;-178.411994093
238810.64;-126.173924679;-178.192159076
238811.64;-125.983336674;-177.972339173
238812.64;-126.05774528;-177.752513638
238813.64;-125.960126807;-177.532690731
238814.64;-126.097216182;-177.312826242
238815.64;-126.090148249;-177.093007234
238816.64;-126.080777169;-176.873159421
238817.64;-125.868808497;-176.653305734
238818.64;-125.837830503;-176.433449218
238819.64;-127.064219948;-176.213618938
238820.64;-127.931222816;-175.993750328
238821.64;-125.896057534;-175.773877627
238822.64;-124.271558869;-175.554009534
238823.64;-123.650330646;-175.334131814
238824.64;-123.786803244;-175.114271996
238825.64;-123.979256422;-174.894423582
238826.64;-123.781089802;-174.674514466
238827.64;-123.232052185;67.7038641611
238828.64;-123.85877992;67.9171004495
238829.64;-122.888220342;68.1557499923
238830.64;-123.596038765;68.3944018283
238831.64;-123.963078724;68.6330470456
238832.64;-125.518110296;68.8717147834
238833.64;-125.708514431;69.1103442365
238834.64;-125.728204672;69.3489819375
238835.64;-125.418400796;69.5876214857
238836.64;-125.24552179;69.8262527921
238837.64;-125.207634118;70.0648612358
238838.64;-125.401566622;70.3034811812
238839.64;-125.390806759;70.5421049858
238840.64;-125.54881586;70.7807144409
238841.64;-125.510378942;71.0192954728
238842.64;-125.3416179;71.2579145457
238843.64;-125.241438229;71.4965135899
238844.64;-125.377436222;71.7350788399
238845.64;-125.277847555;71.9736741257
238846.64;-125.137259472;72.2122573106
238847.64;-125.291020218;72.4508305472
238848.64;-125.299440681;72.689424674
238849.64;-125.306354573;72.9279770737
238850.64;-125.245092864;73.1665381533
238851.64;-125.392221522;73.4051050305
238852.64;-125.399151317;73.6436454846
238853.64;-125.386543478;73.8821908171
238854.64;-125.567493741;74.1207333343
238855.64;-125.492221662;74.3592554788
238856.64;-125.372181165;74.5978089765
238857.64;-125.377365764;74.8363400605
238858.64;-125.487817927;75.0748753991
238859.64;-125.311763851;75.313398274
238860.64;-125.223024697;75.5519133594
238861.64;-125.181575299;75.790410397
238862.64;-125.20888814;76.0288982018
238863.64;-125.298858696;76.2674139719
238864.64;-125.276148564;76.5059190246
238865.64;-125.112294258;76.744374351
238866.64;-125.091950897;76.9828621526
238867.64;-125.232729064;77.2213582446
238868.64;-125.168237405;77.4598518198
238869.64;-125.216484763;77.6983126867
238870.64;-125.249099592;77.9367791413
238871.64;-125.208088709;78.1752403956
238872.64;-125.501634045;78.4137117711
238873.64;-125.483112135;78.6521521085
238874.64;-125.473565894;78.8905988459
238875.64;-125.484335364;79.1290432314
238876.64;-125.468575262;79.3674630589
238877.64;-125.531886563;79.6059052899
238878.64;-125.500678143;79.8443390242
238879.64;-125.500916389;80.0827717205
238880.64;-125.524829436;80.3211730123
238881.64;-125.651846334;80.5595900114
238882.64;-125.570690338;80.7979846632
238883.64;-125.67991605;81.0364148955
238884.64;-125.549751905;81.2747982103
238885.64;-125.620362945;81.5131858055
238886.64;-125.763243933;81.7515700375
238887.64;-125.778398567;81.9899485041
238888.64;-125.570315399;82.2283239113
238889.64;-125.604988083;82.4667121863
238890.64;-125.655306822;82.7050846949
238891.64;-125.648616431;82.9434407882
238892.64;-125.56945285;83.1818060959
238893.64;-125.488933581;83.4201628166
238894.64;-125.474453832;83.6585016319
238895.64;-125.325765072;83.8968624892
238896.64;-125.458737588;84.1352075843
238897.64;-125.35598812;84.3735379059
238898.64;-125.275879838;84.6118794048
238899.64;-125.237232841;84.8501797833
238900.64;-125.217489451;85.088511298
238901.64;-125.194835901;85.3268281958
238902.64;-125.201885802;85.5651331624
238903.64;-125.300557408;85.8034229781
238904.64;-125.226762112;86.0417174567
238905.64;-125.187145828;86.2800124013
238906.64;-125.171553241;86.5183071234
238907.64;-125.390539424;86.7565952305
238908.64;-125.448398789;86.9948790672
238909.64;-125.408437685;87.2331398039
238910.64;-125.398171561;87.4713949199
238911.64;-125.286887712;87.7096809098
238912.64;-125.371931938;87.947937486
238913.64;-125.472421388;88.1861824964
238914.64;-125.500237808;88.4244400805
238915.64;-125.319082638;88.6626883825
238916.64;-125.424271635;88.9009243994
238917.64;-125.357176352;89.1391744919
238918.64;-125.48059234;89.3773634654
238919.64;-125.515053702;89.615617841
238920.64;-125.477933679;89.8537988951
238921.64;-125.287002051;90.0920552826
238922.64;-125.394172544;90.3302701085
238923.64;-125.462327053;90.5684501979
238924.64;-125.389033634;90.8066615998
238925.64;-125.433926954;91.0448559266
238926.64;-125.378845832;91.283031282
238927.64;-125.368509014;91.5211933512
238928.64;-125.371224006;91.7593808419
238929.64;-125.332723626;91.9975717569
238930.64;-125.307938284;92.235730383
238931.64;-125.245434505;92.4739063343
238932.64;-125.317342596;92.7120546088
238933.64;-125.267961671;92.950202954
238934.64;-125.192205343;93.1883575084
238935.64;-125.020793779;93.4264763922
238936.64;-124.915156725;93.6646294125
238937.64;-124.914798864;93.9027780023
238938.64;-125.020739105;94.1408905388
238939.64;-125.302062898;94.3790081274
238940.64;-125.589251518;94.6171216787
238941.64;-125.662195557;94.8552255663
238942.64;-125.404073179;95.0933386223
238943.64;-125.29107183;95.3314486737
238944.64;-125.198418204;95.5695323796
238945.64;-125.259086233;95.8076148513
238946.64;-125.243555465;96.0457175809
238947.64;-125.397767284;96.2838081258
238948.64;-125.400266827;96.521864816
238949.64;-125.186541508;96.7599321956
238950.64;-124.936099338;96.9979981935
238951.64;-125.066141962;97.236051758
238952.64;-125.016708871;97.4740932216
238953.64;-125.110201664;97.7121665485
238954.64;-125.163305065;97.9502098489
238955.64;-125.267606724;98.1882346037
238956.64;-125.470748753;98.4262484072
238957.64;-125.398649802;98.6642963069
238958.64;-124.999228505;-145.621685665
238959.64;-124.887926664;-145.401398068
238960.64;-124.955345621;-145.181096446
238961.64;-124.976878525;-144.960810137
238962.64;-125.058328293;-144.740469892
238963.64;-124.940015604;-144.520163349
238964.64;-124.909783374;-144.299834435
238965.64;-125.029977333;-144.079522869
238966.64;-124.724778816;-143.859220428
238967.64;-124.626228968;-143.638900761
238968.64;-124.666328786;-143.418563337
238969.64;-124.874414334;-143.19820726
238970.64;-124.758886323;-142.977889661
238971.64;-124.712870606;-142.757535374
238972.64;-124.723350113;-142.537198965
238973.64;-124.687898968;-142.316849147
238974.64;-124.702311982;-142.096519525
238975.64;-124.614936011;-141.876179749
238976.64;-124.605306801;103.234910763
238977.64;-124.832786319;103.423706419
238978.64;-124.757347691;103.661623751
238979.64;-124.666882559;103.899531658
238980.64;-124.715470665;104.137446355
238981.64;-124.770555436;104.37532266
238982.64;-124.652379175;104.613213264
238983.64;-124.703733147;104.851104458
238984.64;-124.69650253;105.088988805
238985.64;-124.778136462;105.326875062
238986.64;-124.692422537;105.564735436
238987.64;-124.668983766;105.802617763
238988.64;-124.706502147;106.040485332
238989.64;-124.609494992;106.278319664
238990.64;-124.739230801;106.516164787
238991.64;-124.671684147;106.754022702
238992.64;-124.636401044;106.991852981
238993.64;-124.680199013;107.229698448
238994.64;-124.699819999;107.4675128
238995.64;-124.674487888;107.705350458
238996.64;-124.680435953;107.943165588
238997.64;-124.816076595;108.180976755
238998.64;-125.03728001;108.418775953
238999.64;-125.041103773;108.65657302
239000.64;-125.010157584;108.894373226
239001.64;-124.795829522;109.132160751
239002.64;-124.79107601;109.369945482
239003.64;-124.75158024;109.607713773
239004.64;-124.615784862;-88.2725052873
239005.64;-124.643663626;-88.0596468215
239006.64;-124.682693776;-87.846787397
239007.64;-124.486365953;-666.965657428
239008.64;-124.385380108;-666.729377395
239009.64;-124.391798752;-1546.09060423
239010.64;-124.48225554;-1545.8896714
239011.64;-124.593973858;-1545.68864364
239012.64;-124.386943561;-1545.48761319
239013.64;-124.321733322;-1545.28652981
239014.64;-124.387351391;-1545.08543666
239015.64;-124.319051155;-1544.88432609
239016.64;-124.270248111;-727.459128633
239017.64;-124.23809841;-727.420959387
239018.64;-124.237158725;-727.174509952
239019.64;-124.387803266;-726.928033312
239020.64;-124.289232631;-726.681562059
239021.64;-124.337931881;-726.435089421
239022.64;-124.294086273;-726.188598496
239023.64;-124.4103964;-725.942107594
239024.64;-124.439208285;-725.695632117
239025.64;-124.396355966;-725.449120148
239026.64;-124.433375579;-725.202610241
239027.64;-124.582911801;-724.956083497
239028.64;-124.558989695;-724.709564282
239029.64;-124.668920815;-724.46305546
239030.64;-124.610864151;-724.216499946
239031.64;-124.501439092;-723.969932304
239032.64;-124.494979255;-723.723421536
239033.64;-124.35896795;-723.476813592
239034.64;-124.374204789;-723.230253838
239035.64;-124.429484263;-722.983709017
239036.64;-124.442946938;-722.737133751
239037.64;-124.575936026;-722.490538417
239038.64;-124.504684758;-722.243948101
239039.64;-124.450603179;-721.997363893
239040.64;-124.545122809;-721.750726018
239041.64;-124.675049501;-721.504130344
239042.64;-124.630969337;-721.257533999
239043.64;-124.594517276;-721.010893105
239044.64;-124.5472833;-720.76424933
239045.64;-124.641865563;-720.517611441
239046.64;-124.630803645;-720.270977334
239047.64;-124.636346183;-720.024317359
239048.64;-124.625716049;-719.777667987
239049.64;-124.500992406;-719.530980439
239050.64;-124.402868387;-719.284323526
239051.64;-124.462339879;-719.037648417
239052.64;-124.568340354;-718.790970441
239053.64;-124.463352484;-718.544276556
239054.64;-124.450629909;-718.297583767
239055.64;-124.517374847;-718.050887972
239056.64;-124.630778291;-717.804159464
239057.64;-124.543054783;-717.557426917
239058.64;-124.580128804;-717.310703212
239059.64;-124.399261073;-717.063977823
239060.64;-124.332266711;-716.817266049
239061.64;-124.22946128;-716.570456118
239062.64;-124.314247814;-716.323736798
239063.64;-124.211354544;-716.076996632
239064.64;-124.441055888;-715.830227564
239065.64;-124.359031377;-715.583446787
239066.64;-124.331922509;-715.336657195
239067.64;-124.326882102;-715.089876203
239068.64;-124.305457128;-714.843101379
239069.64;-124.326017721;-714.596308296
239070.64;-124.355363863;-714.349491064
239071.64;-124.346841306;-714.102680379
239072.64;-124.37582944;-713.855866577
239073.64;-124.363037406;-713.609062646
239074.64;-124.323268887;-713.36220114
239075.64;-124.332178542;-713.115390122
239076.64;-124.434241689;-712.868543906
239077.64;-124.445668742;-712.621663985
239078.64;-124.401493038;-712.37483451
239079.64;-124.386964677;-712.127977212
239080.64;-124.496881456;-711.881129434
239081.64;-124.621637213;-711.634226397
239082.64;-124.430006989;-711.387365537
239083.64;-124.370945954;-711.140435005
239084.64;-124.487752911;-710.893578849
239085.64;-124.359814689;-710.64666763
239086.64;-124.246941853;-710.399780568
239087.64;-124.360972648;-710.152840206
239088.64;-124.299297722;-709.905935308
239089.64;-124.386025002;-709.658987854
239090.64;-124.400284371;-709.412048628
239091.64;-124.450310081;-709.16509781
239092.64;-124.209936107;-708.918171218
239093.64;-123.918781596;-708.67121385
239094.64;-123.929754088;-251.638241038
239095.64;-124.303644139;-251.394243267
239096.64;-124.014865228;-251.133121401
239097.64;-123.915169542;-250.872036832
239098.64;-124.025419957;-250.610931151
239099.64;-124.094630824;-250.349797396
239100.64;-124.113568846;-250.088760711
239101.64;-123.953918815;-249.827661273
239102.64;-124.268095224;-249.566581282
239103.64;-124.176254437;-249.30549926
239104.64;-124.147896729;-249.044431931
239105.64;-124.163244046;-248.783326131
239106.64;-124.119643994;-248.522249049
239107.64;-124.0944118;-248.261198684
239108.64;-124.298875776;-248.000118129
239109.64;-124.252186495;-247.739085292
239110.64;-124.190440926;-247.478009698
239111.64;-124.199828099;-247.216975801
239112.64;-124.230324687;-246.95594992
239113.64;-124.143386584;-246.69489156
239114.64;-124.132103439;-246.433871942
239115.64;-124.15186829;-246.172855838
239116.64;-124.215585372;-245.911824781
239117.64;-124.137907337;-245.650828185
239118.64;-124.063742491;-245.389823617
239119.64;-124.151508509;-702.24821845
239120.64;-124.094536862;-702.001079883
239121.64;-123.971593841;-701.753972447
239122.64;-123.959171496;-701.506804959
239123.64;-123.998319896;-701.259688904
239124.64;-123.882230891;-701.012537603
239125.64;-123.91045034;-700.765361436
239126.64;-123.97661183;-700.518218541
239127.64;-124.065622069;-700.271064465
239128.64;-124.044074513;-700.023863571
239129.64;-123.928196103;-699.776689128
239130.64;-124.049060821;-699.529494045
239131.64;-123.964462067;-699.282295735
239132.64;-123.904469522;-699.035095746
239133.64;-124.029658992;-698.787895871
239134.64;-124.00682958;-698.540696944
239135.64;-123.830826723;-240.941109278
239136.64;-123.599190135;-240.692535868
239137.64;-123.474393145;-240.431625161
239138.64;-123.523260206;-240.1707224
239139.64;-123.615863803;-239.909815942
239140.64;-123.570223626;-239.648944902
239141.64;-123.727509109;-239.388051358
239142.64;-123.941413094;-239.127157197
239143.64;-124.094227086;-238.866274111
239144.64;-123.921095638;-238.605426984
239145.64;-123.765070513;-238.344527003
239146.64;-123.749738862;-238.0836642
239147.64;-124.118816492;-237.822834279
239148.64;-123.753297602;-237.561960837
239149.64;-123.733297895;-237.301130154
239150.64;-123.657044623;-237.040269229
239151.64;-123.645082169;-236.779439967
239152.64;-123.762602657;-236.518609737
239153.64;-123.78404126;-236.257784221
239154.64;-123.718379704;-235.996953628
239155.64;-123.571108686;-235.736153598
239156.64;-123.53828609;-235.47535436
239157.64;-123.854457789;-235.214534958
239158.64;-123.765032716;-234.953756437
239159.64;-123.63633006;-234.692962085
239160.64;-123.674249426;-234.432186543
239161.64;-123.775406622;-234.171374805
239162.64;-123.877032874;-233.910613543
239163.64;-123.76456671;-233.649842751
239164.64;-123.814808118;-233.389081511
239165.64;-123.826195632;-233.128305962
239166.64;-123.782116365;-232.867557516
239167.64;-123.712863556;-232.606803181
239168.64;-123.344577563;-232.346049627
239169.64;-124.256372668;-232.085312065
239170.64;-124.032871539;-231.82459684
239171.64;-123.668912304;-231.563867269
239172.64;-123.710621501;-231.303114117
239173.64;-123.84532076;-231.042417379
239174.64;-124.012851586;-230.78171549
239175.64;-123.804975233;-230.52099422
239176.64;-123.933673973;-230.260309532
239177.64;-124.007463899;-229.999613414
239178.64;-123.910360137;-229.738929248
239179.64;-123.923028355;-229.478224465
239180.64;-123.900608776;-229.21757653
239181.64;-123.972095864;-228.956903176
239182.64;-123.949773853;-228.696194734
239183.64;-123.708642137;-228.435574618
239184.64;-123.899460681;-228.174902474
239185.64;-123.976433968;-227.914244583
239186.64;-123.882533348;-227.653599587
239187.64;-123.869118372;-227.392968116
239188.64;-123.856895537;-227.132344201
239189.64;-123.8122068;-226.871691729
239190.64;-123.755265909;-226.611083987
239191.64;-123.714154315;-226.350482596
239192.64;-123.861892547;-226.08984966
239193.64;-124.043843396;-225.829252523
239194.64;-123.960749241;-225.568649701
239195.64;-123.80052121;-225.308055086
239196.64;-123.840517461;-225.04748493
239197.64;-123.82499611;-224.78687011
239198.64;-123.748402574;-224.526304676
239199.64;-123.98273609;-224.265725108
239200.64;-123.743276258;-224.005168697
239201.64;-124.066656856;-223.744580937
239202.64;-123.846180734;-223.484073163
239203.64;-123.906485967;-223.223486406
239204.64;-124.029379087;-222.962965565
239205.64;-124.112579217;-222.702413657
239206.64;-123.972383138;-222.441895604
239207.64;-123.814977356;-222.181355916
239208.64;-123.92478041;-221.920833849
239209.64;-123.827402357;-221.660330396
239210.64;-123.637975716;-221.399805772
239211.64;-123.67242499;-221.13929974
239212.64;-123.742420583;-220.878808054
239213.64;-123.658908745;-220.618307452
239214.64;-123.730868959;-220.357818188
239215.64;-123.997960358;-220.097339316
239216.64;-124.034023423;-219.836873096
239217.64;-123.259916759;-219.576394778
239218.64;-124.05985044;-219.315931867
239219.64;-123.961779174;-219.055481044
239220.64;-123.845111487;-218.795028509
239221.64;-123.865384688;-218.534587703
239222.64;-123.843071095;-218.274123644
239223.64;-123.699125408;-218.013699546
239224.64;-123.614323708;-217.753257243
239225.64;-123.58310061;-217.492851045
239226.64;-123.712777861;-217.232422503
239227.64;-123.747360648;-216.972009533
239228.64;-123.82411495;-216.711584948
239229.64;-123.831997339;-216.451208441
239230.64;-123.764643454;-216.190790575
239231.64;-123.88579255;-215.930408102
239232.64;-123.663003522;-215.670045
239233.64;-123.731241097;-215.409659584
239234.64;-123.787958708;-215.149286057
239235.64;-123.866544502;-214.888925919
239236.64;-123.733219943;-214.628546113
239237.64;-123.633113854;-214.36816867
239238.64;-123.638734177;-214.107851195
239239.64;-123.774027959;-213.847526029
239240.64;-123.782725411;-213.587175439
239241.64;-123.816260348;-213.326832787
239242.64;-123.664505495;-213.06654772
239243.64;-123.538666074;-212.806209656
239244.64;-123.736074322;-212.545877988
239245.64;-123.509308329;-212.285580268
239246.64;-123.283338136;-212.025281232
239247.64;-123.462837224;-211.764991761
239248.64;-123.375730374;-670.318738027
239249.64;-123.351516669;-670.070825448
239250.64;-123.185495512;-669.82290254
239251.64;-123.612530747;-669.575030947
239252.64;-123.385033124;-669.32711318
239253.64;-123.294628954;-669.079176364
239254.64;-123.36324507;-668.831238953
239255.64;-123.440284075;-668.583340264
239256.64;-123.415564847;-668.335396127
239257.64;-123.34610705;-668.087437999
239258.64;-123.283714831;-667.839480733
239259.64;-123.251210047;-667.591545331
239260.64;-123.259935772;-667.343586074
239261.64;-123.255961265;-667.095627497
239262.64;-123.416812383;-666.847648786
239263.64;-123.538262573;-666.599662385
239264.64;-123.419847074;-666.351662387
239265.64;-123.462192321;-666.103696246
239266.64;-123.566273362;-665.855694798
239267.64;-123.636801452;-665.607713451
239268.64;-123.553176722;-665.359713243
239269.64;-123.520966855;-665.111679289
239270.64;-123.614920931;-664.863663273
239271.64;-123.821599232;-664.615659731
239272.64;-123.697988322;-664.367613546
239273.64;-123.433578305;-664.119601216
239274.64;-123.423065125;-663.871542013
239275.64;-123.287197004;-663.623506664
239276.64;-123.488640433;-663.375443639
239277.64;-123.379729903;-663.12740614
239278.64;-123.430994479;-662.87934149
239279.64;-123.567004248;-662.631266534
239280.64;-123.343711689;-662.383224323
239281.64;-123.432289019;-662.135121185
239282.64;-123.3960602;-661.887034135
239283.64;-123.446439692;-661.638973503
239284.64;-123.43931335;-661.390864079
239285.64;-123.519763129;-661.142761657
239286.64;-123.452154033;-660.894660844
239287.64;-123.469885626;-660.646534476
239288.64;-123.503850677;-660.398418944
239289.64;-123.31716503;-660.150318897
239290.64;-123.507159317;-659.902173434
239291.64;-123.365801582;-659.654046579
239292.64;-123.227157973;-659.405924049
239293.64;-123.468369609;-659.157758505
239294.64;-123.245601435;-658.909650456
239295.64;-123.241544637;-658.661481204
239296.64;-123.293546336;-658.413313296
239297.64;-123.604724897;-658.165131997
239298.64;-123.571415068;-657.916981821
239299.64;-123.545352235;-657.668810749
239300.64;-123.497175551;-657.42059245
239301.64;-123.540854509;-657.172420628
239302.64;-123.515989184;-656.924235254
239303.64;-123.628002111;-656.676028326
239304.64;-123.421897453;-656.427828528
239305.64;-123.488659328;-656.17962054
239306.64;-123.420442252;-655.931409439
239307.64;-123.545998284;-655.683186029
239308.64;-123.520779632;-655.43495925
239309.64;-123.31884757;-655.18676095
239310.64;-123.516473778;-654.938494381
239311.64;-123.179382582;-654.690259724
239312.64;-123.174321415;-654.442009107
239313.64;-123.329589449;-654.193748993
239314.64;-123.601498827;-653.945480006
239315.64;-123.468954298;-653.697244806
239316.64;-123.19946692;-653.448976258
239317.64;-123.354444578;-653.200723543
239318.64;-123.259748898;-652.95240581
239319.64;-123.253030462;-652.704136766
239320.64;-123.045084151;-652.455834755
239321.64;-123.124318907;-652.207577779
239322.64;-123.03611537;-651.959240232
239323.64;-122.881953138;-651.710940714
239324.64;-122.873307149;-651.462649186
239325.64;-123.208173282;-651.214293779
239326.64;-123.124571809;-650.965985735
239327.64;-123.068638789;-650.717665526
239328.64;-123.203216374;-650.469349699
239329.64;-123.057107539;-650.221009341
239330.64;-122.975637242;-649.972669192
239331.64;-123.00790663;-649.724311632
239332.64;-123.026830274;-649.47594675
239333.64;-122.99228092;-189.344693002
239334.64;-123.192147489;-189.142519863
239335.64;-123.258152059;-188.882733306
239336.64;-123.382643597;-188.622999201
239337.64;-123.160829548;-188.363265022
239338.64;-122.951336555;-188.10353239
239339.64;-123.582288209;-187.843811082
239340.64;-123.192149208;-187.584075442
239341.64;-123.083836409;-187.324361206
239342.64;-123.197617551;-187.064656117
239343.64;-123.30241368;-186.804948549
239344.64;-123.325818754;-186.545276895
239345.64;-123.283544282;-186.285563306
239346.64;-123.139562601;-186.025879657
239347.64;-123.208670804;-185.766231043
239348.64;-123.137162423;-185.506559314
239349.64;-123.090803175;-185.246855775
239350.64;-123.315060466;-184.987225945
239351.64;-123.519137384;-184.72755068
239352.64;-122.965637269;-184.467909911
239353.64;-123.315092557;-184.208282914
239354.64;-123.598520203;-183.948659487
239355.64;-123.186064326;-183.689025696
239356.64;-123.199012469;-183.429414768
239357.64;-123.164688806;-183.169808392
239358.64;-123.165151612;-182.910216978
239359.64;-123.08459925;-182.650622465
239360.64;-123.039924941;-182.391009673
239361.64;-122.972082562;-182.131442885
239362.64;-122.902071816;-181.871852916
239363.64;-123.38752898;-181.612287957
239364.64;-123.086459599;-181.352690464
239365.64;-123.096388898;-181.093157503
239366.64;-123.02366751;-180.8335882
239367.64;-122.742217238;-180.574056418
239368.64;-123.16268242;-180.314514055
239369.64;-123.459724142;-180.054967837
239370.64;-123.34916875;-179.795444136
239371.64;-123.303098635;-179.53594607
239372.64;-123.1302474;-179.276421504
239373.64;-123.153503103;-179.016907034
239374.64;-123.174642483;-178.757415135
239375.64;-122.949301077;-178.497928985
239376.64;-122.779794862;-178.238402414
239377.64;-122.785556913;-177.978973937
239378.64;-122.763549441;-177.719492214
239379.64;-122.878665011;-177.460021572
239380.64;-122.908835004;-177.200560115
239381.64;-123.125924964;-176.941096386
239382.64;-122.975845459;-176.681673337
239383.64;-122.975007613;-176.422227017
239384.64;-122.899153434;-176.162791753
239385.64;-122.73895191;-175.903363991
239386.64;-122.635195315;-175.643946695
239387.64;-122.664048004;-175.384523954
239388.64;-122.659940374;-175.125118252
239389.64;-122.841583937;-174.865738902
239390.64;-122.912845509;-174.606333629
239391.64;-123.046456382;-174.34695467
239392.64;-123.013470876;-174.087568331
239393.64;-123.067382664;-173.828192733
239394.64;-123.255928715;-173.568841492
239395.64;-123.260437107;-173.309459576
239396.64;-123.275341862;-173.050115483
239397.64;-123.128717269;-172.790755758
239398.64;-123.25245256;-172.531439873
239399.64;-123.237270634;-172.272082071
239400.64;-123.114566724;-172.012791786
239401.64;-122.89142503;-171.753467123
239402.64;-123.01259652;-171.49413443
239403.64;-123.10903545;-171.234849918
239404.64;-122.946281557;204.912918629
239405.64;-123.180626069;204.691457733
239406.64;-123.351469913;204.926608483
239407.64;-123.269791912;205.161746708
239408.64;-123.311988308;205.396850216
239409.64;-123.303392721;205.631961791
239410.64;-123.467066477;205.867070407
239411.64;-123.399110012;206.102171515
239412.64;-123.324933042;206.337250614
239413.64;-123.335505381;206.572341779
239414.64;-123.252926462;206.80742349
239415.64;-123.208039657;207.0425076
239416.64;-123.176459999;207.277572271
239417.64;-123.107797262;207.512617432
239418.64;-123.106510731;207.747667412
239419.64;-123.002925384;207.982683941
239420.64;-123.012589384;208.217724168
239421.64;-123.192586554;208.452748777
239422.64;-123.169431626;208.687793817
239423.64;-123.1488931;208.922781149
239424.64;-123.106096171;209.157763102
239425.64;-122.919314876;209.392774379
239426.64;-123.082752322;209.627767749
239427.64;-123.192108628;209.86274592
239428.64;-123.105970402;210.097714427
239429.64;-123.105808409;210.332653893
239430.64;-122.960680224;210.567626642
239431.64;-122.874969704;210.802567455
239432.64;-122.926377047;211.037501773
239433.64;-122.811745495;211.27245366
239434.64;-122.427263959;211.507352176
239435.64;-122.824976726;211.742273837
239436.64;-122.960370172;211.977206751
239437.64;-122.896233474;212.212080746
239438.64;-122.79395511;212.446996389
239439.64;-122.828236729;212.681884592
239440.64;-122.847724084;212.916735844
239441.64;-122.840615189;213.151612355
239442.64;-122.745237473;213.38647967
239443.64;-122.679552554;213.621342975
239444.64;-123.065479478;213.856168923
239445.64;-122.963093169;214.091019326
239446.64;-122.798831967;214.325840567
239447.64;-122.856999091;214.560685884
239448.64;-122.985347947;214.795482912
239449.64;-122.98301482;215.030293487
239450.64;-122.911166223;215.26509236
239451.64;-122.861972549;215.499892203
239452.64;-122.680582693;215.734669521
239453.64;-122.76306716;215.969441154
239454.64;-122.81606765;216.20420677
239455.64;-123.037021338;216.438983725
239456.64;-123.011112979;216.673751312
239457.64;-122.98116254;216.908474525
239458.64;-122.891413079;217.143222718
239459.64;-123.087832863;217.377943345
239460.64;-122.830935951;217.612661875
239461.64;-122.729323968;217.847371588
239462.64;-122.703079778;218.082098275
239463.64;-122.83138675;218.316780749
239464.64;-123.362781196;218.551490736
239465.64;-122.747158628;218.786162314
239466.64;-122.882102244;219.020847737
239467.64;-122.838173558;219.255508037
239468.64;-122.872770612;219.490160689
239469.64;-122.546839974;219.724799431
239470.64;-122.470718487;219.95943455
239471.64;-122.823292546;220.194080641
239472.64;-122.898326432;220.428727908
239473.64;-122.770457823;220.663355109
239474.64;-122.631490193;220.897957066
239475.64;-122.58744468;221.132558774
239476.64;-122.458460885;221.367143638
239477.64;-122.468914851;221.601739812
239478.64;-122.684855967;221.836321975
239479.64;-122.790664439;222.070886676
239480.64;-122.76912669;222.305453732
239481.64;-122.87788295;222.540005483
239482.64;-122.725521242;222.77454613
239483.64;-122.82061118;-29.6632861657
239484.64;-122.964519936;-29.442035548
239485.64;-122.920011225;-29.220778302
239486.64;-122.908104022;-28.9995020024
239487.64;-122.805201564;-28.7782603614
239488.64;-122.895845136;-28.5569908652
239489.64;-123.091997427;-28.335745574
239490.64;-122.812755364;-28.1144753687
239491.64;-122.616524665;-27.8932155414
239492.64;-122.949068324;-27.6719740029
239493.64;-123.195824608;-27.4507077616
239494.64;-123.011143116;-27.229442177
239495.64;-122.571987378;-27.0081763645
239496.64;-122.732865269;-26.7869220268
239497.64;-122.95680828;-26.5656410217
239498.64;-122.827654827;-26.3443709503
239499.64;-122.963922012;-26.1230991357
239500.64;-122.775268441;-25.901861137
239501.64;-122.656109239;-25.6806002777
239502.64;-122.60703875;-25.4593030946
239503.64;-122.835007486;-25.238063498
239504.64;-122.796919292;-25.0167899943
239505.64;-122.789114848;-24.7955134879
239506.64;-122.637190425;-24.5742456984
239507.64;-122.74523508;-24.3529408007
239508.64;-122.767755652;-24.1316923242
239509.64;-122.573682612;-23.9104161954
239510.64;-122.427851029;-23.6891316891
239511.64;-122.650243061;-23.4678904635
239512.64;-122.812031364;-23.2466004757
239513.64;-122.85450634;-23.0253235
239514.64;-122.940190466;-22.8040567641
239515.64;-123.014576094;-22.5827979429
239516.64;-122.824650239;-22.3615154968
239517.64;-122.696675155;-22.1402170843
239518.64;-122.670445165;-21.9189307205
239519.64;-122.807751425;-21.6976721606
239520.64;-122.685862886;-21.4763883451
239521.64;-122.602472946;-21.2551152911
239522.64;-122.507375544;-21.0338279564
239523.64;-122.712472356;-20.8125434422
239524.64;-122.794147971;-20.5912883169
239525.64;-122.748685936;-20.3699917529
239526.64;-122.357898833;-20.1487004436
239527.64;-122.734742452;-19.9274271861
239528.64;-123.084993295;-19.7061285848
239529.64;-122.948195601;-19.4848675572
239530.64;-122.710986188;-19.2635763462
239531.64;-122.755611162;-19.0422787279
239532.64;-122.679766584;-18.8209998519
239533.64;-122.654861701;-18.599696292
239534.64;-122.707362182;-18.3784113675
239535.64;-122.723340393;-18.157135877
239536.64;-122.931716245;-17.9358500918
239537.64;-122.976814904;-17.7145717515
239538.64;-122.913713678;-17.4932792481
239539.64;-122.791452288;-17.2719855136
239540.64;-122.794190127;-17.0506968281
239541.64;-122.878990347;-16.8294058225
239542.64;-122.87317263;-16.6081307356
239543.64;-123.006049415;-16.3868409886
239544.64;-123.044575726;-16.1655493504
239545.64;-122.852088168;-15.9442669757
239546.64;-122.892388847;-15.7229575469
239547.64;-123.041656246;-15.5016499957
239548.64;-122.982976183;-15.280348549
239549.64;-123.086624792;-15.0590841418
239550.64;-123.03635941;-14.8377726909
239551.64;-122.919501648;-14.6165018317
239552.64;-122.841880532;-14.3951752361
239553.64;-122.910622799;-14.1738904273
239554.64;-122.865851108;-13.9525933815
239555.64;-122.730294833;-13.7313031699
239556.64;-122.82735698;-13.5100012045
239557.64;-122.897467377;-13.2886926952
239558.64;-122.826388825;-13.0673877676
239559.64;-122.814528323;-12.8461063941
239560.64;-122.799130174;-12.6247990309
239561.64;-122.772226853;-12.4034932043
239562.64;-122.899405363;-12.1821844603
239563.64;-122.722954457;-11.9609216037
239564.64;-122.833753118;-11.739599348
239565.64;-122.732883055;-11.5183016511
239566.64;-122.821858892;-11.2970030308
239567.64;-122.873730742;-11.0756997864
239568.64;-122.786944497;-10.8543878895
239569.64;-122.741586407;-10.6331029397
239570.64;-122.689590521;-10.411791831
239571.64;-122.661830203;-10.1904917004
239572.64;-122.653609726;-9.96919897454
239573.64;-122.631132493;-9.74789993027
239574.64;-122.636434611;-9.52661583968
239575.64;-122.586809629;-9.30527732076
239576.64;-122.742508538;-9.08398420819
239577.64;-122.728276081;-8.86266157147
239578.64;-122.571686074;-8.64136012587
239579.64;-122.543232101;-8.4200687153
239580.64;-122.726695271;-8.19874906869
239581.64;-122.70448097;-7.97743715667
239582.64;-122.792676094;246.252883935
239583.64;-122.69823378;246.422184756
239584.64;-122.809103122;246.655887209
239585.64;-122.85826593;246.889580633
239586.64;-122.806422869;247.12329607
239587.64;-122.695817114;247.356991866
239588.64;-122.736415164;247.590663657
239589.64;-122.612953558;247.824333515
239590.64;-122.546547879;248.057984869
239591.64;-122.762354388;248.291646606
239592.64;-122.690693868;248.525284098
239593.64;-122.701454276;248.758922182
239594.64;-122.618085205;248.992552056
239595.64;-122.514425896;249.226165325
239596.64;-122.469164721;249.459778774
239597.64;-122.496812599;249.69334916
239598.64;-122.551921397;249.92697791
239599.64;-122.412742732;250.160570685
239600.64;-122.45875494;250.394137358
239601.64;-122.493814802;250.627715155
239602.64;-122.383586409;250.861275026
239603.64;-122.444689246;251.094803181
239604.64;-122.449491002;251.32836957
239605.64;-122.41489594;251.561893912
239606.64;-122.484393096;251.795425169
239607.64;-122.4794981;252.028940119
239608.64;-122.468152521;252.262459038
239609.64;-122.304716317;252.495934945
239610.64;-122.36602501;252.729455214
239611.64;-122.442847536;252.962912681
239612.64;-122.493473125;253.196388842
239613.64;-122.356981372;253.429871217
239614.64;-122.290842262;253.663323667
239615.64;-122.317071208;253.896787713
239616.64;-122.393169763;254.130201865
239617.64;-122.405171648;-0.0102067247441
239618.64;-122.328722213;0.211104270406
239619.64;-122.294462232;0.432433052133
239620.64;-122.431524541;0.653736282758
239621.64;-122.219573685;0.875041302647
239622.64;-122.155061563;1.09636058757
239623.64;-122.314218441;1.31768547141
239624.64;-122.218469762;1.53901085142
239625.64;-122.276875572;1.76032218226
239626.64;-122.323375437;1.98165122074
239627.64;-122.464006323;2.20296471318
239628.64;-122.673416354;2.42428190388
239629.64;-122.588710305;2.64558096519
239630.64;-122.649516119;2.86689920359
239631.64;-122.712449577;3.08822526465
239632.64;-122.659413895;3.30955607221
239633.64;-122.461299162;3.53083234901
239634.64;-122.644175099;3.75219178604
239635.64;-122.642111128;3.97352050938
239636.64;-122.268427081;4.19483407894
239637.64;-122.114861625;4.41612852275
239638.64;-122.377504076;4.63745468612
239639.64;-122.419080003;4.85876769629
239640.64;-122.622376811;5.08008996741
239641.64;-122.592084448;5.30141567004
239642.64;-122.644410595;5.52273902626
239643.64;-122.558869453;5.74407421896
239644.64;-122.30013083;5.96536116919
239645.64;-122.216176741;6.18668960633
239646.64;-122.480851893;6.4080281673
239647.64;-122.286008324;6.62931504016
239648.64;-121.921029705;6.85065427976
239649.64;-122.075383277;7.0719820541
239650.64;-122.260669153;7.29327846062
239651.64;-122.234574783;7.51461396548
239652.64;-122.271802822;400.636607921
239653.64;-122.18246557;400.822504925
239654.64;-121.875376905;401.008373201
239655.64;-121.684557775;401.194214155
239656.64;-122.359312594;401.380071631
239657.64;-122.096967734;401.565956775
239658.64;-122.114184814;401.751768615
239659.64;-122.266692722;401.937625532
239660.64;-122.306973339;402.123425012
239661.64;-122.240976225;402.309248255
239662.64;-122.325177182;402.495074155
239663.64;-122.2935901;9.6039224976
239664.64;-122.121189486;10.391772267
239665.64;-122.161070277;10.6131178125
239666.64;-122.288121695;10.8344341386
239667.64;-122.216554031;11.0557381342
239668.64;-122.048348864;11.2770327725
239669.64;-122.317004344;11.4983718126
239670.64;-122.441738032;11.7196936431
239671.64;-122.452060167;11.9410013397
239672.64;-122.543606843;12.1623335375
239673.64;-122.529102646;12.3836631246
239674.64;-122.492963197;12.6049747132
239675.64;-122.279706234;12.8262807366
239676.64;-122.443352731;13.0476176617
239677.64;-122.55706419;13.2689280253
239678.64;-122.457700162;13.4902366268
239679.64;-122.319060791;13.7115718922
239680.64;-122.437252668;13.9329039705
239681.64;-122.27307876;14.1542189561
239682.64;-122.140351327;14.3755381625
239683.64;-122.354099577;14.596851899
239684.64;-122.478225997;14.8181762621
239685.64;-122.347478514;15.0395032448
239686.64;-122.309938219;15.2607899437
239687.64;-122.026288589;15.4821193425
239688.64;-121.96118413;15.7034498713
239689.64;-122.308625961;15.9247628331
239690.64;-122.310783398;16.1460767408
239691.64;-122.101553773;16.3674116363
239692.64;-122.142607525;16.588711057
239693.64;-122.181108611;16.8100258249
239694.64;-122.060417964;17.0313516304
239695.64;-122.02529095;17.252683681
239696.64;-121.938465673;17.4739674585
239697.64;-121.815297514;17.6952841419
239698.64;-121.864161253;17.9166279939
239699.64;-122.034177132;18.1379488002
239700.64;-122.058365518;18.3591995549
239701.64;-121.921954818;18.5805117906
239702.64;-121.848058293;18.8018295104
239703.64;-121.846235099;19.0231520485
239704.64;-122.136424454;19.2444780882
239705.64;-122.154386104;19.4657738378
239706.64;-122.156095793;19.6871131273
239707.64;-122.019962879;19.9084205067
239708.64;-121.8289506;20.1297250396
239709.64;-122.306902211;20.3510457914
239710.64;-122.454190828;20.5723490948
239711.64;-121.984321905;20.7936614708
239712.64;-121.985707189;21.0149944167
239713.64;-122.154717147;21.2363115092
239714.64;-121.986447246;21.4576202335
239715.64;-122.021085537;21.678954503
239716.64;-122.107700539;21.900261838
239717.64;-121.967983343;22.1215602819
239718.64;-121.894670366;22.3428954502
239719.64;-122.055129972;22.5642143909
239720.64;-121.78694149;22.7855089897
239721.64;-122.072267225;23.0068271919
239722.64;-122.100745431;23.2281366336
239723.64;-122.076736008;23.449440101
239724.64;-121.961892188;23.6707614319
239725.64;-122.004868053;23.8920702842
239726.64;-121.987300622;24.113393642
239727.64;-122.028361867;-346.627063394
239728.64;-122.105554497;-346.435852989
239729.64;-122.11968951;-346.244670376
239730.64;-122.08323237;-346.053450644
239731.64;-122.210477158;-345.862243774
239732.64;-122.177379533;-345.671025951
239733.64;-121.935885948;-345.479773153
239734.64;-122.287186405;-345.288518598
239735.64;-122.124816376;-345.097240983
239736.64;-122.157577562;-344.90597871
239737.64;-122.021793732;-344.714659181
239738.64;-121.865140279;-344.523350617
239739.64;-121.890915191;-344.332034835
239740.64;-121.821375001;-344.140719415
239741.64;-121.343688392;-343.949373317
239742.64;-121.729832233;-343.758020132
239743.64;-121.935893277;-343.566607026
239744.64;-122.080282405;-343.375258103
239745.64;-122.094608591;-343.183838774
239746.64;-122.000147508;-342.992456485
239747.64;-121.996334142;-342.801029881
239748.64;-122.117332406;-342.609594216
239749.64;-122.148120131;-342.418151083
239750.64;-122.036517707;-342.226694313
239751.64;-122.09796815;-342.03523342
239752.64;-122.074901194;-341.843745975
239753.64;-122.086202458;-341.652249595
239754.64;-121.95297706;-341.460774472
239755.64;-121.883806412;-341.269229672
239756.64;-121.928933899;-341.077707639
239757.64;-122.148685018;-340.8861649
239758.64;-122.131531049;-340.694636721
239759.64;-122.162013855;-340.503026954
239760.64;-122.160367809;-340.311494048
239761.64;-122.139486582;57.3769510171
239762.64;-122.029623727;57.4992271432
239763.64;-121.934772372;57.6215664743
239764.64;-122.100333238;57.7438171654
239765.64;-122.033440885;57.8661779114
239766.64;-122.044894444;57.9884948176
239767.64;-122.062630722;58.1108136357
239768.64;-122.021792021;58.2331161604
239769.64;-122.271946188;58.3554794778
239770.64;-122.064911794;58.477819455
239771.64;-121.967260745;58.600172278
239772.64;-121.84985181;58.7225793816
239773.64;-121.942067176;58.8449097177
239774.64;-121.941482121;58.9673063914
239775.64;-121.899150223;59.0897066268
239776.64;-121.866442034;59.2120631707
239777.64;-121.920806243;-337.109605248
239778.64;-121.897011722;-336.860953411
239779.64;-121.98404116;-336.669145165
239780.64;-122.092939872;-336.477324056
239781.64;-121.988198368;-336.285509018
239782.64;-121.982069798;-336.093650102
239783.64;-122.134138681;-335.90177244
239784.64;-122.198981361;-335.709905888
239785.64;-122.320815424;-335.518025315
239786.64;-122.199356372;-335.326160668
239787.64;-122.014395518;-335.134256614
239788.64;-122.103841407;-334.942324709
239789.64;-122.065203193;-334.750392818
239790.64;-122.122470713;-334.558437548
239791.64;-122.143437713;-334.366502452
239792.64;-122.261051658;-334.174522838
239793.64;-122.321506752;-333.982533021
239794.64;-122.113976089;-333.790541958
239795.64;-121.862503776;-333.598527703
239796.64;-121.881547733;-333.40651126
239797.64;-121.873848857;-333.21445864
239798.64;-121.677755938;-333.022449952
239799.64;-121.832968505;-332.830404796
239800.64;-121.810270571;-332.638302517
239801.64;-121.675084477;-332.446221268
239802.64;-121.679584881;-332.254131119
239803.64;-121.889943109;-332.06203698
239804.64;-121.72415833;-331.869934363
239805.64;-121.823795375;-331.677800348
239806.64;-121.520520958;-331.485666943
239807.64;-121.549117653;-331.293524134
239808.64;-121.635120407;-331.101353968
239809.64;-121.751615135;-330.909191922
239810.64;-121.757564554;-330.716990208
239811.64;-121.78579192;-330.524781282
239812.64;-121.780247516;-330.332564931
239813.64;-121.861814441;-330.140339368
239814.64;-121.860577474;-329.948094568
239815.64;-121.899432392;-329.75585355
239816.64;-121.811557551;-329.563617203
239817.64;-121.778529924;-329.371325235
239818.64;-121.729502363;-329.179020562
239819.64;-121.85843639;-328.986743823
239820.64;-121.806888622;-328.794462227
239821.64;-121.635648763;-328.602111423
239822.64;-121.498979634;-328.409781967
239823.64;-121.503154802;-328.217432411
239824.64;-121.548920716;-328.025065212
239825.64;-121.223254167;-327.832726623
239826.64;-121.324297602;-327.640301218
239827.64;-121.73067812;-327.447909102
239828.64;-121.536311196;-327.255535784
239829.64;-121.573971183;-327.063115471
239830.64;-121.675270987;-326.870673455
239831.64;-121.623107192;-326.678252865
239832.64;-121.588321073;-326.485777868
239833.64;-121.611963612;-326.293302103
239834.64;-121.623701213;-326.100842483
239835.64;-121.746794621;-325.908387315
239836.64;-121.734544107;-325.715868357
239837.64;-121.632403736;-325.523316731
239838.64;-121.708460244;-325.330822331
239839.64;-121.774757867;-325.138279785
239840.64;-121.788320109;-324.945727091
239841.64;-121.814983884;-324.753159652
239842.64;-121.755536183;-324.560577499
239843.64;-121.349412367;-324.368005076
239844.64;-121.591367253;-324.17540844
239845.64;-121.60382253;-323.982818457
239846.64;-121.56590542;-323.790155222
239847.64;-121.584251839;51.215101585
239848.64;-121.491659761;51.1102855929
239849.64;-121.676643956;51.3315313237
239850.64;-121.74172585;51.5527693175
239851.64;-121.654848462;51.774019477
239852.64;-121.534382836;51.9952697326
239853.64;-121.386933862;52.2165574579
239854.64;-121.667347025;52.4377689616
239855.64;-121.688521123;52.6590104288
239856.64;-121.645097361;52.880244432
239857.64;-121.715136091;53.1014854402
239858.64;-121.659190018;53.3227463487
239859.64;-121.648176603;53.5440062507
239860.64;-121.726287978;53.7652358543
239861.64;-121.848718875;53.986470041
239862.64;-121.751283224;54.207681988
239863.64;-121.626642681;54.428945305
239864.64;-121.292058566;54.6501984192
239865.64;-121.573567073;54.8714174848
239866.64;-121.645279237;55.0926670324
239867.64;-121.818178123;55.3138947758
239868.64;-121.571351839;55.5351508555
239869.64;-121.632570705;55.7563789907
239870.64;-121.752587494;55.9775955297
239871.64;-121.69412631;56.1988183217
239872.64;-121.570594294;56.4200723014
239873.64;-121.585165784;56.6413076974
239874.64;-121.63026694;56.8625040501
239875.64;-121.662832667;57.0837370961
239876.64;-121.855009197;57.3049681717
239877.64;-121.828822666;57.5261969595
239878.64;-121.782560611;57.7473922478
239879.64;-121.912831948;57.9686377322
239880.64;-121.911284109;58.1898707772
239881.64;-121.883181255;58.4111108497
239882.64;-121.895181678;58.6323041747
239883.64;-121.8778619;58.853532603
239884.64;-121.900014281;59.0747645891
239885.64;-121.931755464;59.2959854964
239886.64;-121.964652869;59.5172019652
239887.64;-121.875934172;59.7384151544
239888.64;-122.067056387;59.9596624527
239889.64;-121.970971458;60.1808237065
239890.64;-121.869927661;60.4020461954
239891.64;-121.854073314;60.6232701436
239892.64;-121.715569044;60.8445190485
239893.64;-121.892161036;61.0657015656
239894.64;-121.943777809;61.286900173
239895.64;-121.832851716;61.5081281057
239896.64;-121.817042125;61.7293567711
239897.64;-121.763780536;61.9505654267
239898.64;-121.85291586;62.1717763683
239899.64;-121.795990028;62.3929733566
239900.64;-121.736691715;-313.370843021
239901.64;-121.791114257;102.665378515
239902.64;-121.708250773;102.858390462
239903.64;-121.763287271;103.07061779
239904.64;-121.82647999;103.282900262
239905.64;-121.72273407;103.49514122
239906.64;-121.738148208;103.707386147
239907.64;-121.887151263;103.919630146
239908.64;-121.528969753;104.131851607
239909.64;-121.477068612;104.344053177
239910.64;-121.309137163;104.556284879
239911.64;-121.21522726;104.7685116
239912.64;-121.299505455;104.980690828
239913.64;-121.466342257;105.19294982
239914.64;-121.242810964;105.405154842
239915.64;-121.486674557;105.617359611
239916.64;-121.401232075;105.829579652
239917.64;-121.502556008;106.041765884
239918.64;-121.533339207;106.25400062
239919.64;-121.612591154;106.466201642
239920.64;-121.54988322;106.678382134
239921.64;-121.687180592;106.890589325
239922.64;-121.599327473;107.102749601
239923.64;-121.412410071;107.314958684
239924.64;-121.354436431;107.527136305
239925.64;-121.389433832;107.739325181
239926.64;-121.516658181;107.951492272
239927.64;-121.620615179;108.163687318
239928.64;-121.47204841;108.37589115
239929.64;-121.577428157;108.58805072
239930.64;-121.609966023;108.80021386
239931.64;-121.555199963;109.012388466
239932.64;-121.441257478;109.224567704
239933.64;-121.455488456;109.436736627
239934.64;-121.593158573;109.648871898
239935.64;-121.55112376;109.86104885
239936.64;-121.552297163;110.073200516
239937.64;-121.494133348;110.285332579
239938.64;-121.398841395;110.497483799
239939.64;-121.345343175;110.709637758
239940.64;-121.289567869;110.921757391
239941.64;-121.310685688;111.133936476
239942.64;-121.272672559;111.346069608
239943.64;-121.427455282;111.558208537
239944.64;-121.300034218;111.770331564
239945.64;-121.223954966;111.982472642
239946.64;-121.309055792;112.194601419
239947.64;-121.240049469;112.406729451
239948.64;-121.11816198;112.618838689
239949.64;-121.259712743;112.830979568
239950.64;-121.373583141;113.043082728
239951.64;-121.411489248;113.255181879
239952.64;-121.46052412;113.467296819
239953.64;-121.489068747;113.679416944
239954.64;-121.458655137;113.89151171
239955.64;-121.553240862;114.10360616
239956.64;-121.513457484;114.315719938
239957.64;-121.559069334;114.527810925
239958.64;-121.618565137;114.739892519
239959.64;-121.713553043;114.952017504
239960.64;-121.744772365;115.164075838
239961.64;-121.679685195;115.376147286
239962.64;-121.664190005;115.588254558
239963.64;-121.615738319;-301.171472483
239964.64;-121.583695024;-300.977452024
239965.64;-121.655571291;-300.783438147
239966.64;-121.663784367;-300.589369906
239967.64;-121.657720842;-300.395315711
239968.64;-121.72987384;-300.201268114
239969.64;-121.615287666;-300.007215935
239970.64;-121.437971191;-299.813098608
239971.64;-121.475993176;-299.619028864
239972.64;-121.518045862;-299.424883786
239973.64;-121.513287265;-299.230796681
239974.64;-121.64368392;-299.036657831
239975.64;-121.697531921;-298.842511825
239976.64;-121.676391482;-298.648379327
239977.64;-121.515821265;-298.454180949
239978.64;-121.511123863;-298.260022272
239979.64;-121.589832109;-298.065843035
239980.64;-121.647458028;-297.871625747
239981.64;-121.523275244;-297.677429282
239982.64;-121.616673647;-297.483205954
239983.64;-121.6178698;-297.288964333
239984.64;-121.65836777;-297.094711398
239985.64;-121.662956079;-296.900468528
239986.64;-121.613455569;-296.706223554
239987.64;-121.634230163;-296.511904059
239988.64;-121.719326894;-296.317607591
239989.64;-121.566917725;-296.123316299
239990.64;-121.6477246;-295.928988239
239991.64;-121.580925445;-295.734675629
239992.64;-121.530474696;-295.540330016
239993.64;-121.552955294;-295.345966771
239994.64;-121.502584054;-295.151638075
239995.64;-121.469011864;-294.957264586
239996.64;-121.598946477;-294.762864619
239997.64;-121.605998429;-294.568454064
239998.64;-121.599825866;-294.374046139
239999.64;-121.391495207;-294.179632179
240000.64;-121.534970571;-293.985205467
240001.64;-121.53195733;-293.790775295
240002.64;-121.388747031;-293.596343663
240003.64;-121.466968068;-293.401866132
240004.64;-121.383154042;-293.207374719
240005.64;-121.445593174;-293.012880704
240006.64;-121.451842697;-292.818369393
240007.64;-121.51059671;-292.623853361
240008.64;-121.459461413;-292.429330469
240009.64;-121.403822997;-292.234824917
240010.64;-121.428264401;-292.040271357
240011.64;-121.471664632;-291.84571478
240012.64;-121.523498386;-291.651162403
240013.64;-121.507577912;-291.456560964
240014.64;-121.404702926;-291.261948882
240015.64;-121.146608784;-291.067371371
240016.64;-121.198900091;-290.872754284
240017.64;-121.261525121;-290.678121882
240018.64;-121.270450376;-290.483475751
240019.64;-121.08449476;-290.288845711
240020.64;-121.273743287;89.1784656763
240021.64;-121.460656272;89.3718108544
240022.64;-121.384883766;89.592877254
240023.64;-121.396842308;89.8139219414
240024.64;-121.485190159;90.0349608668
240025.64;-121.508267654;90.2560150417
240026.64;-121.413393139;90.4770981159
240027.64;-121.486924385;90.698138896
240028.64;-121.69212046;90.9191637651
240029.64;-121.552166649;91.1402217749
240030.64;-121.307358182;91.3612875079
240031.64;-121.259659111;91.5823158292
240032.64;-121.281098942;91.8033600832
240033.64;-121.493171595;92.0244139344
240034.64;-121.419733067;92.2454323265
240035.64;-121.464232243;92.4665072005
240036.64;-121.348270596;92.6875290867
240037.64;-121.392015264;351.615109981
240038.64;-121.463173171;351.814930893
240039.64;-121.553071203;352.044312309
240040.64;-121.469128496;352.273703373
240041.64;-121.543866864;352.503028995
240042.64;-121.449211123;352.732398295
240043.64;-121.35148387;352.961727613
240044.64;-121.34419528;353.191050167
240045.64;-121.28243424;353.420357997
240046.64;-121.352286801;353.649685916
240047.64;-121.257511452;353.878998642
240048.64;-121.250687596;354.108265825
240049.64;-121.341706794;354.337539246
240050.64;-121.296984816;354.566811907
240051.64;-121.180795849;354.796071222
240052.64;-121.03141404;355.025321988
240053.64;-121.117027338;96.4449594463
240054.64;-121.128620272;96.6659649497
240055.64;-120.999237081;96.8869788444
240056.64;-121.020248466;-468.583788189
240057.64;-121.073881047;-468.33285753
240058.64;-121.067556416;-468.081903024
240059.64;-121.021402662;-467.830965488
240060.64;-121.032512486;-467.580019634
240061.64;-121.146548329;-467.329089108
240062.64;-121.310228313;-467.078136648
240063.64;-121.440662085;-466.82714975
240064.64;-120.988159869;-466.576227307
240065.64;-121.226859757;-466.325264269
240066.64;-121.449589549;-466.07433479
240067.64;-121.292627451;-465.823352886
240068.64;-121.223550492;-465.572407574
240069.64;-121.209410001;-465.321444141
240070.64;-121.278057768;-465.070468447
240071.64;-121.205694294;-464.819488562
240072.64;-121.040412275;-464.568550226
240073.64;-120.998369834;-464.317578989
240074.64;-121.014354922;-464.066598252
240075.64;-121.069814961;-463.815630574
240076.64;-121.07138665;-463.564656483
240077.64;-121.032717054;-463.313683585
240078.64;-120.913002282;-463.062686914
240079.64;-120.999196568;-462.81171895
240080.64;-120.927752365;102.907985487
240081.64;-121.043843222;102.632630248
240082.64;-121.258965467;102.853597275
240083.64;-121.276048598;103.074566707
240084.64;-121.336929667;103.295521272
240085.64;-121.248769559;103.516488422
240086.64;-121.236219951;103.737428295
240087.64;-121.346715325;103.958394965
240088.64;-121.270735134;104.179349602
240089.64;-121.104487413;104.400309773
240090.64;-120.981069277;104.621261624
240091.64;-121.100026752;104.842215293
240092.64;-120.983474831;105.063150821
240093.64;-121.211046602;105.284114219
240094.64;-121.117775269;105.505039005
240095.64;-121.099669081;105.725979419
240096.64;-121.064426017;105.946917422
240097.64;-121.121542122;106.167879582
240098.64;-120.876348814;106.388798669
240099.64;-120.907730113;365.795517003
240100.64;-121.035227961;366.016357757
240101.64;-121.106279096;366.245082297
240102.64;-121.230508506;366.473766986
240103.64;-121.220928519;366.702467029
240104.64;-121.461188101;366.931140716
240105.64;-121.355739605;367.159818524
240106.64;-121.208130393;367.388476376
240107.64;-121.01502444;367.617126035
240108.64;-121.120543137;367.845781387
240109.64;-121.063755779;368.074438006
240110.64;-121.255080311;368.303045757
240111.64;-121.169489443;368.531625646
240112.64;-121.230923865;368.760239005
240113.64;-121.123832311;368.988831126
240114.64;-121.042748018;369.217400273
240115.64;-121.082183082;369.445960665
240116.64;-121.053844833;369.674521064
240117.64;-120.887854492;369.903049345
240118.64;-120.881416191;370.131591057
240119.64;-121.358026767;370.36010153
240120.64;-121.417843389;370.58861033
240121.64;-121.214601518;370.817098945
240122.64;-121.201409382;371.045579382
240123.64;-121.216724553;371.274065977
240124.64;-121.184017384;371.502534307
240125.64;-121.120667012;371.730987128
240126.64;-121.048158298;371.959423979
240127.64;-120.953174862;372.187871161
240128.64;-121.083842054;372.416269789
240129.64;-121.028384521;372.644662557
240130.64;-121.082630397;372.873101698
240131.64;-120.986957435;373.101480408
240132.64;-121.041669412;373.329863151
240133.64;-121.052628462;373.558248162
240134.64;-121.011524328;373.786569534
240135.64;-121.079167108;374.014922285
240136.64;-121.118328941;374.243249159
240137.64;-121.051827815;374.471575364
240138.64;-120.872245201;374.699898358
240139.64;-120.6606807;374.928184527
240140.64;-120.91882911;375.156480308
240141.64;-121.085017229;375.384752427
240142.64;-120.98912627;375.613002181
240143.64;-121.053545467;375.841282724
240144.64;-121.012335054;376.069537638
240145.64;-121.107293322;376.297765559
240146.64;-120.890942853;376.525979455
240147.64;-120.830440837;376.754201287
240148.64;-120.956907467;376.982382131
240149.64;-120.923363751;377.210600034
240150.64;-120.880885126;377.438781066
240151.64;-120.758148099;377.666950929
240152.64;-120.786406394;377.895106613
240153.64;-120.938911519;378.123241158
240154.64;-120.882445156;378.351366376
240155.64;-120.851364987;378.579494823
240156.64;-121.070519317;378.807593727
240157.64;-121.122486932;379.035692251
240158.64;-121.068401838;379.263789431
240159.64;-121.161004461;379.491880415
240160.64;-121.039575815;379.719948352
240161.64;-120.99668406;379.948000318
240162.64;-120.821580747;380.176041242
240163.64;-120.78144233;380.404079041
240164.64;-120.71887226;380.632094975
240165.64;-120.67815699;380.860126012
240166.64;-120.84943193;381.08809988
240167.64;-120.89978295;381.316092961
240168.64;-121.0737995;381.544061426
240169.64;-120.926314935;381.772042827
240170.64;-120.72420529;381.999977652
240171.64;-120.725184236;382.227939424
240172.64;-120.643156837;382.455900209
240173.64;-120.63662235;382.683784516
240174.64;-120.669493393;382.911704295
240175.64;-120.747093362;383.139622268
240176.64;-120.591736279;383.367502651
240177.64;-120.426804736;383.595386088
240178.64;-120.599805018;383.823238402
240179.64;-120.597192184;384.051111172
240180.64;-120.694240211;384.278945402
240181.64;-120.699687894;384.506778851
240182.64;-120.681731445;384.734587391
240183.64;-120.607329684;384.962395972
240184.64;-120.7503156;385.190200697
240185.64;-120.850155318;385.417992103
240186.64;-120.723065584;385.645766153
240187.64;-120.81180331;385.873534558
240188.64;-120.662083387;386.101288266
240189.64;-120.712146607;386.329058553
240190.64;-120.872071215;386.556757637
240191.64;-120.997764033;30.5340043183
240192.64;-121.094794691;30.7862306111
240193.64;-120.93168719;31.0384575996
240194.64;-120.709421029;31.2906711369
240195.64;-120.694528787;31.5429181211
240196.64;-120.876984207;31.7951014836
240197.64;-120.918432186;32.0472925897
240198.64;-120.912382444;32.299493826
240199.64;-120.864794177;32.5516426427
240200.64;-120.984393898;32.8037984113
240201.64;-121.060265957;33.0559469446
240202.64;-120.831261889;33.3080810467
240203.64;-120.768847929;33.5602359769
240204.64;-120.757890082;33.8123113251
240205.64;-120.895719506;34.0644264722
240206.64;-120.920694313;34.3165106386
240207.64;-121.014811475;34.5685996742
240208.64;-121.082186631;34.8206711442
240209.64;-120.961866519;35.07273663
240210.64;-120.726550409;35.3247902923
240211.64;-120.982844761;35.5768113528
240212.64;-120.858314676;35.8288183116
240213.64;-120.791966997;36.08085191
240214.64;-120.509261246;36.3328370614
240215.64;-120.284319804;36.5848736962
240216.64;-120.429568151;36.8368372296
240217.64;-120.688120754;37.0887843926
240218.64;-120.943135378;37.3407607452
240219.64;-121.319659203;37.5927005021
240220.64;-121.166725152;37.8446285567
240221.64;-121.062429363;38.0965633777
240222.64;-121.082776114;38.3484586601
240223.64;-121.041959675;38.6003762666
240224.64;-121.098271734;38.8522579813
240225.64;-121.199690345;39.104147874
240226.64;-121.124184496;39.3560099092
240227.64;-120.868041852;39.6078505913
240228.64;-121.007577507;-376.341329119
240229.64;-121.067292508;-376.102813415
240230.64;-120.699241249;-375.864272465
240231.64;-120.605462651;-375.625764771
240232.64;-120.713045967;-375.38726145
240233.64;-120.76050853;-375.14872058
240234.64;-120.798964262;-374.910221995
240235.64;-120.36402411;-374.671704522
240236.64;-120.979283229;-374.433185514
240237.64;-120.834993852;-374.194670241
240238.64;-120.844638002;-373.956159446
240239.64;-120.781849365;-373.717685033
240240.64;-120.695008497;-373.479165476
240241.64;-120.673456644;-373.240657043
240242.64;-120.84484347;-373.002138204
240243.64;-120.798910355;-372.763617811
240244.64;-120.754751591;-372.525153522
240245.64;-121.223069502;-372.28664272
240246.64;-120.876571099;-372.048132439
240247.64;-120.978154307;-371.809646017
240248.64;-120.831299918;-371.571145747
240249.64;-120.759656199;-371.332663331
240250.64;-120.829059175;-371.094174929
240251.64;-121.004309112;-370.855659425
240252.64;-120.979190159;-370.617160516
240253.64;-120.76466485;-370.378695404
240254.64;-120.998152081;-370.140186147
240255.64;-121.205500715;-369.901683757
240256.64;-120.952525527;-369.66320346
240257.64;-120.926351208;-369.424747472
240258.64;-120.897022875;-369.186237614
240259.64;-120.977873216;-368.947741325
240260.64;-120.855646048;-368.709314059
240261.64;-120.443941054;-368.470786298
240262.64;-121.075786707;-368.232286071
240263.64;-120.993062726;-367.993841838
240264.64;-120.842545738;-367.755359648
240265.64;-120.717827099;-367.516874935
240266.64;-120.466562319;-367.278397984
240267.64;-120.499684167;-367.039926076
240268.64;-120.999848588;-366.801463279
240269.64;-120.710741366;-366.562988785
240270.64;-120.668750077;-366.324555549
240271.64;-120.971049712;-366.086074947
240272.64;-120.931387721;-365.847585916
240273.64;-120.958390528;-365.609131551
240274.64;-121.062118793;-365.370682605
240275.64;-120.78075275;-365.132233642
240276.64;-121.395673335;-364.893786719
240277.64;-120.910583253;-364.655312033
240278.64;-120.874513764;-364.416829386
240279.64;-120.845727918;-364.178374589
240280.64;-120.805812806;-363.939911242
240281.64;-121.005003382;-363.701506479
240282.64;-120.719801677;-363.463034272
240283.64;-120.609840603;-363.224572259
240284.64;-120.755718252;-362.986126899
240285.64;-120.800262708;-362.747689587
240286.64;-120.856345599;-362.509253969
240287.64;-120.704604906;-362.270764137
240288.64;-120.712873593;-362.032342676
240289.64;-120.756140533;-361.793909514
240290.64;-120.858732646;-361.555454342
240291.64;-120.866286671;-361.31702818
240292.64;-120.63084745;-361.078586253
240293.64;-120.208123456;-360.84014789
240294.64;-121.09207533;-360.601718618
240295.64;-120.489133881;-360.363296452
240296.64;-120.388910455;-360.124849252
240297.64;-120.720173812;-359.886446294
240298.64;-120.76002866;-359.648009968
240299.64;-120.594053117;-359.409574154
240300.64;-120.532076753;-359.171176659
240301.64;-120.548545799;-358.932745684
240302.64;-120.719937735;-358.694352935
240303.64;-120.583322544;-358.455927685
240304.64;-120.508439989;-358.217500316
240305.64;-120.600544331;-357.979094
240306.64;-120.628416569;-357.740637717
240307.64;-120.503185537;-357.50224366
240308.64;-120.462355005;-357.263831028
240309.64;-120.641651933;-357.025441881
240310.64;-120.797345641;-356.787019171
240311.64;-120.814737758;-356.548590094
240312.64;-120.830212596;-356.310207153
240313.64;-120.790036038;-356.071784016
240314.64;-120.804570779;-355.833399587
240315.64;-120.539067049;-355.595021676
240316.64;-120.544255863;-355.356615494
240317.64;-120.824024867;-355.118180462
240318.64;-120.91286573;-354.879819085
240319.64;-120.961436431;-354.641402232
240320.64;-120.711823891;-354.403028523
240321.64;-120.913359348;-354.164599228
240322.64;-120.917880835;-353.926255893
240323.64;-120.763401166;-353.687843062
240324.64;-120.712665324;-353.44945436
240325.64;-120.643564256;-353.211077891
240326.64;-120.543244181;-352.972697983
240327.64;-120.535552885;-352.734333744
240328.64;-120.604764966;-352.49592436
240329.64;-120.610350864;-352.257554676
240330.64;-120.578076001;-352.019185689
240331.64;-120.598338994;-351.780808404
240332.64;-120.538170105;-351.542433791
240333.64;-120.627577374;-351.304039529
240334.64;-120.672342099;-351.06570575
240335.64;-120.60064792;-350.827311445
240336.64;-120.550299756;-350.588944369
240337.64;-120.282416815;-350.350610083
240338.64;-120.710411728;-350.112241692
240339.64;-120.732365874;-349.873880051
240340.64;-120.512326938;-349.635500653
240341.64;-120.728287855;-349.397161045
240342.64;-120.856127575;-349.158798152
240343.64;-120.583462169;-348.920473582
240344.64;-120.65916333;-1255.39633156
240345.64;-120.736900761;-1255.16287852
240346.64;-120.698023481;-1254.92940263
240347.64;-120.574397087;-1254.69586132
240348.64;-120.672322388;-1254.4623659
240349.64;-120.523933875;-1254.22883977
240350.64;-120.227873023;-1253.99524601
240351.64;-120.470138073;-1253.76163171
240352.64;-120.405620677;-1253.52806812
240353.64;-120.422495724;-1253.29440938
240354.64;-120.129442151;-1253.06074301
240355.64;-119.93116006;-1252.82707467
240356.64;-120.594442275;-1252.59338916
240357.64;-120.328598586;-1252.35966482
240358.64;-120.521152747;-1252.12589055
240359.64;-120.40438735;-1251.89214389
240360.64;-120.391078278;-1251.65831823
240361.64;-120.446017319;-1251.42452336
240362.64;-120.468947128;-1251.19071161
240363.64;-120.321952673;-1250.95687867
240364.64;-120.496469476;-1250.72296927
240365.64;-120.608715248;-1250.48912901
240366.64;-120.562933243;-1250.25516223
240367.64;-120.573007028;-1250.02123454
240368.64;-120.576916286;-1249.78729225
