time;bias-band1;bias-band2
248527.366;0;0
248528.366;-60.1385238336;0
248529.366;-60.0622830228;0
248530.366;-60.3190212331;0
248531.366;-60.1098743953;0
248532.366;-60.2553039644;0
248533.366;-60.1935565186;0
248534.366;-60.1396074092;0
248535.366;-60.2428691988;0
248536.366;-60.3442378648;0
248537.366;-60.4346894259;0
248538.366;-60.4568077787;0
248539.366;-60.5434128803;0
248540.366;-60.556648111;0
248541.366;-60.63438275;0
248542.366;-60.6368423843;0
248543.366;-60.5534454604;0
248544.366;-60.3917552078;0
248545.366;-60.4449162306;0
248546.366;-60.4278293543;0
248547.366;-60.5020064175;0
248548.366;-60.4686908359;0
248549.366;-60.5022273486;0
248550.366;-60.4210209164;0
248551.366;-60.2304006521;0
248552.366;-60.2374805103;0
248553.366;-60.2357802912;0
248554.366;-60.3184724156;0
248555.366;-60.326410827;0
248556.366;-60.2225266749;0
248557.366;-60.3426969705;0
248558.366;-60.2240725873;0
248559.366;-60.2353052033;0
248560.366;-60.2367042815;0
248561.366;-60.1194129227;0
248562.366;-60.1808977046;0
248563.366;-59.9448410821;0
248564.366;-60.1033613821;0
248565.366;-60.4054192838;0
248566.366;-60.5140039558;0
248567.366;-60.5952572964;0
248568.366;-60.6251930979;0
248569.366;-60.4656157522;0
248570.366;-60.5223353159;0
248571.366;-60.4550113544;0
248572.366;-60.4901572462;0
248573.366;-60.4579124633;0
248574.366;-60.5183733993;0
248575.366;-60.3420040424;0
248576.366;-60.1821743398;0
248577.366;-60.1629613348;0
248578.366;-60.2804190401;0
248579.366;-60.3060342912;0
248580.366;-60.3443696971;0
248581.366;-60.2991021101;0
248582.366;-60.4510362672;0
248583.366;-60.4887385372;0
248584.366;-60.5596221148;0
248585.366;-60.4722244837;0
248586.366;-60.5112994187;0
248587.366;-60.4199006869;0
248588.366;-60.2952781092;0
248589.366;-60.3078531983;0
248590.366;-60.4854700266;0
248591.366;-60.4871630847;0
248592.366;-60.3077336269;0
248593.366;-60.1722185315;0
248594.366;-60.1674469168;0
248595.366;-60.267741566;0
248596.366;-60.2571080845;0
248597.366;-60.1921949131;0
248598.366;-60.1341333904;0
248599.366;-60.1077529299;0
248600.366;-60.0129967328;0
248601.366;-60.1750484569;0
248602.366;-59.9527480215;0
248603.366;-59.9701790522;0
248604.366;-59.9636210148;0
248605.366;-59.8554933957;0
248606.366;-59.8313014555;0
248607.366;-59.8578517853;0
248608.366;-59.8013788491;0
248609.366;-60.2258075531;0
248610.366;-60.6429225468;0
248611.366;-60.7400783877;0
248612.366;-60.759897872;0
248613.366;-60.7743419925;0
248614.366;-60.853191432;0
248615.366;-60.8535030593;0
248616.366;-60.7392119784;0
248617.366;-60.5619954067;0
248618.366;-60.5429416239;0
248619.366;-60.400138381;0
248620.366;-60.5577495998;0
248621.366;-60.5052676291;0
248622.366;-60.4690363753;0
248623.366;-60.6247857842;0
248624.366;-60.5236456677;0
248625.366;-60.5741361273;0
248626.366;-60.6372738528;0
248627.366;-60.5431145968;0
248628.366;-60.3984339614;0
248629.366;-60.255666479;0
248630.366;-60.2430155249;0
248631.366;-60.3943807995;0
248632.366;-60.3685845537;0
248633.366;-60.2929340611;0
248634.366;-60.2618219002;0
248635.366;-60.184714418;0
248636.366;-60.1694499915;0
248637.366;-60.0541487124;0
248638.366;-60.1165421702;0
248639.366;-60.1905986582;0
248640.366;-60.1441296157;0
248641.366;-60.1975301615;0
248642.366;-60.246666536;0
248643.366;-60.123162247;0
248644.366;-60.2538825423;0
248645.366;-60.2165719797;0
248646.366;-60.3490816125;0
248647.366;-60.2644249604;0
248648.366;-60.3121867876;0
248649.366;-60.1365823216;0
248650.366;-60.1503935148;0
248651.366;-60.0973914736;0
248652.366;-60.0329325318;0
248653.366;-60.052718033;0
248654.366;-59.9054719974;0
248655.366;-59.8746770037;0
248656.366;-59.8842019372;0
248657.366;-60.2165956728;0
248658.366;-60.4792285145;0
248659.366;-60.368806386;0
248660.366;-60.3217383345;0
248661.366;-60.2537814044;0
248662.366;-60.2971545621;0
248663.366;-60.4025627412;0
248664.366;-60.5170582896;0
248665.366;-60.6002581813;0
248666.366;-60.6163129902;0
248667.366;-60.5551656507;0
248668.366;-60.4711577911;0
248669.366;-60.4544955889;0
248670.366;-60.6213561695;0
248671.366;-60.4506081836;0
248672.366;-60.3875179884;0
248673.366;-60.4715096899;0
248674.366;-60.4366263507;0
248675.366;-60.3362417739;0
248676.366;-60.4350164958;0
248677.366;-60.2580532562;0
248678.366;-60.3358816066;0
248679.366;-60.4110267035;0
248680.366;-60.4913403809;0
248681.366;-60.4175875783;0
248682.366;-60.2845841965;0
248683.366;-60.2546849325;0
248684.366;-60.5365803251;0
248685.366;-60.493217268;0
248686.366;-60.5402635308;0
248687.366;-60.5257567195;0
248688.366;-60.5443975297;0
248689.366;-60.6944617322;0
248690.366;-60.5749059461;0
248691.366;-60.5907895434;0
248692.366;-60.6853096365;0
248693.366;-60.5838604467;0
248694.366;-60.4647168409;0
248695.366;-60.5275338733;0
248696.366;-60.518312174;0
248697.366;-60.4104197122;0
248698.366;-60.2034966775;0
248699.366;-60.1954058006;0
248700.366;-60.1638220038;0
248701.366;-60.1822868231;0
248702.366;-60.2664531799;0
248703.366;-60.1686283976;0
248704.366;-59.9633014438;0
248705.366;-60.0746263886;0
248706.366;-60.4176645373;0
248707.366;-60.1518963581;0
248708.366;-59.9235441351;0
248709.366;-59.6749602957;0
248710.366;-60.2827022846;0
248711.366;-60.644339755;0
248712.366;-60.7126268715;0
248713.366;-60.8166168547;0
248714.366;-60.7930716537;0
248715.366;-60.7118622793;0
248716.366;-60.7079615192;0
248717.366;-60.8494891612;0
248718.366;-60.8562026301;0
248719.366;-60.6426362441;0
248720.366;-60.8335571375;0
248721.366;-60.7072756139;0
248722.366;-60.8389522607;0
248723.366;-60.761841295;0
248724.366;-60.8043378258;0
248725.366;-60.6826604679;0
248726.366;-60.4283437098;0
248727.366;-60.2843544902;0
248728.366;-60.3094484363;0
248729.366;-60.3821358943;0
248730.366;-60.4207717818;0
248731.366;-60.3045793543;0
248732.366;-60.3787440889;0
248733.366;-60.3449177021;0
248734.366;-60.3599153748;0
248735.366;-60.192922001;0
248736.366;-60.1159360414;0
248737.366;-60.0364743567;0
248738.366;-60.0432885989;0
248739.366;-60.079651735;0
248740.366;-60.1770937165;0
248741.366;-60.2502499694;0
248742.366;-60.2079746495;0
248743.366;-60.2142402498;0
248744.366;-60.4288930163;0
248745.366;-60.4085213198;0
248746.366;-60.4175970052;0
248747.366;-60.3658838163;0
248748.366;-60.3754516755;0
248749.366;-60.3931649218;-1351.27483517
248750.366;-60.3766588073;-1351.20168407
248751.366;-60.4171393565;-1350.90670491
248752.366;-60.3128619007;-1350.61172082
248753.366;-60.1319381532;-1350.316689
248754.366;-60.194787597;-1350.02170087
248755.366;-60.3450486237;-1349.72660735
248756.366;-60.3368707243;-1349.431578
248757.366;-60.2522792918;-1349.13644114
248758.366;-60.1945885594;-1348.8413325
248759.366;-60.3725774085;-1348.5461883
248760.366;-60.4366725029;-1348.25101669
248761.366;-60.2979993981;-1347.95587053
248762.366;-60.2719618368;-1347.6606754
248763.366;-60.2988102034;-1347.36542319
248764.366;-60.4861655048;-1347.07020058
248765.366;-60.4347786745;-1346.77494341
248766.366;-60.3009618126;-1346.47963283
248767.366;-60.1059162669;-1346.18435488
248768.366;-60.1456336673;-1345.88902976
248769.366;-60.1848997756;-1345.59365037
248770.366;-60.0864045148;-1345.29830822
248771.366;-60.1820703116;-1345.00295048
248772.366;-60.153016836;-1344.7075146
248773.366;-60.3214135523;-1344.41209636
248774.366;-60.5198187797;-1344.1166325
248775.366;-60.3195396698;-1343.82120472
248776.366;-60.2040188835;-1343.52568071
248777.366;-60.2566142241;-1343.2301541
248778.366;-60.2698137946;-1342.93462992
248779.366;-60.2655659075;-1342.63906462
248780.366;-60.3155302867;-1342.34355879
248781.366;-60.1891452473;-1342.04794037
248782.366;-60.1736035459;-1341.75232175
248783.366;-60.2931062399;-1341.45666548
248784.366;-60.5337027031;-1341.16100714
248785.366;-60.4857019647;432.700480807
248786.366;-60.29753585;432.960542833
248787.366;-60.2875834066;433.220341576
248788.366;-60.3877744754;433.480147548
248789.366;-60.3246915003;762.032297847
248790.366;-60.1705923761;39.7555530382
248791.366;-60.1683394777;40.0432458825
248792.366;-59.9909383053;40.3309943741
248793.366;-60.0636800229;763.17602428
248794.366;-60.1897594902;435.03860599
248795.366;-60.2256740707;435.298267151
248796.366;-60.3367505126;435.557939769
248797.366;-60.231015168;435.817557134
248798.366;-60.2196442313;-1046.39222297
248799.366;-60.2608162749;-1046.02146325
248800.366;-60.2298624992;-1045.65088316
248801.366;-60.1665135478;-1045.28030207
248802.366;-60.1537525781;-1044.90962232
248803.366;-60.2158292288;-1335.53967796
248804.366;-60.298718062;-1335.24362278
248805.366;-60.2879985699;-1334.94755745
248806.366;-60.3394200737;-1334.65143357
248807.366;-60.4315349229;-1225.13212574
248808.366;-60.3330178729;-1224.76461148
248809.366;-60.3576727778;-1224.39738268
248810.366;-60.3735448142;-1224.03013788
248811.366;-60.3384077863;-78.4837343961
248812.366;-60.3608917265;439.709189964
248813.366;-60.6056900483;439.968461028
248814.366;-60.6395285163;440.227706761
248815.366;-60.2522755107;440.486920935
248816.366;-60.3063939297;-1331.68924357
248817.366;-60.2244215698;-1331.39293507
248818.366;-60.3170871076;-1331.0965931
248819.366;-60.4095575965;-1330.80021536
248820.366;-60.2616102174;-1330.503819
248821.366;-60.1699268396;-1330.20740397
248822.366;-60.1270862969;-1329.91096823
248823.366;-60.177638611;-1329.61449163
248824.366;-60.2286235693;-1329.31801748
248825.366;-60.4049515467;-1329.02152127
248826.366;-60.5851764742;-1328.72503208
248827.366;-60.5846709519;-1328.42849096
248828.366;-60.3764639249;-1328.13191448
248829.366;-60.4758630097;-1217.0483179
248830.366;-60.4115084437;-1216.67600039
248831.366;-60.241494859;-1216.30789908
248832.366;-60.1858749105;-1215.93973353
248833.366;-60.2050655761;-71.3921455512
248834.366;-60.090033504;445.408125132
248835.366;-60.0957170014;445.666888905
248836.366;-60.0878245043;445.92569373
248837.366;-60.192103957;446.184415571
248838.366;-60.1288454459;-1325.16525823
248839.366;-60.2146590633;-1324.86845745
248840.366;-60.2934807227;-1324.57171418
248841.366;-60.3999022709;-1324.27482784
248842.366;-60.4303272979;-1323.97799181
248843.366;-60.3441825602;-1323.68119209
248844.366;-60.2969239609;-1323.38428666
248845.366;-60.3152091123;-1323.08736826
248846.366;-60.2138564778;-1322.79043753
248847.366;-60.3214695148;-1322.49347958
248848.366;-60.0913169982;-1322.19651498
248849.366;-59.9021807215;-1321.89954337
248850.366;-60.0287576799;-1209.19449625
248851.366;-60.0868093564;-1208.9379995
248852.366;-60.1856682296;-1208.56910879
248853.366;-60.1133106816;-1208.20017668
248854.366;-60.2122773611;-1207.83120801
248855.366;-60.2718522596;-64.3706305213
248856.366;-60.3488240154;-64.0577098501
248857.366;-60.5035643486;-63.7384606811
248858.366;-60.4675304153;-63.4192242344
248859.366;-60.4285291724;-63.0999799892
248860.366;-60.2940034668;-1205.61660693
248861.366;-60.2521763472;-1205.2473658
248862.366;-60.2165529694;-1204.87812259
248863.366;-60.2780564858;-1204.50881281
248864.366;-60.256381219;-1204.13949265
248865.366;-60.3398084959;-1203.77010064
248866.366;-60.3190303725;-1203.40064036
248867.366;-60.1957366211;-1203.03124578
248868.366;-60.2281776514;-1202.66175446
248869.366;-60.2971982519;-1202.29222467
248870.366;-60.2481708739;-1201.92262886
248871.366;-60.3969123463;-1201.553065
248872.366;-60.3843184057;-59.0172747826
248873.366;-60.4368157765;-58.6304881563
248874.366;-60.3821973805;-58.3111900919
248875.366;-60.3176081977;-57.9919655908
248876.366;-60.3627103073;-57.6727099748
248877.366;-60.4315609066;-57.3534129341
248878.366;-60.388058805;-57.0341179309
248879.366;-60.3743461044;-56.7148408668
248880.366;-60.4001399332;-56.3955209269
248881.366;-60.367193309;-56.0762445342
248882.366;-60.3146453798;-55.7569309571
248883.366;-60.2799785898;-55.4375879958
248884.366;-60.2422221482;-55.1182848243
248885.366;-60.2938008405;-54.7989746759
248886.366;-60.3357359657;-54.4796366125
248887.366;-60.2866925186;-54.1603421754
248888.366;-60.2888618822;-53.8409877476
248889.366;-60.2376630913;-53.5216765954
248890.366;-60.288957429;-53.2023417136
248891.366;-60.4365732128;-52.8829943801
248892.366;-60.3822037663;-52.5636517298
248893.366;-60.3644087136;-52.2443101253
248894.366;-60.243414425;-51.9249627981
248895.366;-60.4497430224;-51.6056288432
248896.366;-60.4146131263;-51.2862767668
248897.366;-60.4069824535;-50.9668868417
248898.366;-60.4379368523;-50.6475465541
248899.366;-60.429929704;-50.3281595274
248900.366;-60.1291203897;-50.0088121574
248901.366;-60.1008998813;-49.68942165
248902.366;-60.1610598341;-49.3700585
248903.366;-60.0966469513;-49.0506690781
248904.366;-60.0875889065;-48.7312946705
248905.366;-60.0568334256;-48.4119001707
248906.366;-60.1015969966;-48.0925084091
248907.366;-60.1396492973;-47.7731263606
248908.366;-60.1994923175;-47.4537243762
248909.366;-60.4241994839;-47.1343209973
248910.366;-60.4888585343;-46.8149008737
248911.366;-60.5079501704;-46.4954970562
248912.366;-60.550981439;-46.176120847
248913.366;-60.4736552962;-45.8566815521
248914.366;-60.49137893;-45.537271895
248915.366;-60.59906439;-45.2178359588
248916.366;-60.6440923355;-44.8984203146
248917.366;-60.5559488126;-44.5789906214
248918.366;-60.4458042596;-44.2595545937
248919.366;-60.3558722144;-43.9401644086
248920.366;-60.2777433551;-43.6207023259
248921.366;-60.2233589179;-43.3012519282
248922.366;-60.2705301586;-42.981811814
248923.366;-60.3752854492;-42.6623517052
248924.366;-60.4466782472;-42.3429362874
248925.366;-60.5560901809;-42.0234458033
248926.366;-60.4721584606;-41.7039960255
248927.366;-60.4578376269;-41.384529085
248928.366;-60.4553995175;-41.0650681742
248929.366;-60.4497181951;-40.7456233502
248930.366;-60.2313809981;-40.4261237165
248931.366;-60.1896692481;-40.1066947227
248932.366;-60.3563879704;-39.7871916376
248933.366;-60.5650805424;-39.4677073419
248934.366;-60.619481602;-39.1482111976
248935.366;-60.5449572913;-38.8287503577
248936.366;-60.4389592596;-38.5092449144
248937.366;-60.373998579;-38.1897634603
248938.366;-60.3602766574;-37.8702849183
248939.366;-60.491358983;-37.5507679579
248940.366;-60.637275316;-37.231268644
248941.366;-60.6110826806;-36.9117507808
248942.366;-60.7242345165;-36.5922551069
248943.366;-60.7229227745;-36.2727452361
248944.366;-60.6333964216;-35.9532353201
248945.366;-60.4450166763;-35.6337144238
248946.366;-60.3956366616;-35.314192849
248947.366;-60.3865850742;-34.9946573077
248948.366;-60.3641706961;-34.6751313294
248949.366;-60.4164433456;-34.3555939782
248950.366;-60.3433863011;-34.0360757506
248951.366;-60.4737463217;-33.7165393976
248952.366;-60.5204008519;-33.3969912656
248953.366;-60.6399883529;-33.0774514686
248954.366;-60.5829223034;-32.7578960076
248955.366;-60.5706165636;-32.4383298165
248956.366;-60.6484478887;-32.1187849271
248957.366;-60.8613643962;-31.7992407701
248958.366;-60.8597565997;-31.4797079588
248959.366;-60.834963307;-31.1601107858
248960.366;-60.8550946461;-30.8405438185
248961.366;-60.7751112265;-30.5209711242
248962.366;-60.8577141046;-30.2014317095
248963.366;-60.8968313155;-29.881855922
248964.366;-60.747593998;-192.539741958
248965.366;-60.7586818782;-192.186277213
248966.366;-60.7617524374;-191.834081111
248967.366;-60.7309518801;-191.481876674
248968.366;-60.5881576476;-505.160888277
248969.366;-60.2900653246;-461.202193049
248970.366;-60.2222463775;-460.870339254
248971.366;-60.1238188711;-460.538459866
248972.366;-60.2145111451;-460.206600474
248973.366;-60.2978396649;347.421173634
248974.366;-60.3836083121;347.726536478
248975.366;-60.4385645532;348.035194164
248976.366;-60.5426530831;348.343851003
248977.366;-60.4813874951;348.652485131
248978.366;-60.5401899231;-25.0878522843
248979.366;-60.5322634363;-24.7682599244
248980.366;-60.6805515931;-24.4486188057
248981.366;-60.5501651386;-24.1289860793
248982.366;-60.6715559723;-23.8093623039
248983.366;-60.5279440129;-23.4897343459
248984.366;-60.4731809974;-23.1700769297
248985.366;-60.3493951724;-22.850450582
248986.366;-60.2485273061;-22.5308097028
248987.366;-60.3325370241;-22.2111570249
248988.366;-60.2116246159;-21.8915218568
248989.366;-59.9881373078;-21.5718654206
248990.366;-59.9819032256;-21.2522103796
248991.366;-60.0949719112;-20.9325564213
248992.366;-60.002782306;-20.6129100692
248993.366;-59.9214392529;-20.2932177361
248994.366;-59.8562220484;-19.9735629402
248995.366;-59.8891207318;-19.6538819203
248996.366;-59.9045911614;-19.3342243365
248997.366;-59.8378335401;-19.0145527027
248998.366;-60.0070645984;-18.694875634
248999.366;-60.1544611369;-18.3751953081
249000.366;-60.1245846154;-18.0555107599
249001.366;-60.1230178791;-17.7358378722
249002.366;-60.1149241251;-17.4161468199
249003.366;-60.1549716779;-17.0964516746
249004.366;-60.14210867;-16.7767732027
249005.366;-60.1515142537;-16.4570624352
249006.366;-60.206491776;-16.1373785813
249007.366;-60.320823989;-15.817648333
249008.366;-60.2227700364;-15.4979672096
249009.366;-59.9594747915;-15.1782681477
249010.366;-60.3213142099;-14.8585410708
249011.366;-60.6650773129;-14.5388263998
249012.366;-60.9215891636;-14.219133819
249013.366;-60.7410563853;-13.8994173328
249014.366;-60.509719373;-13.5796719222
249015.366;-60.6165658892;-13.2599499167
249016.366;-60.7226114254;-12.9402403028
249017.366;-60.7848206244;-12.6205095305
249018.366;-60.6661802271;-12.3007537766
249019.366;-60.6230744681;-11.9810523273
249020.366;-60.6258239637;-11.6612973868
249021.366;-60.4942789494;-11.3415715235
249022.366;-60.5876351951;-11.0218167119
249023.366;-60.5965331703;-443.254812518
249024.366;-60.6322400199;-442.918185067
249025.366;-60.6837175157;-442.585141874
249026.366;-60.6106439554;-442.252008753
249027.366;-60.504371281;-441.918887442
249028.366;-60.2792674176;-9.10333339539
249029.366;-60.2766376791;-8.7835763305
249030.366;-60.3162904754;-8.46381683982
249031.366;-60.1319429487;-8.14402795196
249032.366;-60.096043217;-7.82426833857
249033.366;-60.0142040568;-7.50447182767
249034.366;-60.0080206466;-7.18467924129
249035.366;-59.9660414932;-6.8649306251
249036.366;-59.8067057646;-6.54517179745
249037.366;-59.8694660234;-6.22537196287
249038.366;-59.9213448974;-5.90560547615
249039.366;-59.9954846207;-5.58581982166
249040.366;-59.9171003683;-5.26604037448
249041.366;-59.8819652971;-4.94623796019
249042.366;-60.0224544877;-4.6264376888
249043.366;-60.0398663855;-4.3066622744
249044.366;-60.199996775;-3.98684193346
249045.366;-60.3907129973;-3.66704564288
249046.366;-60.191260527;-3.34724088469
249047.366;-60.3562254848;-3.02743056091
249048.366;-60.3159168911;-2.70762046686
249049.366;-60.1237323667;-2.38779757899
249050.366;-60.1353303989;-2.06802070068
249051.366;-60.2035155704;-1.74819550407
249052.366;-60.1663939273;-1.42837589878
249053.366;-60.3701116778;-1.10853136776
249054.366;-60.2589002964;372.461991214
249055.366;-60.1469978561;372.71791704
249056.366;-59.9011226628;373.026327508
249057.366;-60.1728075078;373.334723325
249058.366;-60.3925628937;373.643103942
249059.366;-60.5933945292;0.810446830513
249060.366;-60.4844960384;1.13024821589
249061.366;-60.5545852023;1.45010746075
249062.366;-60.5001757216;1.7699470244
249063.366;-60.4239191877;2.08979783605
249064.366;-60.5283029616;2.40965082046
249065.366;-60.2637124979;2.72947288108
249066.366;-60.3555278748;3.04931815492
249067.366;-60.4932459294;3.36917787149
249068.366;-60.535842978;3.68904891501
249069.366;-60.4692266296;4.00890292983
249070.366;-60.4730668893;4.3287746376
249071.366;-60.3520449274;4.64863848082
249072.366;-60.2578882077;4.96849343998
249073.366;-60.2984639228;5.2883451688
249074.366;-60.2484982992;5.60824095051
249075.366;-60.1819436013;5.92811348784
249076.366;-60.3634029772;6.24798007274
249077.366;-60.3679192705;6.56786364999
249078.366;-60.3926049362;6.8877429944
249079.366;-60.463322101;7.20760894534
249080.366;-60.3857574854;7.52749124718
249081.366;-60.4445588026;7.8473872625
249082.366;-60.5114747559;8.16727511165
249083.366;-60.6008357046;8.48716501877
249084.366;-60.6488287896;8.80705178707
249085.366;-60.6456976048;9.12695977749
249086.366;-60.3982525942;9.44684327857
249087.366;-60.3957486953;9.76674386757
249088.366;-60.2050503382;10.0866411615
249089.366;-60.2537831427;10.40652362
249090.366;-60.0729578682;10.7264529404
249091.366;-60.0708587865;11.0463615859
249092.366;-60.1395821103;11.3662712412
249093.366;-60.2559768039;11.6861666353
249094.366;-60.3429175468;12.006097185
249095.366;-60.2897945094;12.3260081497
249096.366;-60.2854675031;12.6459350796
249097.366;-60.2268680308;12.965859166
249098.366;-60.052215801;13.2857748934
249099.366;-60.0521947637;13.6057046348
249100.366;-60.0171467422;13.925646222
249101.366;-60.1682135116;14.2455630337
249102.366;-60.1939937711;14.5654875814
249103.366;-60.3232581945;14.8854305804
249104.366;-60.3215539991;15.2053683957
249105.366;-60.1585623999;15.5252969537
249106.366;-60.0676673336;15.8452124012
249107.366;-60.0229601026;16.1651851189
249108.366;-59.8644008608;16.4851156431
249109.366;-59.8223229054;16.8050656791
249110.366;-60.0341254311;17.1250257794
249111.366;-60.0389129676;17.4449736531
249112.366;-59.9951585751;17.7649015711
249113.366;-60.1024411991;18.0848708686
249114.366;-59.9922321192;18.4048359155
249115.366;-60.0949262112;18.7247935632
249116.366;-60.1324636488;19.0447341579
249117.366;-60.2716874223;19.3646999208
249118.366;-60.2161467094;19.684667449
249119.366;-60.2102480799;20.0046461923
249120.366;-60.200468213;20.3246072645
249121.366;-60.25177851;20.6445603274
249122.366;-60.2990129149;20.9645526187
249123.366;-60.1968477222;21.2845282338
249124.366;-60.3721540922;21.6044844301
249125.366;-60.3493440618;21.9244862048
249126.366;-60.2772866542;22.2444678506
249127.366;-60.3959275667;22.5644352358
249128.366;-60.2933175977;22.8844161272
249129.366;-60.2636280839;23.2044208628
249130.366;-60.3576942699;23.5243940009
249131.366;-60.19826989;326.98645128
249132.366;-60.2179622484;327.315970378
249133.366;-60.3837214388;327.646036922
249134.366;-60.3315439036;327.976079554
249135.366;-60.3552576608;328.306069637
249136.366;-60.4208251132;25.4443553076
249137.366;-60.4053288291;25.7643774151
249138.366;-60.4530339756;26.0843423593
249139.366;-60.4027659502;26.4043730544
249140.366;-60.5818824362;26.7243463579
249141.366;-60.4020092608;27.0443826556
249142.366;-60.3093363837;27.3643751124
249143.366;-60.0347049567;27.6843837437
249144.366;-60.0343575985;28.0044120037
249145.366;-60.104307138;28.3244402394
249146.366;-60.1207100512;28.6444400849
249147.366;-60.2311085426;28.9644646429
249148.366;-60.2943469017;29.284474425
249149.366;-60.2498775133;29.604507587
249150.366;-60.2659763351;29.924516559
249151.366;-60.1652672525;30.2445743527
249152.366;-60.3300471627;30.5645871802
249153.366;-60.1522022315;30.8846243907
249154.366;-60.0443313557;31.2046770004
249155.366;-59.9697242149;31.524668039
249156.366;-59.8876816021;31.8447114368
249157.366;-59.8586381162;32.1647584962
249158.366;-59.7768813318;32.4847861017
249159.366;-59.9411799488;32.8048374259
249160.366;-60.0420363842;33.1248667627
249161.366;-60.1256767585;33.4449133139
249162.366;-60.2476957103;33.7649701793
249163.366;-60.336102219;337.593191091
249164.366;-60.301571134;337.871774525
249165.366;-60.3761425867;338.201479748
249166.366;-60.4862686838;338.531162139
249167.366;-60.3821229432;338.860789654
249168.366;-60.3936060243;35.6852629496
249169.366;-60.4409621209;36.0053157962
249170.366;-60.3394219832;36.3253681456
249171.366;-60.2655303948;36.6454243536
249172.366;-60.2581279742;36.9655094568
249173.366;-60.3668275359;37.2855743412
249174.366;-60.3177245916;37.6056227176
249175.366;-60.222045391;37.9256710873
249176.366;-60.2306903194;341.82961018
249177.366;-60.1897956877;342.156800932
249178.366;-60.2545087388;342.486336461
249179.366;-60.1469284271;342.815839646
249180.366;-60.3162431191;343.145377667
249181.366;-60.435491632;39.8461339676
249182.366;-60.4552623513;40.1662052587
249183.366;-60.4591266908;40.4862806701
249184.366;-60.6327469995;40.8063423989
249185.366;-60.6537590371;41.126425057
249186.366;-60.4657730442;41.4465238462
249187.366;-60.4031824444;41.7666056971
249188.366;-60.4088294355;42.08670295
249189.366;-60.2605609984;42.4067920999
249190.366;-59.9785406431;42.7268643807
249191.366;-60.0899067076;43.0469601163
249192.366;-60.1091816737;43.3670512442
249193.366;-60.0893864595;43.6871510888
249194.366;-59.9316293188;44.0072549532
249195.366;-60.0069612791;44.3273547601
249196.366;-59.9641449115;44.6474564842
249197.366;-59.8586767793;44.9675252066
249198.366;-59.9750206601;45.2876233367
249199.366;-59.869956112;45.6077669051
249200.366;-59.8158085616;45.92783763
249201.366;-59.7608100667;46.2479493624
249202.366;-59.8133645211;46.5680740452
249203.366;-59.9762494494;46.8882189115
249204.366;-59.9839150177;47.2082715182
249205.366;-60.0408956101;47.5283905141
249206.366;-59.9583878697;47.8485060696
249207.366;-59.78032332;48.1686261487
249208.366;-59.8829452292;48.4887193175
249209.366;-59.8857642758;48.8088669041
249210.366;-59.9167960285;49.1289848623
249211.366;-60.0280557485;49.449086513
249212.366;-60.0347836927;49.7692131709
249213.366;-59.8369845616;50.0893430366
249214.366;-59.8832129684;50.4094483091
249215.366;-59.9199294594;50.7295716831
249216.366;-59.8818614477;51.0497015558
249217.366;-59.9382182676;-103.184332844
249218.366;-59.9562173056;-102.828635457
249219.366;-60.1402454847;-102.474507388
249220.366;-60.1594703009;-102.12034819
249221.366;-60.0683846327;-101.766212776
249222.366;-60.2153990263;52.9704815805
249223.366;-60.1002782395;53.2906359588
249224.366;-60.2888709824;53.610768587
249225.366;-60.2499146476;53.930894286
249226.366;-60.3087394935;54.2510440272
249227.366;-60.3032279716;54.5711979087
249228.366;-60.2570067639;54.8913263953
249229.366;-60.3025609171;55.2114704937
249230.366;-60.3733879423;55.5315983792
249231.366;-60.1812050945;55.8517500944
249232.366;-60.2599566032;56.1718958271
249233.366;-60.2950110221;56.4920526451
249234.366;-60.4019324653;56.8122052666
249235.366;-60.4634961915;57.1323510466
249236.366;-60.3197072886;57.4524848857
249237.366;-60.1431223139;57.7726465021
249238.366;-60.2208476164;58.0927958401
249239.366;-60.1887758017;58.4129570235
249240.366;-60.0642212625;58.7330990534
249241.366;-59.970203454;59.0532654666
249242.366;-59.9767506683;59.373422483
249243.366;-60.0396585731;59.6935915485
249244.366;-59.9704509715;60.0137605472
249245.366;-59.9418472498;364.493930744
249246.366;-59.870671917;364.868992513
249247.366;-59.8932669133;365.197765881
249248.366;-59.9649327606;365.526519142
249249.366;-60.1231094148;365.855274319
249250.366;-60.1444020049;61.9347202532
249251.366;-60.0960960358;62.254867614
249252.366;-60.110385953;62.5750827622
249253.366;-59.9878513225;-90.4900463451
249254.366;-60.0543046299;-90.0762296183
249255.366;-60.0704194737;-89.7218812539
249256.366;-60.0132928036;-89.3675187461
249257.366;-60.0434599376;-89.0131368683
249258.366;-60.1107777177;64.4960969939
249259.366;-60.3631928945;64.8162762117
249260.366;-60.301977118;65.1364543702
249261.366;-60.5156093037;65.4566286488
249262.366;-60.4711359409;65.7768136549
249263.366;-60.5799816539;66.0969970635
249264.366;-60.4470442402;66.417161631
249265.366;-60.1741764459;66.7373600846
249266.366;-60.0483375933;67.057555249
249267.366;-60.2112779213;67.3777546108
249268.366;-60.157139568;67.6979163646
249269.366;-60.0883683908;68.0181062315
249270.366;-59.9259534943;68.3382894967
249271.366;-59.9194023715;68.6584274031
249272.366;-59.9341433226;68.97865603
249273.366;-59.8459437427;69.2988523801
249274.366;-59.7605229674;69.6190318989
249275.366;-59.8151603626;69.9392292763
249276.366;-59.9444095934;70.2594679082
249277.366;-59.9699035554;70.5796436023
249278.366;-59.9187885818;70.8998299857
249279.366;-59.7878756715;71.2200214887
249280.366;-59.6774650094;71.5402058051
249281.366;-59.7341475967;376.371243981
249282.366;-59.7361800059;376.696951045
249283.366;-59.7966369737;377.025261235
249284.366;-59.8345082582;377.353586707
249285.366;-59.9196331093;377.681928548
249286.366;-59.815884177;73.4613903138
249287.366;-59.7594249206;73.7815936355
249288.366;-59.7707416913;74.1017956893
249289.366;-59.6855133326;74.4220169726
249290.366;-59.73225185;74.7422209511
249291.366;-59.7643624649;75.0624374123
249292.366;-59.8729078085;75.3826321828
249293.366;-59.9531263329;75.7028474643
249294.366;-59.8359325843;76.023029408
249295.366;-59.7285097088;76.3432621921
249296.366;-59.7485889166;76.663459001
249297.366;-59.7095088736;76.9836781267
249298.366;-59.7491010011;77.3038715759
249299.366;-59.7464096558;77.6240969575
249300.366;-59.8511457601;77.9443135542
249301.366;-59.9187701933;78.2645135686
249302.366;-59.9876318471;78.5847505479
249303.366;-59.9421227655;78.9049442203
249304.366;-59.9562875108;79.2251738534
249305.366;-60.0300457519;79.5453628155
249306.366;-59.8647788729;79.8655956542
249307.366;-59.8888470317;80.1858317693
249308.366;-59.8691100759;80.5060360187
249309.366;-59.7916151199;80.826253424
249310.366;-59.7883185798;81.1464653501
249311.366;-59.8503059501;81.4666943571
249312.366;-59.7776719115;81.7868968256
249313.366;-59.7082461808;82.1071380111
249314.366;-59.7164924027;82.4273463043
249315.366;-59.8218775467;82.7475635889
249316.366;-59.9343238344;83.0678082055
249317.366;-60.0589277972;83.3880206069
249318.366;-60.2774882995;83.7082399867
249319.366;-60.3854614538;84.028460763
249320.366;-60.4443988873;84.3487135569
249321.366;-60.2849350503;84.6689122502
249322.366;-60.2639316796;84.9891419808
249323.366;-60.241160686;85.3093591309
249324.366;-60.3766838985;85.6296067432
249325.366;-60.3364263985;85.9498458811
249326.366;-60.4228107564;86.2700562005
249327.366;-60.4136183846;86.5902822994
249328.366;-60.4800666367;86.9105289317
249329.366;-60.4459394464;87.2307624724
249330.366;-60.5145035218;87.5509857057
249331.366;-60.4580682451;87.8711987125
249332.366;-60.508022413;88.1914281212
249333.366;-60.551769153;88.5116962597
249334.366;-60.5590608433;88.8319111421
249335.366;-60.2933923064;89.1521613418
249336.366;-60.2687443438;89.4723875959
249337.366;-60.2147697452;89.7926274234
249338.366;-60.0836678192;90.1128540444
249339.366;-60.1706317666;90.4330908046
249340.366;-60.1010047021;90.7533188755
249341.366;-60.2242234834;91.0735570521
249342.366;-60.2948530219;91.3938059365
249343.366;-60.3321138246;91.714052265
249344.366;-60.3477040202;92.0342613019
249345.366;-60.2848079423;92.3545162488
249346.366;-60.2634209023;92.6747721288
249347.366;-60.2639920095;92.9949906478
249348.366;-60.2391693247;93.3152042631
249349.366;-60.1711657127;93.6354721869
249350.366;-60.1565410851;93.9557118743
249351.366;-60.0326965558;94.275953571
249352.366;-60.1773910057;94.5961811627
249353.366;-60.0377167822;94.9164207828
249354.366;-60.2172131361;95.2366545076
249355.366;-60.2247902693;95.5569169428
249356.366;-60.2429484515;95.8771658015
249357.366;-60.2379980988;96.1973830642
249358.366;-60.1086650414;96.5176243084
249359.366;-60.0776121497;96.8378697793
249360.366;-60.0665708399;97.1581462288
249361.366;-60.0462207932;97.4783934213
249362.366;-59.8977948337;97.7986088953
249363.366;-59.8022342882;98.1188556584
249364.366;-59.7117056137;98.4390955745
249365.366;-59.8070085616;98.7593647664
249366.366;-59.9270693916;99.0795957488
249367.366;-60.1192146264;99.399825876
249368.366;-60.3711904522;99.7201050245
249369.366;-60.4186080406;100.040352827
249370.366;-60.4239990313;100.360584896
249371.366;-60.463900349;100.680835617
249372.366;-60.6434290652;101.001077949
249373.366;-60.5527381254;101.32132465
249374.366;-60.4644753263;101.641592587
249375.366;-60.5777208436;101.961833043
249376.366;-60.557140886;102.282076124
249377.366;-60.4763129175;102.602330774
249378.366;-60.4316283065;102.922578139
249379.366;-60.3317374229;103.242826765
249380.366;-60.3392627259;103.563055202
249381.366;-60.3911865483;103.88331473
249382.366;-60.4468636446;104.203554093
249383.366;-60.4649054551;104.523808041
249384.366;-60.6723724434;104.844070877
249385.366;-60.7374381773;105.164314817
249386.366;-60.6579242118;105.484578205
249387.366;-60.6415884928;105.804822445
249388.366;-60.6794290552;106.125058054
249389.366;-60.5184886999;106.445325197
249390.366;-60.4721530186;106.765562328
249391.366;-60.4646729565;107.085806128
249392.366;-60.4575001085;107.406072897
249393.366;-60.3961367276;107.726316531
249394.366;-60.5212788357;108.046547695
249395.366;-60.6196802423;108.366820037
249396.366;-60.6769070905;108.687084086
249397.366;-60.6449323653;109.007319124
249398.366;-60.6270858297;109.327595437
249399.366;-60.7225195645;109.647844121
249400.366;-60.7344439368;109.96809139
249401.366;-60.758062817;110.288341921
249402.366;-60.7125310733;110.608561648
249403.366;-60.6661161637;110.928831727
249404.366;-60.6719632083;111.249074396
249405.366;-60.6325211622;111.569330783
249406.366;-60.5613312673;111.889582825
249407.366;-60.4896604231;112.20981924
249408.366;-60.3956619155;112.530070884
249409.366;-60.340197876;112.850350936
249410.366;-60.2124667556;113.17059765
249411.366;-60.3036566292;113.490841416
249412.366;-60.2432905009;113.811092488
249413.366;-60.0884957121;114.131337051
249414.366;-60.1429907811;483.097098223
249415.366;-60.1291216379;483.449810644
249416.366;-60.0241375863;483.75638529
249417.366;-60.1490454124;484.063002217
249418.366;-60.3112289048;484.369610364
249419.366;-60.2917760198;116.052824173
249420.366;-60.0415037244;116.37309169
249421.366;-60.1373836908;116.693359303
249422.366;-60.194046035;117.013604476
249423.366;-60.2274351184;117.333843725
249424.366;-60.2443420321;117.654105316
249425.366;-60.2962244504;117.974379717
249426.366;-60.2387308495;118.294602595
249427.366;-60.3716798949;118.614844989
249428.366;-60.5040753085;118.935107214
249429.366;-60.4842987663;119.255333064
249430.366;-60.4093351426;119.575587466
249431.366;-60.5182551483;119.895830262
249432.366;-60.4492764043;120.216086719
249433.366;-60.4973066478;120.536338548
249434.366;-60.2902659964;120.856593917
249435.366;-60.3724236776;121.176854513
249436.366;-60.4036760057;121.497076694
249437.366;-60.2512689849;121.81734273
249438.366;-60.091870362;122.13756901
249439.366;-60.0211440475;122.457836019
249440.366;-60.1105872838;122.778074725
249441.366;-60.1680933655;123.098319328
249442.366;-60.194991352;123.418555048
249443.366;-60.2046115889;123.738807587
249444.366;-60.3003164097;124.059076524
249445.366;-60.4946654042;124.379301999
249446.366;-60.3020348668;-21.8826590644
249447.366;-60.2855718632;-21.5846966495
249448.366;-60.1294842522;-21.2293681733
249449.366;-59.9238289005;-20.8739667735
249450.366;-60.0192415261;-20.5186362189
249451.366;-60.0190676086;126.300773672
249452.366;-60.0841719243;126.621011574
249453.366;-60.2468028004;126.941255967
249454.366;-60.2633245269;127.261508324
249455.366;-60.0759216625;315.990795305
249456.366;-60.1378963123;316.342483312
249457.366;-60.2515330845;316.693947043
249458.366;-60.2374658184;317.045470566
249459.366;-60.240172102;317.396969664
249460.366;-60.1841092435;129.18293219
249461.366;-60.1341633717;129.50319336
249462.366;-60.1422617962;129.823431507
249463.366;-59.9726095131;130.143669575
249464.366;-59.966450428;319.156256443
249465.366;-59.8867614416;319.505690639
249466.366;-59.8159908327;319.857137359
249467.366;-59.776873869;320.20858771
249468.366;-59.8257800235;320.560013932
249469.366;-59.8755168024;320.911456349
249470.366;-59.7890746789;321.262891831
249471.366;-59.7672436486;321.614308124
249472.366;-59.8742752657;321.965737324
249473.366;-59.827435766;322.317148954
249474.366;-59.8408435425;322.66856738
249475.366;-59.9731302711;323.019973186
249476.366;-59.947169013;323.371384033
249477.366;-59.8684900373;323.722765176
249478.366;-59.8911956093;324.074196051
249479.366;-59.9539532951;324.425576423
249480.366;-59.9627047891;324.776973546
249481.366;-59.7701333238;325.128349696
249482.366;-59.8663453341;325.47973844
249483.366;-60.0483564359;325.831097602
249484.366;-60.1052092439;326.182467429
249485.366;-60.206243693;326.533850879
249486.366;-60.2611179465;326.885216031
249487.366;-60.2551681911;327.236561904
249488.366;-60.380741087;327.587922917
249489.366;-60.4821938393;327.939266168
249490.366;-60.5249961941;328.290645199
249491.366;-60.5748221259;328.641976135
249492.366;-60.5504092087;328.993293489
249493.366;-60.3213162455;329.344637222
249494.366;-60.2488723515;329.69596739
249495.366;-60.2092224868;330.047273663
249496.366;-60.1389899234;330.398615713
249497.366;-60.2028212408;330.749935835
249498.366;-60.1383115791;331.101242392
249499.366;-60.0405792651;331.452549862
249500.366;-60.0869392603;331.803849365
249501.366;-60.0726089286;332.155159995
249502.366;-60.1933270011;332.506440444
249503.366;-60.0915015529;332.857743103
249504.366;-60.0947373108;333.209030585
249505.366;-60.0369751304;333.560313364
249506.366;-60.0711612484;333.911574
249507.366;-60.097368288;334.262863633
249508.366;-60.0407022118;334.614129073
249509.366;-60.0540705206;334.965395165
249510.366;-60.1738859222;335.316643392
249511.366;-60.1169074668;335.667902261
249512.366;-60.1928686459;336.019164334
249513.366;-60.1612944136;336.370393096
249514.366;-60.0314538398;336.721662742
249515.366;-59.9832740466;337.072874121
249516.366;-59.9371187288;337.42412177
249517.366;-59.9584987499;337.775346275
249518.366;-59.8809386236;338.126579395
249519.366;-59.9105452766;338.477785472
249520.366;-60.0384854225;338.828996947
249521.366;-60.0436410889;339.180219163
249522.366;-60.0157296859;339.531424875
249523.366;-59.9500140884;339.8826215
249524.366;-60.2009622853;340.233809314
249525.366;-60.187099267;340.585026604
249526.366;-60.0789476748;340.936191127
249527.366;-60.178355078;341.287397664
249528.366;-60.2170678673;341.638569439
249529.366;-60.2224461395;341.989742106
249530.366;-60.2315838853;342.340893311
249531.366;-60.2020325291;342.692067454
249532.366;-60.3618242234;343.043233092
249533.366;-60.3463626032;343.394384808
249534.366;-60.2105067234;343.745525614
249535.366;-60.1895948702;344.09668345
249536.366;-60.3172628546;344.447809419
249537.366;-60.1220982395;344.798937745
249538.366;-60.0453330328;345.150086737
249539.366;-60.1553911324;345.501212695
249540.366;-60.1222862217;345.852341177
249541.366;-59.9480058518;346.203471897
249542.366;-60.0951440204;346.554568566
249543.366;-60.149621014;346.905691586
249544.366;-60.114412066;347.256779325
249545.366;-59.969951392;347.607879974
249546.366;-60.1021159065;347.958986782
249547.366;-60.0318560791;348.31006372
249548.366;-59.9953492534;348.661143664
249549.366;-60.2554070971;349.012238187
249550.366;-60.3378848471;349.363306401
249551.366;-60.368165258;349.714391199
249552.366;-60.4221690633;350.065426939
249553.366;-60.5007044745;350.416514371
249554.366;-60.6983787657;350.767560166
249555.366;-60.3544682513;351.118606318
249556.366;-60.2074042478;351.469651803
249557.366;-60.0885036186;351.820694943
249558.366;-60.0638974544;352.171740823
249559.366;-60.1020706568;352.522762933
249560.366;-60.0930818575;352.87379022
249561.366;-60.0752882168;353.22480915
249562.366;-60.1569668355;353.575817656
249563.366;-60.2338688083;353.926842053
249564.366;-60.2773315714;354.277837851
249565.366;-60.2248682386;354.6288696
249566.366;-60.2803088863;354.979838355
249567.366;-60.2946728939;355.33085624
249568.366;-60.3216288242;355.681816069
249569.366;-60.341715169;356.032808605
249570.366;-60.4136799934;356.383793569
249571.366;-60.3112731701;356.734764548
249572.366;-60.2176474338;357.085726118
249573.366;-60.1622092143;357.436696766
249574.366;-60.202371449;357.787628958
249575.366;-60.0981253399;358.13858762
249576.366;-60.0577201065;358.489544156
249577.366;-60.0144160741;358.840487893
249578.366;-60.0699968561;359.191425018
249579.366;-60.1396735142;359.542365214
249580.366;-60.1229862946;359.893270153
249581.366;-60.0215987201;360.244192377
249582.366;-60.0653031474;360.595126656
249583.366;-60.0826265954;-15.2014920641
249584.366;-60.1158410498;-14.8344656786
249585.366;-60.1028822042;-14.4704801255
249586.366;-60.1871533591;-14.1064993788
249587.366;-60.2387781574;-13.7425056759
249588.366;-60.1186254933;362.700516182
249589.366;-60.1780316225;363.05139372
249590.366;-60.2554159263;363.402269177
249591.366;-60.2237029342;363.75314481
249592.366;-60.231751823;364.104004044
249593.366;-60.2273942606;364.454865081
249594.366;-60.1596630954;364.805707585
249595.366;-60.1674106327;365.156557946
249596.366;-60.1193305312;365.507408843
249597.366;-60.0927309833;365.858251421
249598.366;-59.9887128762;366.209071295
249599.366;-59.8950001321;366.559898951
249600.366;-60.0091332547;366.910736216
249601.366;-60.1108569138;367.261554095
249602.366;-60.0673474695;367.612364025
249603.366;-59.9358044913;367.963171995
249604.366;-60.0669354259;368.313962362
249605.366;-60.1114126115;368.664780682
249606.366;-60.0381672477;217.623311421
249607.366;-59.9739760274;217.997360084
249608.366;-59.8727795395;218.370678801
249609.366;-59.9127880117;218.743966833
249610.366;-59.9509677641;219.117245784
249611.366;-60.0778396796;370.76945358
249612.366;-60.3861019647;371.120202635
249613.366;-60.3457243337;371.470955565
249614.366;-60.4081371623;371.821707107
249615.366;-60.3800158204;372.172447787
249616.366;-60.3612181025;372.523184212
249617.366;-60.2523211716;372.87389207
249618.366;-60.4144441207;373.224640178
249619.366;-60.3929654687;373.575381898
249620.366;-60.2688463249;222.849147365
249621.366;-60.1617008909;223.223133207
249622.366;-60.2794475991;223.59637869
249623.366;-60.3244822438;223.969673061
249624.366;-60.290845341;224.34291455
249625.366;-60.2033545529;375.679587875
249626.366;-60.176281336;376.030246901
249627.366;-60.2161091674;376.380949743
249628.366;-60.201576595;630.529297135
249629.366;-60.0972866147;630.823391547
249630.366;-60.2377206722;631.155969885
249631.366;-60.3761908744;631.488535873
249632.366;-60.5131091666;631.821098887
249633.366;-60.6434626563;378.484896718
249634.366;-60.5787906844;378.835526961
249635.366;-60.5030647117;379.186176966
249636.366;-60.4778563154;379.536796957
249637.366;-60.6598179646;379.887412083
249638.366;-60.5639903239;380.238023002
249639.366;-60.3801184442;380.588651894
249640.366;-60.3340927101;380.939244362
249641.366;-60.4035672623;381.289842894
249642.366;-60.4375989661;381.640443722
249643.366;-60.3517827045;381.99103019
249644.366;-60.3235629082;382.341631915
249645.366;-60.2931202151;382.692214645
249646.366;-60.362301511;383.042757312
249647.366;-60.1948253267;383.393335928
249648.366;-60.1665818244;383.74391614
249649.366;-60.0924545502;384.09445603
249650.366;-60.0254271219;384.444995051
249651.366;-60.1983365189;384.795556471
249652.366;-60.3120927477;385.146085979
249653.366;-60.4769068322;385.496630433
249654.366;-60.6633492506;385.847134992
249655.366;-60.6837557421;386.197648762
249656.366;-60.7136443253;386.548166361
249657.366;-60.6286912028;386.89867968
249658.366;-60.4367710009;387.249182152
249659.366;-60.4149782046;387.599684686
249660.366;-60.357662795;387.950161059
249661.366;-60.4661973914;388.300660595
249662.366;-60.287476461;388.651131371
249663.366;-60.1129305151;389.001611964
249664.366;-60.2547976348;389.352063912
249665.366;-60.0029304815;389.702556507
249666.366;-59.9072110236;390.052985071
249667.366;-59.9319797277;390.403446798
249668.366;-59.8439085462;390.753883819
249669.366;-59.9340973817;391.104338723
249670.366;-60.1142774498;391.454760319
249671.366;-60.2698846075;391.805191418
249672.366;-60.4697466899;392.15559945
249673.366;-60.6080446922;392.506033744
249674.366;-60.5899649157;392.856425878
249675.366;-60.5248341588;393.206851243
249676.366;-60.5527768286;393.55723122
249677.366;-60.4679749994;393.907634035
249678.366;-60.6719623292;394.258015002
249679.366;-60.6133759374;394.608392458
249680.366;-60.5102762183;394.958769364
249681.366;-60.4929922013;395.309123189
249682.366;-60.4487625391;395.659486152
249683.366;-60.4695197856;396.009849955
249684.366;-60.398625827;396.360214435
249685.366;-60.4206343105;396.710548932
249686.366;-60.3208720802;397.060872932
249687.366;-60.228603611;397.411228251
249688.366;-60.2482400859;397.761527992
249689.366;-60.1565364469;398.111849442
249690.366;-60.0755416218;398.462182425
249691.366;-60.1416021306;398.812478597
249692.366;-60.2711480732;399.162775882
249693.366;-60.2134572373;399.513044991
249694.366;-60.2896560475;399.863356812
249695.366;-60.359466382;400.213638527
249696.366;-60.3328642256;400.563919022
249697.366;-60.3170011762;400.914179524
249698.366;-60.5088553158;401.264434913
249699.366;-60.4808251604;401.614708112
249700.366;-60.4837760827;401.964950343
249701.366;-60.6705907703;402.315192229
249702.366;-60.8190317715;402.665425627
249703.366;-60.8247438053;403.015660667
249704.366;-60.8159532653;403.36589555
249705.366;-60.6094564619;403.716127634
249706.366;-60.7585582485;404.066347381
249707.366;-60.7090018181;404.416541856
249708.366;-60.7360473855;404.766744766
249709.366;-60.8580611775;405.116948919
249710.366;-60.7762686005;405.46713833
249711.366;-60.7845620366;405.817340344
249712.366;-60.6639979;406.167481907
249713.366;-60.389225291;406.517673548
249714.366;-60.2835520625;406.867828591
249715.366;-60.292116996;407.217985862
249716.366;-60.0788733679;258.673650588
249717.366;-60.198460848;259.047390905
249718.366;-60.1632033866;259.420446317
249719.366;-60.0714536084;259.793509541
249720.366;-60.0202926956;260.166563079
249721.366;-60.0092882741;409.318801694
249722.366;-60.106415239;409.668910232
249723.366;-60.1305614727;410.019032772
249724.366;-60.1096305675;410.369126605
249725.366;-60.1581869673;662.675340217
249726.366;-60.2544362333;663.039733434
249727.366;-60.2300231728;663.371359911
249728.366;-60.2285709972;663.703013361
249729.366;-60.2285529784;664.034599051
249730.366;-60.4121384772;412.469604598
249731.366;-60.4900945505;412.819653731
249732.366;-60.4581104772;413.169697538
249733.366;-60.3356833926;413.519748227
249734.366;-60.3408253738;413.869766626
249735.366;-60.3046186206;414.219804748
249736.366;-60.341248795;414.569833806
249737.366;-60.2457571103;414.919857719
249738.366;-60.0486891419;415.269879796
249739.366;-60.2335974258;415.619868584
249740.366;-60.3511127576;415.969871002
249741.366;-60.4895385713;416.319874453
249742.366;-60.3371115148;416.66983357
249743.366;-60.3555580605;417.019827862
249744.366;-60.3073354754;417.36978961
249745.366;-60.2332905362;417.719740256
249746.366;-60.1375929183;418.069699075
249747.366;-60.1981394718;418.419661276
249748.366;-60.1600684822;418.769601123
249749.366;-60.1452786234;419.119543074
249750.366;-59.9446613138;419.469473502
249751.366;-59.9228917779;419.819376837
249752.366;-59.9892721053;420.169317859
249753.366;-60.0588692677;420.519225516
249754.366;-60.0542357351;420.869145591
249755.366;-60.0770901831;421.219032387
249756.366;-60.1133176289;421.568928577
249757.366;-60.1661493264;421.918806058
249758.366;-60.1444877755;422.268673506
249759.366;-60.0495651409;422.618549909
249760.366;-60.1507818518;422.96842405
249761.366;-60.015402161;423.31826984
249762.366;-60.0278739002;423.668135765
249763.366;-60.0222188194;424.017978071
249764.366;-60.0319146619;424.367796885
249765.366;-60.1395127796;424.717632843
249766.366;-60.1109573773;425.067481508
249767.366;-60.128862836;425.417285753
249768.366;-60.02804362;425.767083197
249769.366;-60.1368661833;426.116893771
249770.366;-60.2446261844;426.466688428
249771.366;-60.2255034959;426.816495308
249772.366;-60.2718524279;427.166271614
249773.366;-60.2290309963;427.516045495
249774.366;-60.2372590428;427.865821849
249775.366;-60.2384986503;428.215595604
249776.366;-60.1796253308;428.565339638
249777.366;-60.0631428967;428.915081526
249778.366;-60.0119113851;429.264834964
249779.366;-59.985256878;429.614574843
249780.366;-59.9877476849;429.96428732
249781.366;-59.9536492534;430.314033868
249782.366;-60.0382998981;430.663755042
249783.366;-59.9505240563;431.013444539
249784.366;-59.8805864139;431.363132293
249785.366;-59.8513718745;431.712835493
249786.366;-59.715433893;432.062524361
249787.366;-59.7593183847;432.412205722
249788.366;-59.7884011542;59.5749650489
249789.366;-59.9133295946;59.985767575
249790.366;-59.7947995751;60.3517018326
249791.366;-59.9151363363;60.7175923503
249792.366;-59.9589955743;61.0835455236
249793.366;-60.0011742909;434.510124166
249794.366;-59.945952057;434.859773169
249795.366;-59.8787616046;435.209384948
249796.366;-59.9743578197;435.559004908
249797.366;-59.9307221055;435.908610296
249798.366;-59.8890353249;436.258200798
249799.366;-59.934234508;436.607820255
249800.366;-59.8914184041;436.957405831
249801.366;-59.7692372466;437.306975563
249802.366;-59.673802365;437.656553085
249803.366;-59.6873442207;438.006119935
249804.366;-59.7189998689;438.355675263
249805.366;-59.7869354225;438.705238815
249806.366;-59.822632809;439.054758346
249807.366;-59.8491236919;439.404314458
249808.366;-59.9831549638;439.753845533
249809.366;-60.0504953096;440.103401843
249810.366;-59.9867264735;440.452899927
249811.366;-60.0547832691;294.139866021
249812.366;-59.953445221;294.475286307
249813.366;-60.0616601927;294.8480469
249814.366;-60.0166502381;295.22086451
249815.366;-59.9110011857;295.593609183
249816.366;-59.7929114339;442.549853644
249817.366;-59.7764021826;442.899306643
249818.366;-59.8167856998;443.248768267
249819.366;-59.90766566;443.598225751
249820.366;-59.8477258446;443.947672505
249821.366;-59.9199177326;444.297108212
249822.366;-59.8408450096;444.646548543
249823.366;-59.8890427225;444.995970582
249824.366;-59.8928503404;445.34537867
249825.366;-59.8172738223;445.694782752
249826.366;-59.6706731178;446.044185577
249827.366;-59.6707147205;446.393565769
249828.366;-59.8593480032;446.742966439
249829.366;-59.974042985;447.092350023
249830.366;-59.9475586665;447.441711888
249831.366;-60.0154914114;447.791090169
249832.366;-60.1318593255;448.140442588
249833.366;-60.1868289336;448.489786842
249834.366;-60.1656179176;448.839120782
249835.366;-60.1124591279;449.18846633
249836.366;-60.3081760685;449.537791892
249837.366;-60.3363323647;449.887128485
249838.366;-60.3286486693;304.127856022
249839.366;-60.2820232878;304.538712247
249840.366;-60.1025981717;304.911355583
249841.366;-60.1766333941;305.284024695
249842.366;-60.2092432773;305.656687803
249843.366;-60.1751554348;451.98287972
249844.366;-60.2670461093;452.332166337
249845.366;-60.2156766643;452.681406403
249846.366;-60.1967698111;453.030682979
249847.366;-60.1968605637;453.37989604
249848.366;-60.2721444243;453.729137284
249849.366;-60.3787955527;454.078367231
249850.366;-60.4191803742;454.427600136
249851.366;-60.1989731673;454.776799159
249852.366;-60.1806195803;455.126014242
249853.366;-60.2174982111;455.475211285
249854.366;-60.2534225662;455.824394691
249855.366;-60.1664125268;456.173594193
249856.366;-60.2010436362;456.522766926
249857.366;-60.3622207077;456.87193938
249858.366;-60.5612076716;457.22108855
249859.366;-60.550772401;457.570261344
249860.366;-60.4171598381;457.919396612
249861.366;-60.3150559489;458.268547653
249862.366;-60.2483901815;458.617672765
249863.366;-60.1436512627;458.966782592
249864.366;-60.2033658703;459.315905121
249865.366;-60.2198372654;459.665028474
249866.366;-60.1248449342;460.014113036
249867.366;-60.0215927366;460.363225076
249868.366;-60.0390690414;460.712291946
249869.366;-60.0286918312;461.061393872
249870.366;-60.1997492682;461.410459325
249871.366;-60.2923689671;461.759520629
249872.366;-60.2055738089;462.108568484
249873.366;-60.1811385886;462.457610366
249874.366;-60.4149146808;462.806666205
249875.366;-60.4676453279;712.335103436
249876.366;-60.3755404075;712.662196414
249877.366;-60.4760805342;712.992161696
249878.366;-60.571051075;713.322107935
249879.366;-60.6582049125;713.65204465
249880.366;-60.7057233085;464.90073415
249881.366;-60.7538133925;465.249701392
249882.366;-60.7693906698;465.598679844
249883.366;-60.7958362332;465.947646182
249884.366;-60.9262239785;466.296607484
249885.366;-60.9155503904;466.64556607
249886.366;-60.906570644;466.994503417
249887.366;-60.7989317297;467.343438094
249888.366;-60.6506998741;467.692372212
249889.366;-60.4205562933;468.041301759
249890.366;-60.3213020504;468.390215898
249891.366;-60.319527266;468.739122533
249892.366;-60.3465260489;469.088009945
249893.366;-60.3066524262;469.436904836
249894.366;-60.3135518623;469.785782139
249895.366;283.731773353;470.134655679
249896.366;-60.4911336327;470.483525109
249897.366;-60.44843537;470.832397232
249898.366;-60.4704524606;471.181234503
249899.366;-60.4816039644;471.530085176
249900.366;-60.5257311397;471.878903016
249901.366;-60.5017281447;472.227749535
249902.366;-60.436238879;472.576561607
249903.366;-60.3052174189;472.925361464
249904.366;-60.3696149364;473.274155241
249905.366;-60.2155298998;473.622950478
249906.366;-60.2820095629;473.971748967
249907.366;-60.1772505692;474.320524437
249908.366;-60.1031392641;474.66929819
249909.366;-60.1794172538;475.018058249
249910.366;-60.1369155925;475.366822156
249911.366;-60.0851767038;475.715548948
249912.366;-60.1019979117;476.064298983
249913.366;-59.9110907315;476.41303222
249914.366;-59.8246864532;476.761752639
249915.366;-59.9659206315;477.11047603
249916.366;-59.8258249369;477.459167872
249917.366;-59.6818207803;477.807873035
249918.366;-59.7339844109;478.156548028
249919.366;-59.7262264276;478.505214801
249920.366;-59.8116105234;478.853890526
249921.366;-59.8485238554;479.202575494
249922.366;-59.6530485624;479.551206351
249923.366;-59.7207482551;479.899858795
249924.366;-59.8198185239;480.248492964
249925.366;-59.7334018697;480.597130257
249926.366;-59.6969303609;480.945770901
249927.366;-59.778489413;481.29436237
249928.366;-59.7460694913;481.642978948
249929.366;-59.8511720427;481.991588921
249930.366;-59.9783601161;482.340162244
249931.366;-59.8537006867;482.688746332
249932.366;-59.9274233528;483.037322926
249933.366;-59.8179705585;483.385894246
249934.366;-59.7849691081;483.73444023
249935.366;-59.7680221621;484.082988489
249936.366;-59.9675624883;484.431531133
249937.366;-59.9119443676;484.780069864
249938.366;-59.908377175;485.128583119
249939.366;-59.9321431215;485.477105729
249940.366;-59.9893941076;485.825597717
249941.366;-60.1800101111;486.174103009
249942.366;-59.9720373933;486.522585672
249943.366;-60.0189534751;486.871066887
249944.366;-60.1317005404;487.21955584
249945.366;-60.050270276;487.568000372
249946.366;-60.0261573367;487.916467604
249947.366;-60.0808784345;488.264919522
249948.366;-60.095530103;488.613377104
249949.366;-59.9447517295;488.961793804
249950.366;-59.9679186894;489.310218319
249951.366;-59.8659826392;489.658619016
249952.366;-59.78996144;490.007025782
249953.366;-59.7098765431;490.355432384
249954.366;-59.7071206564;490.703805777
249955.366;-59.7743495724;491.052203227
249956.366;-59.7884284896;491.400583607
249957.366;-59.625220566;491.748923345
249958.366;-59.7853857932;492.097271459
249959.366;-59.7677946754;492.445632384
249960.366;-59.7758879255;492.793955227
249961.366;-59.8580469419;493.142290901
249962.366;-59.9685355042;493.490612595
249963.366;-60.0933837056;493.838930299
249964.366;-59.919975097;494.187213988
249965.366;-59.8469803714;494.53552283
249966.366;-60.0845327199;494.883815529
249967.366;-60.0257782803;495.232093932
249968.366;-60.0138899777;495.580355039
249969.366;-60.0152700151;495.928607735
249970.366;-60.0470561407;496.276859645
249971.366;-60.0758941634;353.691624538
249972.366;-60.0538136469;354.064097266
249973.366;-59.8644502903;354.43614057
249974.366;-59.9234465123;354.808150432
249975.366;-59.9747540879;355.180151536
249976.366;-59.8901366746;498.366205774
249977.366;-60.0321268885;498.714395361
249978.366;-59.9775480698;499.062562565
249979.366;-59.9345231273;499.41073767
249980.366;-59.9554042787;499.758909631
249981.366;-59.8489132589;500.107053184
249982.366;-60.0218476287;500.455209246
249983.366;-59.9019628782;500.803341515
249984.366;-59.9166858307;358.564800357
249985.366;-59.8824422708;358.900172294
249986.366;-59.7836024826;359.272148519
249987.366;-59.8002985927;359.644099768
249988.366;-59.7501333153;360.016067691
249989.366;-59.7675048288;502.891988263
249990.366;-59.8444347481;503.240076655
249991.366;-59.9043667714;503.588126096
249992.366;-59.8775033907;503.93619646
249993.366;-59.9241702721;504.284235592
249994.366;-60.0701609956;504.632282054
249995.366;-60.0697828761;504.980339664
249996.366;-59.9437520666;505.328332672
249997.366;-59.9414161339;505.676359684
249998.366;-59.9976936701;506.024367688
249999.366;-59.9122223413;506.372364671
250000.366;-59.9110309927;506.720360181
250001.366;-60.0311929857;507.068340532
250002.366;-60.0354343582;138.179990693
250003.366;-60.1257294884;138.466701448
250004.366;-60.0101451031;138.834149331
250005.366;-59.8959224318;139.201634503
250006.366;-59.9830167378;139.569107684
250007.366;-59.9153938364;509.156016787
250008.366;-60.002070606;509.503913805
250009.366;-59.9736532591;509.851827931
250010.366;-59.9399092031;510.199735057
250011.366;-59.8987957348;510.547632564
250012.366;-59.909436464;510.895496773
250013.366;-59.845146022;511.243379658
250014.366;-59.8096007702;511.591235295
250015.366;-59.8632073709;511.939085309
250016.366;-59.8432791073;512.286930315
250017.366;-59.8928176165;512.634766649
250018.366;-59.913626106;512.982601878
250019.366;-60.0255353289;513.330418988
250020.366;-59.9835908913;760.053951161
250021.366;-59.9757681651;760.379289097
250022.366;-59.9456564786;760.707423076
250023.366;-59.9168010197;761.035531
250024.366;-60.0132221386;761.36365138
250025.366;-60.1045982227;515.417127126
250026.366;-60.1707529587;515.764874974
250027.366;-60.0691977908;516.112610574
250028.366;-60.0514901062;516.460349376
250029.366;-60.1417651424;516.808069907
250030.366;-60.1731413756;517.155796162
250031.366;-60.2864250121;517.503504969
250032.366;-60.3027618953;517.851191518
250033.366;-60.6050781197;518.198888282
250034.366;-60.6525032709;518.546574583
250035.366;-60.2070504903;518.894247949
250036.366;-60.1861373752;519.241894538
250037.366;-60.2882516898;519.589547766
250038.366;-60.3557772224;519.937180304
250039.366;-60.0155015418;520.284819902
250040.366;-59.8600842551;520.63244712
250041.366;-59.9599812154;520.980062322
250042.366;-59.9124054584;521.327665197
250043.366;-59.8874044719;521.675260058
250044.366;-59.9420954702;522.022820083
250045.366;-59.9493307691;522.370422836
250046.366;-59.8932318484;522.717996521
250047.366;-59.9322829085;523.065549937
250048.366;-59.8775745902;523.413094166
250049.366;-59.9658832026;523.760639205
250050.366;-59.866243197;524.108180113
250051.366;-59.9355904784;524.455678036
250052.366;-59.9029075146;524.803194382
250053.366;-59.9762657986;525.150714478
250054.366;-59.7088082298;525.498207515
250055.366;-59.8681118282;525.845680354
250056.366;-59.8347358144;526.193164425
250057.366;-59.8602690667;526.540598085
250058.366;-59.7587918785;526.888082691
250059.366;-59.8563094646;527.235532753
250060.366;-59.8513965121;527.582957877
250061.366;-59.803954498;527.930360069
250062.366;-59.8760232843;528.277809457
250063.366;-59.9609866544;528.625193457
250064.366;-60.0277602371;528.972616032
250065.366;-60.199462272;529.319994119
250066.366;-60.162056975;529.667370526
250067.366;-60.2874318692;530.014757721
250068.366;-60.2038316289;530.362115686
250069.366;-60.2788617125;530.709468683
250070.366;-60.1661243397;531.056785746
250071.366;-60.2913565203;531.404138194
250072.366;-60.390365272;531.751460119
250073.366;-60.2937928709;532.09876739
250074.366;-60.2224775574;532.446072919
250075.366;-60.2737772679;532.793374081
250076.366;-60.253801172;533.140639863
250077.366;-60.2462480994;533.487902723
250078.366;-60.202394622;533.835174744
250079.366;-60.1214250657;534.182449603
250080.366;-60.1004689271;534.529673812
250081.366;-60.1609733666;534.876921477
250082.366;-60.1517241809;535.224164421
250083.366;-60.1410830823;535.571360739
250084.366;-60.0507885912;535.918559249
250085.366;-60.1867760292;536.265754305
250086.366;-60.1595152877;536.612959083
250087.366;-60.1505588734;536.960109428
250088.366;-59.9939832724;537.307291008
250089.366;-59.9339426637;537.654454889
250090.366;-59.7890838456;538.001599855
250091.366;-59.7930990218;538.348747533
250092.366;-59.7859415095;538.695879053
250093.366;-59.7575685037;539.042989564
250094.366;-59.6629437221;539.390102305
250095.366;-59.6735155179;539.737193323
250096.366;-59.7166805707;540.084313782
250097.366;-59.6869398257;540.431379752
250098.366;-59.7526245462;540.778421139
250099.366;-59.7374975588;541.125498333
250100.366;-59.5353240283;541.47253639
250101.366;-59.6126914639;541.819588609
250102.366;-59.6645558842;542.166604715
250103.366;-59.5223408036;542.513643661
250104.366;-59.5281562672;542.860650585
250105.366;-59.5225249344;543.207652152
250106.366;-59.6709056263;543.554636621
250107.366;-59.8988326923;543.901628805
250108.366;-59.7080668065;544.248605971
250109.366;-59.8962218755;544.595555716
250110.366;-59.7845926167;544.942491642
250111.366;-59.8794064686;545.289446552
250112.366;-59.9284635955;545.636379892
250113.366;-59.8769574981;545.983268535
250114.366;-59.8777125144;546.330223713
250115.366;-59.8521553045;546.677123352
250116.366;-59.8641129644;547.024002025
250117.366;-59.7855044653;547.370889115
250118.366;-59.7904805341;547.717768969
250119.366;-59.6901352424;548.064609441
250120.366;-59.6062494213;548.41146125
250121.366;-59.6006188908;548.758312851
250122.366;-59.6425601892;549.105148434
250123.366;-59.8319586779;549.451978188
250124.366;-60.0349116434;549.798776601
250125.366;-60.1688002054;550.145583676
250126.366;-60.174480387;550.492366012
250127.366;-60.1120642651;550.839153106
250128.366;-59.9969500786;551.185910828
250129.366;-59.9251796721;551.532692878
250130.366;-59.9556775999;551.879445622
250131.366;-59.8932817805;552.226177851
250132.366;-59.8251534069;552.572917968
250133.366;-59.9335202032;552.91962872
250134.366;-60.0294505634;553.266349562
250135.366;-59.8642351147;553.613038053
250136.366;-59.6992948202;553.959727484
250137.366;-59.6170931958;554.30639853
250138.366;-59.6848558296;554.653066827
250139.366;-59.6916364828;554.999745656
250140.366;-59.8293032508;555.346383467
250141.366;-59.9213411503;555.693035893
250142.366;-59.8614508841;556.039670095
250143.366;-59.9229267952;556.386273562
250144.366;-59.9145317921;556.732884523
250145.366;-60.0675138958;557.079498548
250146.366;-60.1211998749;557.426066831
250147.366;-60.2655536792;557.772662748
250148.366;-60.2988759189;558.119196295
250149.366;-60.412390426;558.465780973
250150.366;-60.4343944513;558.812313744
250151.366;-60.4815120585;559.158867495
250152.366;-60.4267894826;559.50538231
250153.366;-60.3789114037;559.851898647
250154.366;-60.2775977731;193.975638336
250155.366;-60.2750433539;194.386625948
250156.366;-60.3789607723;194.754900665
250157.366;-60.3418203399;195.12318525
250158.366;-60.442238684;459.533224
250159.366;-60.2629477016;805.538841257
250160.366;-60.0684172888;805.86515032
250161.366;-59.9478775942;806.191385137
250162.366;-59.8452943853;806.517653811
250163.366;-59.9299588275;563.316509063
250164.366;-59.8854492969;563.662886669
250165.366;-59.913734482;564.009290108
250166.366;-60.1426382672;564.355668265
250167.366;-60.1521043064;564.702047333
250168.366;-60.1571074896;565.0484074
250169.366;-60.3656642458;565.394737844
250170.366;-60.4440555818;565.741082946
250171.366;-60.420867226;566.087414467
250172.366;-60.5237972183;566.433735747
250173.366;-60.5020253994;566.780060568
250174.366;-60.5396693227;567.126335151
250175.366;-60.5702250499;567.472624503
250176.366;-60.5499696126;567.818906812
250177.366;-60.6190263529;568.165168384
250178.366;-60.5955720998;568.511434412
250179.366;-60.5538582528;568.857650165
250180.366;-60.5746128184;569.203911101
250181.366;-60.6606894261;569.550140176
250182.366;-60.6148007199;569.896338362
250183.366;-60.5567381886;570.242549948
250184.366;-60.579057901;570.588747161
250185.366;-60.544176441;570.93492821
250186.366;-60.5254842566;571.281087079
250187.366;-60.271157102;571.627246104
250188.366;-60.0692677574;571.97342009
250189.366;-60.0247757836;572.319542783
250190.366;-60.0506009509;572.665661871
250191.366;-60.2237441089;573.011779361
250192.366;-60.2283368464;573.357901436
250193.366;-60.0056718459;573.704005051
250194.366;-59.9618749663;574.050098584
250195.366;-59.6626581415;574.396138191
250196.366;-60.4741786379;574.742219436
250197.366;-60.6559845118;575.088258403
250198.366;-60.6999387228;575.434305297
250199.366;-60.7397007789;575.780338881
250200.366;-60.6436117787;818.907774517
250201.366;-60.508425467;819.23034495
250202.366;-60.3134254151;819.556015586
250203.366;-60.1324931526;819.881693976
250204.366;-60.1407650965;820.207343862
250205.366;-60.1961534988;577.85629674
250206.366;-60.2222655646;578.202273107
250207.366;-60.161598059;578.548208509
250208.366;-60.1822735831;578.894149879
250209.366;-60.3705144059;579.240056719
250210.366;-60.3843591695;579.585972317
250211.366;-60.2422196912;579.931886605
250212.366;-60.149482054;580.277765834
250213.366;-59.9949227681;580.623665627
250214.366;-59.9366478603;580.969525521
250215.366;-60.0074379866;581.315375806
250216.366;-60.1793450613;581.661224783
250217.366;-60.2082536434;582.007079806
250218.366;-60.1333790661;582.352888608
250219.366;-60.2143520825;582.698706853
250220.366;-60.1089218503;583.044516172
250221.366;-60.0558016144;583.39032542
250222.366;-59.9555595271;583.736110825
250223.366;-59.9598026142;584.081853675
250224.366;-59.872109536;584.427619417
250225.366;-59.9700794509;584.773385563
250226.366;-60.0920747459;585.119105853
250227.366;-60.0878218478;585.464831783
250228.366;-60.1510595871;585.81056609
250229.366;-60.0092582793;586.156267905
250230.366;-60.0280125083;586.501953964
250231.366;-60.127560634;586.847630481
250232.366;-60.4264610346;587.193306757
250233.366;-60.5996546526;587.53897408
250234.366;-60.6782694862;587.884616165
250235.366;-60.687254124;588.230274493
250236.366;-60.5489320238;588.575900996
250237.366;-60.5251781702;588.9214928
250238.366;-60.475591052;589.267095831
250239.366;-60.3614210925;589.612691354
250240.366;-60.1621296048;589.958298672
250241.366;-60.0902254435;832.248902296
250242.366;-59.9965557904;832.571078901
250243.366;-60.1759265211;832.896168577
250244.366;-60.1516120959;833.221224662
250245.366;-60.1899133965;833.546284648
250246.366;-60.1370012315;455.722986249
250247.366;-60.1357035681;456.130110026
250248.366;-59.9964274353;456.500217088
250249.366;-59.9705877128;456.870309673
250250.366;-60.0080659811;457.240382948
250251.366;-59.9918685133;593.758988389
250252.366;-60.1480982027;594.104429658
250253.366;-60.1903394401;594.449870473
250254.366;-60.2458370902;594.795297141
250255.366;-60.2301841088;595.140711248
250256.366;-60.1241281946;595.486126727
250257.366;-60.1757315517;595.831508359
250258.366;-60.1673339533;596.176891683
250259.366;-60.216428223;596.522269328
250260.366;-60.2049873487;596.867613589
250261.366;-60.0427319921;597.212972675
250262.366;-59.9034897639;597.55830949
250263.366;-59.8984516151;597.903639133
250264.366;-59.8475379789;598.248956484
250265.366;-59.8243755576;598.594254085
250266.366;-59.9020745381;598.939545854
250267.366;-59.9521647673;599.284838237
250268.366;-59.9442318009;599.630091301
250269.366;-59.8571843337;599.97536363
250270.366;-59.8090721706;600.320595602
250271.366;-59.9794187674;600.665851826
250272.366;-60.2171517287;601.011068725
250273.366;-60.2354568818;601.356272295
250274.366;-60.1339218985;601.701464806
250275.366;-60.2139043205;602.046646204
250276.366;-60.34602453;602.39182981
250277.366;-60.3655864166;602.736998912
250278.366;-60.371619835;603.082142421
250279.366;-60.4585738252;603.42728973
250280.366;-60.3775395052;603.772432265
250281.366;-60.4651932937;604.11755966
250282.366;-60.6133906662;604.462676686
250283.366;-60.6145677157;604.807747748
250284.366;-60.5034392302;605.152835052
250285.366;-60.3314415954;605.497935698
250286.366;-60.2314787081;605.842984284
250287.366;-60.3459389523;606.188045072
250288.366;-60.2314577954;606.533084492
250289.366;-60.1302371722;606.8780949
250290.366;-60.0428174221;607.223139069
250291.366;-60.0878280489;607.568121031
250292.366;-60.1667147891;607.91312413
250293.366;-60.0300656417;608.258097572
250294.366;-60.0346120426;608.603073531
250295.366;-59.9844575163;608.948041413
250296.366;-59.9927828797;850.189790847
250297.366;-59.8966182714;850.427536929
250298.366;-59.9640706649;850.75180294
250299.366;-59.9859249463;851.076036402
250300.366;-60.0415461339;851.400221396
250301.366;-60.0848855794;611.017552833
250302.366;-60.0477361024;611.362419215
250303.366;-60.0516065157;611.707289718
250304.366;-60.0031648685;612.052137516
250305.366;-59.8738216298;612.396971908
250306.366;-59.884386372;612.741811462
250307.366;-59.8729295604;613.086632516
250308.366;-59.9062364001;613.431452782
250309.366;-59.9169737993;613.776227366
250310.366;-59.9310390311;614.121020686
250311.366;-59.971080796;614.465782239
250312.366;-59.9493087956;614.810543617
250313.366;-60.1097304956;615.155287972
250314.366;-60.0583844843;480.946587797
250315.366;-59.9582294709;481.27728616
250316.366;-60.0028661157;481.646812379
250317.366;-60.1839618464;482.016301974
250318.366;-60.3992201683;482.385776643
250319.366;-60.4420701367;617.223531292
250320.366;-60.427866366;617.568194759
250321.366;-60.3881103131;617.912857669
250322.366;-60.3257642474;618.257512829
250323.366;-60.5514031271;618.602126769
250324.366;-60.4802740242;618.946745113
250325.366;-60.4374716496;619.291361959
250326.366;-60.4002685226;619.635943838
250327.366;-60.4912709115;619.980531882
250328.366;-60.5245268406;486.041288916
250329.366;-60.6059035628;486.449414485
250330.366;-60.6833793247;486.818758351
250331.366;-60.6037682511;487.188124775
250332.366;-60.6580942953;487.557463936
250333.366;-60.5476646914;622.047796405
250334.366;-60.4941711247;622.392268411
250335.366;-60.6073677336;622.73677041
250336.366;-60.5177272442;623.081231649
250337.366;-60.4458128105;623.42570599
250338.366;-60.3741903976;623.770160379
250339.366;-60.4582598347;624.114596147
250340.366;-60.2321942152;624.459018421
250341.366;-60.2251933299;624.803424166
250342.366;-60.1927673933;625.147833553
250343.366;-60.2043080286;625.492225557
250344.366;-60.1040953963;625.836610121
250345.366;-60.1086744922;626.180965714
250346.366;-60.0752963233;626.525322101
250347.366;-60.1734773082;626.869668967
250348.366;-60.0003140177;627.214005974
250349.366;-59.911018964;627.558319353
250350.366;-60.0174583799;627.902617724
250351.366;-60.06848468;628.246927301
250352.366;-60.0969540544;628.591195821
250353.366;-59.9991456895;628.935467422
250354.366;-59.9277190104;629.279725041
250355.366;-60.0553771664;629.623963436
250356.366;-60.0880250081;629.968206571
250357.366;-59.9186814443;630.312417346
250358.366;-59.8126537988;630.656639957
250359.366;-60.0127311006;631.000829057
250360.366;-60.1622979471;631.345018065
250361.366;-60.1370765418;631.689190764
250362.366;-60.2145428025;632.033352064
250363.366;-60.2560009491;632.377495092
250364.366;-60.3768716498;632.721630436
250365.366;-60.2516263924;633.065754381
250366.366;-60.2082866244;633.409864262
250367.366;-60.2519987996;633.753970068
250368.366;-60.2738097122;634.098048764
250369.366;-60.2653540084;634.442135577
250370.366;-60.1991599487;634.786197387
250371.366;-60.2751119552;635.130235551
250372.366;-60.3002911054;635.474277733
250373.366;-60.3702724864;635.818292637
250374.366;-60.4167982594;636.162307458
250375.366;-60.4045894341;636.506326712
250376.366;-60.2953039567;636.850308673
250377.366;-60.2686253784;637.194277026
250378.366;-60.4656899214;637.538253971
250379.366;-60.5970957442;637.882179897
250380.366;-60.1363705262;638.226151906
250381.366;-60.037007776;638.570073206
250382.366;-59.8932924445;638.913978079
250383.366;-59.9462986501;639.257868065
250384.366;-59.934006171;639.601756532
250385.366;-59.8497160975;639.945653184
250386.366;-59.7544200227;640.289505476
250387.366;-59.767104444;640.633360852
250388.366;-59.7088040229;640.977188447
250389.366;-59.705602118;641.321025714
250390.366;-59.8130514542;641.664823302
250391.366;-59.7813633024;642.008643148
250392.366;-59.7236188646;642.352441128
250393.366;-59.6352018978;642.696200621
250394.366;-59.5675502035;643.03996637
250395.366;-59.5095560084;643.383727268
250396.366;-59.5259095513;643.727459321
250397.366;-59.6865102949;644.071197122
250398.366;-59.5693821344;644.41489542
250399.366;-59.5222723087;644.758591428
250400.366;-59.498180671;645.102294293
250401.366;-59.6518482012;645.445964175
250402.366;-59.6559693474;645.789614297
250403.366;-59.6821007632;646.133286603
250404.366;-59.4822685363;646.476918234
250405.366;-59.6030134121;646.820546242
250406.366;-59.6803758027;647.1641666
250407.366;-59.5914613203;647.507763868
250408.366;-59.5951842773;647.851341252
250409.366;-59.5144804535;648.194937098
250410.366;-59.5823841298;648.538499872
250411.366;-59.6080314674;648.88203712
250412.366;-59.5598641651;649.225575652
250413.366;-59.5735251974;649.569095162
250414.366;-59.4920320918;649.912598579
250415.366;-59.5369126136;650.256117395
250416.366;-59.4675806545;650.599597797
250417.366;-59.5504336998;650.943076036
250418.366;-59.7150716741;651.286524157
250419.366;-59.5919979531;651.630004476
250420.366;-59.7633297607;651.973417817
250421.366;-59.861426775;652.316842903
250422.366;-59.7750974424;652.660242849
250423.366;-59.7643723596;653.003639527
250424.366;-59.6724131425;653.347064207
250425.366;-59.7469811244;653.690402876
250426.366;-59.7432567689;654.033763157
250427.366;-59.7499896773;654.377121324
250428.366;-59.6491683564;654.720444029
250429.366;-59.5706716619;655.063777956
250430.366;-59.7140116381;655.40708625
250431.366;-59.5712295904;655.750371191
250432.366;-59.5875961391;656.093659544
250433.366;-59.6690150979;656.436917986
250434.366;-59.6627969965;656.780200046
250435.366;-59.7327765798;657.123434752
250436.366;-59.7515495547;657.466665405
250437.366;-59.731147394;657.80987964
250438.366;-59.7823240518;658.1530706
250439.366;-59.804882714;658.49627646
250440.366;-59.7182031724;658.839457852
250441.366;-59.872483107;659.182614169
250442.366;-59.9192123283;659.525763589
250443.366;-59.7644695406;659.868897286
250444.366;-59.9261594825;660.212018438
250445.366;-59.8272230759;660.555141831
250446.366;-59.7104588002;660.898248581
250447.366;-59.7330703736;661.241334615
250448.366;-59.7327957402;661.584416775
250449.366;-59.6680779157;661.927488782
250450.366;-59.6932140426;662.270524838
250451.366;-59.6412027419;662.613563162
250452.366;-59.537028977;662.956568302
250453.366;-59.5825436559;663.299587895
250454.366;-59.6291982636;663.642568442
250455.366;-59.6204218881;663.985583435
250456.366;-59.5673576714;664.328533485
250457.366;-59.5456539885;664.671494378
250458.366;-59.5433271229;665.014442852
250459.366;-59.4994611574;665.35736597
250460.366;-59.6361071117;665.700302358
250461.366;-59.5623848336;666.043195776
250462.366;-59.5379198828;666.386104883
250463.366;-59.4427357274;666.728964297
250464.366;-59.4325175401;667.071832423
250465.366;-59.564719998;536.590933727
250466.366;-59.5764258463;536.958924599
250467.366;-59.7125546558;537.326871554
250468.366;-59.6521276072;537.694820514
250469.366;-59.7036085167;538.062732649
250470.366;-59.4696321865;669.128754742
250471.366;-59.6145730494;669.471525887
250472.366;-59.540366076;669.814288974
250473.366;-59.4809432556;670.157032819
250474.366;-59.6187842305;670.499773511
250475.366;-59.4984061384;670.842505147
250476.366;-59.439436574;671.185199808
250477.366;-59.4425294333;671.527893545
250478.366;-59.533262324;671.870565711
250479.366;-59.5886791095;672.213260632
250480.366;-59.3371881654;672.55591434
250481.366;-59.3252484273;672.898548404
250482.366;-59.3172263128;673.241162642
250483.366;-59.3935853452;673.583799622
250484.366;-59.4927392161;673.926380653
250485.366;-59.5149851025;674.268970198
250486.366;-59.4934567118;674.611534951
250487.366;-59.2886138534;674.954094715
250488.366;-59.3058703128;675.296639768
250489.366;-59.3963738;675.639182895
250490.366;-59.6593043574;675.981708099
250491.366;-59.803954729;676.324218663
250492.366;-59.9543199647;676.666710919
250493.366;-60.0875359406;677.009195644
250494.366;-60.2369706228;677.351651172
250495.366;-60.3054546854;677.69411378
250496.366;-60.1046966416;678.036553393
250497.366;-60.0837948178;678.378977451
250498.366;-59.9807236208;678.72138329
250499.366;-59.994412392;679.063794653
250500.366;-59.8093264968;679.406164111
250501.366;-59.8096342903;679.74854075
250502.366;-60.0267493214;680.090908517
250503.366;-60.0341952958;680.433247591
250504.366;-59.9358794611;680.775616345
250505.366;-59.9271761688;681.117914944
250506.366;-59.8544180005;681.460214308
250507.366;-59.9238392096;681.802504395
250508.366;-60.0766711895;682.144792764
250509.366;-60.0032296699;682.487054482
250510.366;-59.9577192036;682.829288104
250511.366;-59.8483029576;683.171534352
250512.366;-59.8482584876;683.51376433
250513.366;-60.0461841984;683.855979577
250514.366;-60.4912152416;684.198173487
250515.366;-60.4356792292;684.540343049
250516.366;-60.4738963327;684.882509963
250517.366;-60.4949573923;685.224662211
250518.366;-60.4803077982;685.566824633
250519.366;-60.34401693;685.908961582
250520.366;-60.0867808262;556.812238976
250521.366;-59.9880284415;557.179548958
250522.366;-60.1560223929;557.546867621
250523.366;-60.1969553608;557.914176269
250524.366;-60.1346308531;558.281505604
250525.366;-60.0755277928;687.961437489
250526.366;-60.1150505577;688.303483723
250527.366;-60.119582396;688.645493371
250528.366;-60.1583079542;688.987501699
250529.366;-60.1274150857;689.329482393
250530.366;-60.1194250514;689.671448067
250531.366;-60.3220698907;690.013419959
250532.366;-60.1739681703;1018.48782659
250533.366;-60.0675120243;1018.77572537
250534.366;-60.0518902462;1019.06360225
250535.366;-60.0390541434;1019.35143989
250536.366;-60.0766987148;1019.63924915
250537.366;-60.3033004035;1019.92703267
250538.366;-60.2517599099;1020.21481564
250539.366;-60.3265564015;1020.50252829
250540.366;-60.3939916859;1020.79026067
250541.366;-60.4639192288;1021.07794595
250542.366;-60.2347031789;1021.36559799
250543.366;-60.2818487719;1021.65326336
250544.366;-60.2389985013;1021.94087942
250545.366;-60.1693277493;1022.22846189
250546.366;-60.0338935156;1022.51604715
250547.366;-59.9045031012;1022.803583
250548.366;-59.896703698;1023.09110206
250549.366;-59.8412267479;1023.37860661
250550.366;-59.7952079181;1023.66605607
250551.366;-59.8470104093;1023.95349743
250552.366;-60.0137500081;1024.24093619
250553.366;-60.0709565509;1024.52831354
250554.366;-59.9961714115;1024.8156894
250555.366;-60.021335831;1025.10305238
250556.366;-60.0271354602;1025.3903811
250557.366;-60.0674577457;1025.67766593
250558.366;-60.1460532935;1025.96493179
250559.366;-60.1595626127;1026.2521569
250560.366;-60.116903801;1026.53941684
250561.366;-59.9766342841;1026.82659656
250562.366;-59.9447411699;1027.11377666
250563.366;-60.0300855018;1027.40093638
250564.366;-59.8232659221;1027.68800761
250565.366;-59.743565424;1027.9751379
250566.366;-59.7820457964;1028.26220131
250567.366;-59.8677545774;1028.54924057
250568.366;-59.8442502819;1028.83627879
250569.366;-59.8536426505;1029.12326275
250570.366;-59.8521338676;1029.41024245
250571.366;-59.6095932806;1029.69719541
250572.366;-59.6351602801;1029.98409827
250573.366;-59.7077293417;1030.27101522
250574.366;-59.8319214284;1030.55789315
250575.366;-59.8446664202;1030.84472857
250576.366;-59.886825765;1031.13156519
250577.366;-59.7869489333;1031.41837519
250578.366;-59.9206524987;1031.70512627
250579.366;-59.8484610857;1031.99187885
250580.366;-59.7580543561;1032.27858593
250581.366;-59.7760612927;1032.56530261
250582.366;-59.8850691957;1032.85196938
250583.366;-59.8326177926;1033.13861566
250584.366;-59.7801706908;1033.42525746
250585.366;-59.6240790274;1033.71185155
250586.366;-59.5535990132;1033.99843047
250587.366;-59.4273221327;1034.28497582
250588.366;-59.4685398177;1034.57146213
250589.366;-59.6441887205;1034.85798188
250590.366;-59.6929078784;1035.1444604
250591.366;-59.8799871666;1035.4309022
250592.366;-59.96161424;1035.71732546
250593.366;-60.3422362243;1036.00374587
250594.366;-60.2652014093;1036.29009788
250595.366;-60.4025056915;1036.57647512
250596.366;-60.455060323;1036.86279148
250597.366;-60.3534677859;1037.14907509
250598.366;-60.3832546263;1037.43536254
250599.366;-60.4997965208;1037.72160736
250600.366;-60.4859765235;1038.00784185
250601.366;-60.3546507845;1038.29404938
250602.366;-60.3081357052;1038.58022462
250603.366;-60.3542723726;1038.86637092
250604.366;-60.2070579637;1039.15247376
250605.366;-60.2628145815;1039.43856692
250606.366;-60.2902493743;1039.72465553
250607.366;-60.4067344767;1040.01070701
250608.366;-60.3606475947;1040.29672047
250609.366;-60.1381083096;1040.5827343
250610.366;-60.1270273358;1040.86871355
250611.366;-60.0360658232;1041.15463278
250612.366;-60.023862369;1041.4405793
250613.366;-60.0295746335;1041.72648417
250614.366;-59.9090046387;1042.01235281
250615.366;-59.9421176131;1042.29819414
250616.366;-59.8367101467;1042.58401534
250617.366;-59.7091732605;1042.86982973
250618.366;-59.751101337;1043.15560055
250619.366;-59.7956392605;1043.44133997
250620.366;-59.8218195877;519.864050171
250621.366;-59.8149195679;520.150285781
250622.366;-59.9443129431;520.485271914
250623.366;-59.9023024452;520.820257649
250624.366;-59.7494953881;795.004248591
250625.366;-59.8135041899;1256.64641256
250626.366;-59.8605479553;1256.91842498
250627.366;-59.870520609;1257.19033057
250628.366;-59.795079151;1257.462227
250629.366;-59.8329064505;1046.29745422
250630.366;-59.959963766;1046.58292575
250631.366;-59.8781917976;1046.86837952
250632.366;-59.8449221388;1047.15381036
250633.366;-59.8354771193;1047.43918088
250634.366;-59.952616394;1047.72457167
250635.366;-59.8764533482;1048.00991779
250636.366;-59.8253586618;1048.29523044
250637.366;-59.9485787662;1048.58053414
250638.366;-59.8731015042;1048.86579308
250639.366;-59.8254484176;1049.15105045
250640.366;-59.9021844101;1049.43625932
250641.366;-59.8659607344;1049.72145813
250642.366;-59.8334832151;1050.00664352
250643.366;-59.7701128977;1050.29177487
250644.366;-59.7760890703;1050.57689414
250645.366;-59.8144733567;1050.86198983
250646.366;-59.85399263;1051.14708213
250647.366;-59.8209472308;1051.43210711
250648.366;-59.7983352846;1051.71712955
250649.366;-59.8108771933;1052.00212371
250650.366;-59.8065348027;1052.2870835
250651.366;-59.9312388094;1052.57204538
250652.366;-59.846677258;1052.85694577
250653.366;-59.8140392037;1053.14185456
250654.366;-59.7696972598;1053.42671417
250655.366;-59.8088549111;1053.71156368
250656.366;-59.7217270249;1053.99637635
250657.366;-59.7184271442;1054.28118843
250658.366;-59.7923274518;1054.56593339
250659.366;-59.8818198568;1054.85069642
250660.366;-59.8253753107;1055.13537212
250661.366;-59.7974039382;533.492643771
250662.366;-59.7098626784;533.88096704
250663.366;-59.7639453616;534.215742835
250664.366;-59.691245788;534.550530125
250665.366;-59.7732047318;534.885301868
250666.366;-59.753436603;1056.843168
250667.366;-59.6223656578;1057.12771061
250668.366;-59.5450141359;1057.41221357
250669.366;-59.5928164341;1057.69671921
250670.366;-59.5732566517;1057.9811904
250671.366;-59.7822562985;1058.26562706
250672.366;-60.0739427788;1058.55004178
250673.366;-60.3586428742;1058.83440819
250674.366;-60.5826203941;1059.11880114
250675.366;-1653.30852732;1059.40312203
250676.366;-60.4789495301;1059.68743271
250677.366;-60.4725028546;1059.97173953
250678.366;-60.437912619;1060.25596481
250679.366;-60.096942244;1060.54021717
250680.366;-59.8618585394;1060.82443065
250681.366;-59.8999784677;1061.10860257
250682.366;-60.355904651;1061.39279323
250683.366;-60.4134232299;741.30995424
250684.366;-60.3617072944;742.166435422
250685.366;-60.4949971553;742.506164103
250686.366;-60.6083283794;742.845908212
250687.366;-60.6280675619;743.185621251
250688.366;-60.7206310886;743.525324195
250689.366;-60.6243214362;743.864981763
250690.366;-60.4321819026;744.204649659
250691.366;-60.3841649062;744.544298902
250692.366;-60.6027544041;744.883917123
250693.366;-60.7031812827;745.223544412
250694.366;-60.7139333225;745.563144722
250695.366;-60.5724569864;745.902738419
250696.366;-60.598278391;978.534979173
250697.366;-60.6538046553;978.800961
250698.366;-60.7494181935;979.118357326
250699.366;-60.7574188788;979.435731217
250700.366;-60.8082524375;979.753106554
250701.366;-60.8592279468;747.939936927
250702.366;-60.7375178397;748.279403613
250703.366;-60.6981176524;748.618879167
250704.366;-60.6064109837;748.958314156
250705.366;-60.6226807149;749.297761484
250706.366;-60.4521806095;749.637168957
250707.366;-60.5011092891;749.97658462
250708.366;-60.535848655;750.315962404
250709.366;-60.3418006217;750.655310044
250710.366;-60.2940747;750.994685173
250711.366;-60.027617627;751.334042426
250712.366;-59.9039021047;751.67337437
250713.366;-60.0508551536;752.012663967
250714.366;-59.9853125731;752.351984553
250715.366;-59.9846740689;752.691256362
250716.366;-59.8626850137;753.030500801
250717.366;-60.0127084863;753.369767776
250718.366;-59.9608998379;753.708992741
250719.366;-59.9512440398;754.048217206
250720.366;-60.0090956524;754.387413696
250721.366;-59.8808485312;754.726601368
250722.366;-60.036401208;755.065766993
250723.366;-59.9744505006;755.404935435
250724.366;-60.111027108;755.744071461
250725.366;-60.0482486007;756.083203089
250726.366;-60.0392008692;756.422314885
250727.366;-59.852151219;756.761413875
250728.366;-60.1115524133;757.100490604
250729.366;-60.1359936306;757.439558231
250730.366;-59.9787178855;757.778577253
250731.366;-59.9599510868;758.11761575
250732.366;-60.0586614439;758.456634453
250733.366;-60.0251344945;407.63275873
250734.366;-59.9797566752;408.003568878
250735.366;-60.0282709094;408.37254331
250736.366;-60.0619975364;408.741512669
250737.366;-59.9802437723;409.11049766
250738.366;-59.864452454;760.490408497
250739.366;-59.7645772863;760.829322992
250740.366;-59.7611033138;761.168222585
250741.366;-59.7311594846;761.507083805
250742.366;-59.7516981439;761.845951554
250743.366;-59.7924846566;762.184792832
250744.366;-59.7723119183;762.523634501
250745.366;-59.8099100853;762.862447196
250746.366;-59.8935737131;763.201227715
250747.366;-59.8085490515;763.540021037
250748.366;-59.9257207795;763.878771679
250749.366;-59.9359784351;764.217554355
250750.366;-60.0166322874;764.556261176
250751.366;-60.1492685424;764.894995243
250752.366;-60.2088596372;765.233692677
250753.366;-60.1583613044;765.572382293
250754.366;-60.3327908172;765.911042584
250755.366;-60.3949271333;766.249680704
250756.366;-60.3375847458;766.588349982
250757.366;-60.3475488654;766.926982733
250758.366;-60.294193275;767.26558103
250759.366;-60.341416674;767.604172786
250760.366;-60.1792606852;767.942750691
250761.366;-60.1087647832;768.281311554
250762.366;-60.2407092678;768.619848817
250763.366;-60.1202701743;768.958397319
250764.366;-60.0174501413;769.296899331
250765.366;-59.9684814683;769.635404819
250766.366;-59.8409809322;769.973883974
250767.366;-59.8940104228;770.312345904
250768.366;-59.8726852906;770.650818596
250769.366;-59.8465096488;770.989232263
250770.366;-59.8717984059;771.327662438
250771.366;-59.957388776;771.666060581
250772.366;-59.8307867519;772.00444068
250773.366;-59.8043545549;772.342812082
250774.366;-59.7764181704;772.681161845
250775.366;-59.8822587626;773.019505722
250776.366;-60.0170064685;773.357826881
250777.366;-59.9802923014;773.696134433
250778.366;-59.9362044798;774.034430489
250779.366;-59.94823329;774.372686184
250780.366;-59.7512270468;774.710969261
250781.366;-59.7882408038;775.049197211
250782.366;-59.7798870482;775.387433614
250783.366;-59.6513219697;775.725640388
250784.366;-59.5925298351;776.063832971
250785.366;-59.7612562957;776.402011856
250786.366;-59.7269982789;776.740186988
250787.366;-59.7767814993;777.0783152
250788.366;-59.8713124258;777.416447227
250789.366;-60.0262823819;777.754564915
250790.366;-60.1982766317;778.092677909
250791.366;-60.139808027;778.430756369
250792.366;-60.1963251589;778.768821846
250793.366;-60.0409409642;779.106863788
250794.366;-59.9993820328;779.444906219
250795.366;-59.9938441184;779.782930471
250796.366;-59.9676588263;780.120932719
250797.366;-59.8219450061;780.458908443
250798.366;-59.8594152149;780.796869409
250799.366;-59.8638058692;781.134837922
250800.366;-59.8623744041;781.472772017
250801.366;-59.8751676102;781.810692348
250802.366;-59.8746037551;782.14857871
250803.366;-59.6510857528;782.486476151
250804.366;-59.661122466;782.824360519
250805.366;-59.5419852015;783.162215659
250806.366;-59.5456323109;783.500060054
250807.366;-59.7440566357;783.837877473
250808.366;-59.7495380013;784.175693568
250809.366;-59.7822335302;784.513476176
250810.366;-59.7855058428;784.851263488
250811.366;-59.7537856872;663.167768136
250812.366;-59.9229555221;663.530937438
250813.366;-59.8923469417;663.894375595
250814.366;-59.9459125226;664.257770244
250815.366;-59.9810327053;664.621205357
250816.366;-59.9845076038;786.877563959
250817.366;-60.0343203141;787.215223804
250818.366;-60.0714380653;787.552872103
250819.366;-59.981070551;787.890498117
250820.366;-60.1389076132;1017.66755693
250821.366;-60.1718869201;1018.01052202
250822.366;-59.9838888712;1018.32550146
250823.366;-59.9736319722;1018.64052712
250824.366;-60.0161334144;1018.95547792
250825.366;-60.0011376278;789.91593223
250826.366;-59.9341562285;790.253435033
250827.366;-59.9477921798;790.590927201
250828.366;-59.9736026436;790.928401613
250829.366;-59.913469943;791.265879782
250830.366;-60.0814596696;791.603310192
250831.366;-60.0542731926;791.94075708
250832.366;-59.9520532569;792.278158198
250833.366;-59.8887647951;792.615557131
250834.366;-60.0337770829;792.952948931
250835.366;-59.9473482335;793.290310423
250836.366;-60.0247172606;793.627664149
250837.366;-60.0447624218;793.964991015
250838.366;-60.1492223242;672.975482836
250839.366;-60.1305005109;673.338403568
250840.366;-60.1813985528;673.701459237
250841.366;-60.0918329413;674.064461155
250842.366;-60.0435856578;674.427473825
250843.366;-60.0789006461;795.988663186
250844.366;-59.9722025784;796.325852356
250845.366;-59.8750147624;796.663068914
250846.366;-59.9098224442;797.000241339
250847.366;-59.8242247557;1026.19696834
250848.366;-59.6538523171;1026.50819367
250849.366;-59.7379117433;1026.82267246
250850.366;-59.578011804;1027.13707861
250851.366;-59.8257415573;1027.4514657
250852.366;-59.7181830122;799.022985763
250853.366;-59.7824948004;799.360072979
250854.366;-59.8570054265;799.697106372
250855.366;-59.8669399018;800.034146762
250856.366;-59.9759116365;800.371189012
250857.366;-60.0372306241;800.708183684
250858.366;-60.1018707685;801.045167537
250859.366;-60.1980841947;801.382113017
250860.366;-60.1958002768;801.719066921
250861.366;-59.9839710148;802.05600753
250862.366;-60.0069491355;802.392925148
250863.366;-59.9729098905;802.729806142
250864.366;-59.7625115172;803.066695672
250865.366;-59.8057664371;682.772428921
250866.366;-59.8124974435;683.134734241
250867.366;-59.8257623721;683.497338653
250868.366;-59.7849299416;683.859927781
250869.366;-59.6301425192;684.222523022
250870.366;-59.5816591002;458.158780425
250871.366;-59.5351269662;458.528791584
250872.366;-59.6233897395;458.89737809
250873.366;-59.63492487;459.265968147
250874.366;-59.5513368276;459.634574639
250875.366;-59.5202122515;806.771322536
250876.366;-59.4447434152;807.108005439
250877.366;-59.5590147585;807.444674945
250878.366;-59.4895595411;807.781316493
250879.366;-59.4985100936;808.117967815
250880.366;-59.3928425457;808.45455486
250881.366;-59.3761361735;808.791166233
250882.366;-59.3127565599;809.127736906
250883.366;-59.3502316159;809.464297642
250884.366;-59.5142405547;809.800842083
250885.366;-59.3151426528;810.137360708
250886.366;-59.3336710209;810.473901739
250887.366;-59.3748232812;810.810401021
250888.366;-59.3504113014;811.14687843
250889.366;-59.4065217702;811.483333671
250890.366;-59.5459246854;811.819780396
250891.366;-59.5053914872;812.156194737
250892.366;-59.7063263264;812.492625315
250893.366;-59.8231667992;812.829007161
250894.366;-59.8483485378;813.165394529
250895.366;-59.8929627485;813.501737076
250896.366;-59.9522259194;813.838089911
250897.366;-59.9899782541;814.174456089
250898.366;-59.8911623125;814.510735985
250899.366;-59.8620326763;814.847029836
250900.366;-60.0125986895;815.183290835
250901.366;-60.0003292232;815.519551631
250902.366;-59.9229804474;815.855803824
250903.366;-59.9505016379;816.192029271
250904.366;-60.0906869589;816.528239562
250905.366;-59.9734537891;816.864411385
250906.366;-59.9580101439;817.200578229
250907.366;-59.8317224051;817.536741466
250908.366;-59.8442522258;817.872877039
250909.366;-59.7417909375;818.208994608
250910.366;-59.6638448666;818.545116905
250911.366;-59.6368098224;818.881207205
250912.366;-59.6581483083;819.217259472
250913.366;-59.6836030441;819.553319609
250914.366;-59.7834278448;819.889358693
250915.366;-59.8889816885;820.225382061
250916.366;-59.8509914938;820.561369414
250917.366;-59.8432722611;820.897350334
250918.366;-59.8531453608;821.233309332
250919.366;-59.9366094619;821.569271073
250920.366;-60.0874681928;821.905205033
250921.366;-60.2611481925;822.241121598
250922.366;-60.2346595378;822.577020059
250923.366;-60.1972919228;822.912888637
250924.366;-60.1495489537;823.248755475
250925.366;-60.2402413638;416.54078367
250926.366;-60.0103833659;416.909097421
250927.366;-59.7827355901;417.277163794
250928.366;-59.5008731528;417.645189727
250929.366;-60.1860635739;418.013255722
250930.366;-60.326449541;825.263578957
250931.366;-60.653008504;825.599313455
250932.366;-60.4390240321;825.93504889
250933.366;-60.358113014;826.270761151
250934.366;-60.5546746808;826.606430143
250935.366;-60.3440164539;826.942100775
250936.366;-60.4323013826;827.277758833
250937.366;-60.3735948572;827.613422164
250938.366;-60.1365850744;827.949021826
250939.366;-60.0349509756;828.284615526
250940.366;-59.821380797;828.620209109
250941.366;-59.9017449284;828.955772029
250942.366;-59.9037556933;829.291314665
250943.366;-59.890360526;829.6268552
250944.366;-59.7684705559;829.962380467
250945.366;-59.8561707579;830.297881605
250946.366;-60.0127498965;830.633353692
250947.366;-59.7931916937;830.968822352
250948.366;-59.7926586879;831.304269416
250949.366;-59.7545208311;831.639689997
250950.366;-59.76850567;831.975109426
250951.366;-59.6830223674;832.310503089
250952.366;-59.6755348294;832.645879662
250953.366;-59.7113945299;832.981235831
250954.366;-59.8583300046;833.316575139
250955.366;-59.9956385028;833.651894189
250956.366;-59.9470257602;833.987195274
250957.366;-60.1474516202;428.315423627
250958.366;-60.1885950054;428.685078989
250959.366;-60.266079849;429.053016974
250960.366;-60.0281538771;429.42097237
250961.366;-60.0081223094;210.78351974
250962.366;-60.0365650104;492.053133488
250963.366;-60.0062883255;492.421321413
250964.366;-59.9170693703;492.789497688
250965.366;-59.7216485498;493.157665399
250966.366;-59.756205674;837.339284139
250967.366;-59.734371491;837.674400405
250968.366;-59.8374171419;838.009496988
250969.366;-59.6230724523;838.344569505
250970.366;-59.651803178;838.679626298
250971.366;-59.5983747863;839.014659531
250972.366;-59.6478620449;839.349678082
250973.366;-59.641286766;839.684691757
250974.366;-59.7341053751;840.019680756
250975.366;-59.7464646787;840.354668791
250976.366;-59.7731330305;840.689617425
250977.366;-59.8493694522;841.024548196
250978.366;-59.8477231299;841.359463099
250979.366;-60.0291809705;841.694351401
250980.366;-60.1236040722;842.029237525
250981.366;-59.9505705145;842.364112359
250982.366;-59.9906979674;842.698949876
250983.366;-60.0670628609;843.033784712
250984.366;-59.8622083718;843.368576366
250985.366;-60.0460027867;843.703390357
250986.366;-59.9119547539;844.038145997
250987.366;-60.0106709783;844.372906735
250988.366;-60.070838368;844.707651976
250989.366;-59.9693773509;845.042369348
250990.366;-59.9768147833;845.377074291
250991.366;-60.0500445061;845.711747807
250992.366;-60.1805360467;846.046424418
250993.366;-60.2518221862;846.381065209
250994.366;-60.2935645839;846.71572625
250995.366;-60.273306952;847.050321051
250996.366;-60.1955529265;847.384916527
250997.366;-60.1257571975;847.719503893
250998.366;-60.132979163;848.054058405
250999.366;-60.0538913743;848.38861309
251000.366;-60.1165490954;848.723135004
251001.366;-60.158097787;849.057624501
251002.366;-60.028006293;849.392122394
251003.366;-59.9423533472;849.726584324
251004.366;-60.0038045679;850.061047724
251005.366;-60.0221536087;850.395485401
251006.366;-60.0344243164;850.729888021
251007.366;-60.0093357406;851.064297321
251008.366;-60.0112321413;851.398669282
251009.366;-59.9601403159;851.733046885
251010.366;-59.9050470884;852.067377511
251011.366;-59.9798508551;852.401688947
251012.366;-59.9288884473;852.736010216
251013.366;-60.0472753199;853.070302142
251014.366;-59.9787609173;853.404559927
251015.366;-60.218233633;853.738831679
251016.366;-60.2884035771;854.073078866
251017.366;-60.2996207687;854.407271164
251018.366;-60.352458755;854.741486404
251019.366;-60.4293679745;855.075667004
251020.366;-60.5965948806;855.409824864
251021.366;-60.5436276128;855.74396775
251022.366;-60.4908865677;856.078096404
251023.366;-60.521784396;856.412226473
251024.366;-60.3059940231;856.746299144
251025.366;-60.1931059594;857.080356891
251026.366;-60.0487009976;857.414437435
251027.366;-60.1374931838;857.74847474
251028.366;-60.247987225;858.082494614
251029.366;-60.392318151;858.416476785
251030.366;-60.4389059927;858.750458035
251031.366;-60.3831635186;859.0844103
251032.366;-60.263587063;859.418366846
251033.366;-60.4655536376;859.752288826
251034.366;-60.6827779558;860.086204688
251035.366;-60.6811304088;860.420104854
251036.366;-60.1597217994;860.753983444
251037.366;-60.0667857712;861.087823643
251038.366;-59.9322343361;861.421659375
251039.366;-59.9849428905;861.755469895
251040.366;-59.8387908224;862.089282691
251041.366;-59.8589021387;862.423071926
251042.366;-59.9334733772;862.756831461
251043.366;-60.0129401688;863.090552293
251044.366;-59.9061156312;460.344908212
251045.366;-59.9123375133;460.678124562
251046.366;-59.9957134304;461.045627253
251047.366;-59.9765642321;461.413131657
251048.366;-60.038472665;461.780623699
251049.366;-60.1014818764;865.092648761
251050.366;-60.3921311941;865.426266315
251051.366;-60.42002153;865.759855694
251052.366;-60.5471078224;866.093462801
251053.366;-60.5527803874;866.426989112
251054.366;-60.5822518698;866.760542896
251055.366;-60.4698795381;867.094068763
251056.366;-60.437225297;867.427567581
251057.366;-60.2186643632;867.761053052
251058.366;-59.9678647852;868.094530123
251059.366;-59.9313190153;868.427979273
251060.366;-59.9508108914;868.76141369
251061.366;-59.8791099863;869.094832757
251062.366;-59.8525974871;869.428201879
251063.366;-59.9743883314;869.761579373
251064.366;-60.0361439854;870.094945449
251065.366;-59.9774226894;870.428283341
251066.366;-59.8879175801;870.761616153
251067.366;-59.832984848;871.094918929
251068.366;-59.8420239129;871.428189732
251069.366;-59.8134494535;871.761464653
251070.366;-59.7777076346;872.094699409
251071.366;-59.7086381679;872.427921604
251072.366;-59.8161946281;872.76113891
251073.366;-60.0706212677;873.094334081
251074.366;-60.0165689668;873.427503882
251075.366;-59.9086995006;873.760666319
251076.366;-59.8883697221;874.093796091
251077.366;-59.9830193284;874.426909925
251078.366;-59.9954142827;874.760013435
251079.366;-59.9270029406;875.093080225
251080.366;-59.9141359775;473.448728843
251081.366;-59.7749080651;473.905525582
251082.366;-59.8229491115;474.272832519
251083.366;-59.8498067078;474.640134145
251084.366;-59.702181525;475.00746793
251085.366;-59.7570859421;877.0911567
251086.366;-59.7494765423;877.424129302
251087.366;-59.6803799486;877.75705606
251088.366;-59.690758732;878.089957367
251089.366;-59.7751073032;878.422851853
251090.366;-59.7787819365;878.755721554
251091.366;-59.8843748851;879.08858133
251092.366;-59.6187787497;879.421413996
251093.366;-59.6104946599;879.754229868
251094.366;-59.4988372186;880.087032193
251095.366;-59.6094497603;880.419807126
251096.366;-59.6443010132;880.752556777
251097.366;-59.6182131805;881.085326542
251098.366;-59.5402659506;881.418030848
